0.086583585,-0.24066441,0.026337229,0.17612827,-0.3852897,0.31866178,-0.3579464,0.097153835,-0.41333848,0.110793635,0.33460093,-0.48803067,0.25772384,0.240171,0.012821371,0.19544147,0.12052459,0.06923993,0.022728048,-0.024653682,-0.04379748,-0.8670463,-0.1396362,-0.061520744,0.23568526,0.099588126,0.21292213,0.03342412,0.21978025,-0.31024653,0.3063197,0.0046192454,-0.31973973,0.041392546,-0.8805229,0.33813035,-0.5342131,-0.09449075,-0.13457493,0.016420301,-0.028048772,0.08330683,-0.25662887,0.15503171,-0.42645317,0.0033815736,0.14110048,-0.48529255,-0.65650433,0.1551858,0.28899327,-0.1930216,-0.28246462,0.04761617,0.22627342,0.19199154,-0.22653168,-0.32609752,0.36641076,0.35096452,0.44929993,0.08755275,0.00042218942,-0.19572264,0.005362263,-0.046098944,-0.022476548,0.03638336,0.010265875,0.012901853,-0.05080988,0.07671486,-0.095302925,-0.026170773,0.050576106,-0.0023131873,0.070245266,0.03656369,-0.07483527,0.09647583,0.14607635,0.0069368146,-0.02787973,-0.00973446,0.084979676,0.021575853,-0.024122851,-0.07505511,0.09727958,-0.008552194,0.12418094,-0.4023942,-0.025597377,0.00065941765,0.015701631,0.17796999,-0.056716617,-0.2636453,-0.114196196,0.07749289,-0.08226677,-0.023691904,0.03561153,0.0074216328,0.17410377,0.019142833,-0.14959209,0.013986131,0.041009486,0.00800623,0.035942707,-0.021187352,0.04833596,-0.0012301388,0.0052716425,-0.042097956,-0.0058013992,-0.05844068,0.04225873,0.09156107,0.08254642,-0.0025073062,0.048812833,0.055184353,0.06549454,0.030214418,-0.004539835,0.21913877,-0.00068757444,-0.011748971,0.000115028466,-0.00047861543,0.0022475584,0.0014442,0.0006730144,0.013652293,-0.01956111,-0.00037404388,-0.0030997784,0.0009822018,-0.0009870249,-0.0018843306,0.00018688802,0.0024530592,0.012339417,0.0018900991,-0.0043803845,0.0140668405,-0.0007583576,0.00054056523,-0.0065853735,0.0019086755,0.0090131955,-0.0010072396,-0.02719296,0.002800322,0.0010439055,-0.0022380135,-0.026785772,-0.0071309973,-0.032919526,-0.0038731412,-0.1689898,0.0151016945,0.06930631,-0.31285822,-0.0049632667,0.00993031,0.0037271702,-0.014247225,0.030909121,-0.0012864274,-0.00021971641,0.00088110415,0.009768629,0.048911255,-0.011768998,0.045243874,-0.015059349,0.002410898,0.0026374317,0.0024622278,0.02298011,0.01205091,0.0006779357,-0.114526115,0.068798475,-0.04160592,-0.0207005,0.0044210376,-0.013101649,0.0027041049,-0.013155464,0.00022743364,0.005530508,0.0027023144,0.0051967776,0.0011630194,-0.002662045,-0.0045289816,-0.01998069,-0.0006826037,0.012560913,0.004139205,-8.283346e-05,0.0018856309,-0.0014164059,0.0011760099,0.0037329698,0.0034102527,0.001995041,-0.0076499265,0.000579203,0.0038328168,-0.0019963172,0.00088732364,0.0012432709,-0.0005663638,0.011259016,-0.00015165226,0.001140612,-0.0014566258,0.0084792385,0.0018918662,-0.021299047,0.0011555633,-0.057644587,0.017004969,0.07364066,0.013892481,0.004058577,-0.010257356,0.0024919147,-0.013201408,-0.012760033,0.001240017,8.330523e-05,-0.00036495822,0.0040044035,-0.0052358173,-0.0029167589,0.008621423,-0.0025897198,0.0021998384,0.0012483753,0.00037665173,0.0153482165,0.0024844958,0.000839043,-0.024458896,0.024887031,-0.048573278,-0.016706318,-0.011631656,0.0048674317,0.0010951291,0.038141165,-0.058540646,0.03646707,0.0068624527,0.1770845,0.13859466,0.08860347,-0.012535396,-0.2748293,-0.019133685,0.06230063,0.0542295,0.17787533,-0.058418084,0.18165147,0.2061526,0.13358107,-0.032542113,-0.21079832,-0.11728752,-0.19317046,0.039957024,-0.029494315,0.1376679,0.15022972,0.045637388,0.2657331,0.060744036,-0.06424234,0.014674497,-0.00073911546,-0.277037,-0.008741228,-0.22427201,0.015456092,0.22484708,-0.1778867,-0.02800031,0.067117065,-0.044368807,0.15152861,0.009898399,-0.3187357,-0.0061192866,-0.016469548,0.096393794,0.020530647,0.001880249,0.14375521,-0.047365293,0.04300006,-0.07595041,0.1562661,-0.35650486,0.005008563,0.22975248,0.06717765,0.100120984,-0.0052211583,0.11647404,0.051584575,0.061030626,0.05697066,0.08754404,0.031719763,-0.29181546,-0.023960683,0.009730073,-0.014780078,0.001670829,-0.011647223,-0.012274412,0.07159934,-0.0016271343,-0.009043929,-0.009930011,-0.009597815,0.010061218,-0.004306009,-0.0041537657,-0.0025357036,0.0040178187,-0.019945785,0.07422693,0.004082252,0.0006101135,-0.1702601,-0.007404316,0.0068467404,-0.0029560009,0.05142738,0.00094440836,-0.0023341004,0.003236659,-0.025988998,-0.0041286894,0.029097572,-0.005205984,-0.007339533,-0.05772433,0.00033725993,-0.03650515,0.009804499,-0.0075207674,0.004394408,0.018580576,-0.06480079,0.01205271,0.0064041405,-0.0029555177,0.007893361,0.046343647,0.0029453097,0.029297119,0.008299805,-0.002110474,0.010452381,0.0036063502,-0.014404918,-0.008205206,-0.0014215356,-0.07278332,0.004948523,0.00089899846,0.04210283,-0.014084348,-0.0019293705,0.007478893,0.0011866661,0.0006712547,-0.002659488,0.00038824027,0.0034136344,0.00085175683,0.00093500165,0.00016728777,0.0007850677,0.0013774787,-0.00093271816,0.00015267424,-0.0017367122,0.0004936842,0.0008685674,0.0001655721,-0.0017940637,-0.00065703434,0.002468331,-0.0011430207,-0.00063978764,-0.001567769,0.0010919035,-0.0007714878,0.00089267746,-0.0006305553,0.00059590687,0.0025301748,-0.0003249573,0.000652344,-0.0019211638,0.00022073864,0.002190734,0.0017585449,-0.002047537,0.001205232,0.00067153416,0.0029624642,0.0018802601,0.004364249,0.0033293492,0.00024484,0.0026490623,-0.0014804505,0.0033119228,-0.0002685939,-0.00043044015,0.00436523,-0.0017945713,-0.0025247843,0.00017362423,0.0020910755,0.0011382597,4.607868e-05,-0.0009703011,-0.00033970777,-0.002458595,0.00395627,-0.00042679228,0.00071392796,-0.0010207514,0.0017484433,-0.0014499549,0.0010109814,0.019283252,-0.072157495,0.015890501,-0.5209145,-0.05738792,0.27983892,0.08790804,-0.53465813,-0.095189735,-0.43739283,0.2826713,0.14481927,0.28436044,-0.052858483,-0.43211722,0.22358474,0.11542939,-0.48778033,-0.27709326,-0.14835653,0.2870391,0.21329911,-0.03506763,-0.44808045,0.06305162,-0.5479678,0.22286986,0.03672371,-0.3194388,0.34639817,0.23237532,0.079169914,-0.35675928,0.20703307,-0.43208438,0.07956154,-0.42669886,-0.006674918,0.05943445,-0.006633591,-0.44662693,0.0145128975,-0.26651815,0.08177767,0.25308844,-0.45403433,0.14769974,-0.3618424,0.26638478,0.22365057,-0.32927057,0.34248024,0.11934608,0.0911242,0.2445404,0.24151856,0.14491104,-0.4637247,0.18436264,0.2843041,0.25215,0.096777655,-0.005553893,-0.16415317,0.083499,0.022915998,0.058518097,-0.0039832937,0.03299191,-0.030605705,0.022045583,-0.010798998,-0.04269737,0.00374306,0.0636459,0.00619526,0.05096286,-0.01963032,0.0131775355,0.084333226,-0.0020568108,-0.0054115998,-0.010817079,-0.07044994,-0.012637489,-0.002660271,0.022778798,0.019508861,-0.004931588,0.00047567798,-0.04104989,0.0044444795,-0.007943189,0.003385739,0.028661337,0.0010557667,-0.10865748,-0.0023034208,0.17794448,0.0343418,0.1437797,0.04997008,-0.17551343,0.09073119,0.0023523704,-0.13395083,0.049876913,-0.08056842,-0.0015362247,0.004025292,0.10948261,-0.041389912,0.007826609,-0.028694388,0.03494357,-0.00082222035,-0.013304194,0.0015927621,0.08839967,0.011881472,0.00083192985,0.07948272,-0.07521791,-0.09640767,0.00490454,-0.05904208,-0.32584023,0.0010614666,
0.043390006,0.061816286,-0.053531677,-0.21423504,0.19166817,0.11223433,0.23186778,-0.19685535,0.024455182,-0.21531416,0.09029888,0.20187004,0.0069063855,-0.15906006,-0.07837703,-0.059436597,-0.17472057,-0.2133487,-0.114583954,-0.11729546,-0.029580649,-0.021726314,0.18011123,-0.14283846,-0.2756743,-0.25898603,0.039461304,-0.081070274,-0.22111975,0.1509944,-0.01853887,-0.08407933,-0.028301459,-0.124881975,-0.13019156,-0.0215706,-0.0107431775,-0.06367663,-0.12442199,0.009997198,-0.16049537,0.009102615,-0.047936674,-0.00068529346,0.063056074,-0.19506153,-0.12689969,0.0330006,0.11790055,0.14655977,-0.2615498,0.10895897,0.16845869,-0.14994076,0.012938123,0.02521658,0.20423424,-0.29498357,0.054632314,0.008346885,0.04569931,-0.0031939654,-0.17542875,0.043187603,
-0.107457556,-0.03967399,0.057176866,0.10684251,-0.17570926,0.121326536,0.075012974,-0.18126239,-0.0778563,0.054286856,-0.16638483,-0.0066820206,-0.13279577,-0.06277157,0.01216664,-0.19570008,-0.07409617,-0.0022162742,-0.040412586,-0.14896326,0.11153792,-0.0027208407,-0.057662737,0.0141285,-0.31776,0.056437127,0.0240413,0.09933848,-0.14186688,-0.002519991,0.16742013,0.102037005,-0.06553947,-0.006834147,-0.5203111,-0.0899695,-0.079022095,0.08358603,-0.06105557,0.019262629,-0.078648314,0.078400366,0.13606343,-0.08461454,0.12282701,-0.046399586,0.024457606,-0.013556535,0.056608014,0.055737324,-0.14882824,0.10833276,-0.09821213,-0.049360793,0.10654563,0.13856076,0.07939409,0.1792875,-0.14839278,-0.026061071,-0.023706697,-0.020288521,0.089524105,-0.17156823,-0.06490922,-0.14309761,-0.065298714,-0.11736953,0.060677428,-0.24810255,0.080684036,-0.005203654,-0.028078979,0.15855055,-0.08616075,-0.022107355,-0.17866561,0.065466225,0.08112005,-0.4551519,0.039881766,-0.07366577,-0.029378552,0.0042391648,0.15512162,-0.14673495,0.06586546,-0.7068399,0.13419096,0.041430436,-0.010258154,0.026091944,-0.12435166,0.04625868,-0.16496661,0.18416369,0.14148301,-0.1025952,-0.09364056,-0.099152744,0.16652723,-0.0027653822,-0.1288089,0.1397005,-0.07013118,-0.31215194,0.013668732,-0.021252569,-0.068859525,0.13458541,-0.2681754,0.031686675,-0.17152344,0.047965806,0.04041334,0.18122402,-0.010494207,0.17958373,-0.42176378,0.0017854889,-0.20548816,-0.1019956,-0.07615975,-0.14747742,0.14466497,-0.09398188,-0.17943679,-0.22281057,0.56128216,-0.12325439,0.09084135,-0.008182929,0.076592796,0.092264585,0.020749168,0.014529808,0.06646809,0.5835306,-0.00062409206,-0.02916744,0.086256556,0.034992486,0.025467841,0.53859156,0.028718472,-0.026009033,-0.076585054,-0.18425062,-0.034000937,0.34606636,-0.031180061,-0.0128580015,0.22010975,-0.024288367,-0.026948418,-0.092289515,0.024818277,0.04144033,-0.005980145,-0.062709965,0.04873777,-0.036402643,0.0740224,-0.23353475,-0.0141201075,0.11500201,0.017254556,0.042895436,-0.054253526,-0.14932309,0.039355155,0.10123077,-0.10296305,-0.02809033,-0.010216294,-0.20483321,-0.07488857,-0.023252781,-0.018452665,0.19783805,-0.025560435,-0.064364195,-0.073267646,-0.20461056,0.016711472,0.09091011,-0.10310759,-0.050487507,0.04657227,0.053555552,-0.39508298,-0.044345357,0.079423465,-0.05240141,0.20174289,0.5112294,-0.18650597,0.4082295,-0.08218394,0.086970724,-0.0015796173,0.04780747,0.0034044734,0.07734479,0.3996042,0.0322528,-0.06354248,-0.033079967,0.01942693,0.0072910897,0.059586022,0.018679786,0.006334846,0.1207154,-0.1875275,0.28686354,0.11951815,-0.00026254499,0.030611595,0.13595459,-0.025935162,-0.06419902,0.1650816,-0.009625289,-0.06528745,0.0004979131,0.03633712,-0.018874777,-0.1263066,-0.097618625,0.072386496,-0.09748477,-0.06780677,0.17434825,-0.038496368,0.015380666,-0.031007225,0.0075192866,-0.047567092,0.09725234,0.07232302,-0.03991342,0.12997013,0.009799371,-0.0054841093,-0.022483693,0.0063845846,0.029819708,0.1022465,0.2322929,0.0278706,0.021529732,0.03274366,-0.09770915,-0.01724862,-0.07892316,0.120142594,0.003033893,0.06127898,0.022063361,0.036274463,0.0039088987,0.04426909,-0.045263954,-0.13177419,0.052267257,-0.06733089,0.02816334,0.11328614,0.024728999,-0.035721697,-0.045561913,0.06834035,0.122793615,-0.00402045,0.22877693,-0.0233355,0.105298206,-0.005129649,0.008644786,0.0010194513,0.09437907,0.003527393,-0.030375412,-0.09382058,-0.12626544,-0.02666534,0.06551564,0.09774864,0.050346307,-0.22113939,0.15855268,0.13650073,0.08440155,0.03426093,0.053672604,-0.0519077,-0.08455228,-0.051240534,-0.17929713,0.06299518,-0.12499918,-0.024667326,-0.081499785,0.09637001,-0.21052465,-0.16059634,-0.07508224,0.12617084,0.041754916,0.0493677,-0.074665114,-0.16219752,0.09007725,-0.061117735,-0.16188079,0.1293752,0.07306512,-0.11169535,0.16509408,-0.09306845,-0.008646134,0.11764494,0.05748515,0.0034195893,0.19243939,0.05983504,-0.026371006,0.014177562,0.03255239,-0.061384685,-0.07043938,0.15922521,-0.17215444,0.22767545,-0.20454189,-0.17213331,-0.38938296,0.13287656,0.037381638,-0.083408795,0.056788865,-0.15849598,0.38182485,0.21892962,0.011758982,0.21992967,-0.35019377,-0.05442392,-0.25953656,0.005240557,0.10712052,-0.02750019,0.20969588,-0.090242974,0.112524875,-0.117292084,0.07936344,-0.17180066,0.22903632,-0.03829509,-0.05871251,-0.11145096,-0.25447556,-0.025375128,-0.103701316,-0.18684001,-0.0031994057,-0.057151664,0.09608083,-0.19190343,-0.1110412,-0.2045716,-0.079274364,0.01177649,-0.036464866,0.12794179,-0.01884817,0.03351039,0.065010875,0.12604469,0.0090300925,0.0623864,0.16415638,-0.053443566,-0.09559988,0.12120219,-0.10861772,-0.075080395,-0.2742837,0.25933668,-0.26170516,-0.03738047,-0.3071917,-0.15905032,0.20272478,0.017819997,0.02443615,0.16646609,-0.119877465,-0.09270608,-0.005569017,0.011522264,-0.24161175,0.28772485,-0.01005187,-0.116542086,0.08132314,-0.38790458,-0.31369498,0.048051354,0.14893453,0.26960772,-0.07424521,0.06514983,-0.28559765,0.029696023,-0.21092044,-0.10559165,0.06403995,-0.11568658,-0.016671289,-0.044649396,0.20319997,-0.45164514,-0.06870588,-0.19172853,-0.07797167,-0.080546536,0.16938631,0.012653508,-0.13512148,-0.11778223,-0.098535426,-0.10414344,-0.023252202,0.10165078,-0.11169566,-0.19592507,0.07518241,-0.3184654,0.06259619,0.054569166,-0.092654124,0.30826235,0.18559311,-0.0703159,-0.12859617,-0.042642087,-0.11305621,0.15198748,-0.08515348,-0.13122855,0.008430194,-0.17082648,0.008107262,-0.13829337,-0.06699115,0.048615642,0.25586054,-0.032352254,-0.011895881,0.1364118,-0.0742305,0.08164547,0.13303536,0.24198781,-0.030211784,-0.040184002,0.021535976,-0.18302163,-0.2766633,-0.16645935,-0.23517764,-0.71511716,0.08755915,0.045041345,0.20899637,-0.14131567,-0.09244728,-0.20022322,-0.14051133,-0.1367378,-0.045565076,-0.06104624,0.08142594,-0.15523191,-0.3935467,0.12221139,-0.12610437,0.20458607,0.11896928,-0.00753046,0.00502191,0.02660598,0.2013757,0.21244065,0.27345178,0.061463907,0.006446136,0.09049932,0.21486685,0.12481685,-0.024320666,-0.20474349,-0.026049595,0.30593228,-0.07921444,-0.1122864,0.26102388,-0.18277672,-0.03208496,0.019855421,-0.10109346,0.11818518,-0.08443127,-0.11971897,-0.1559836,0.20339946,0.037176482,0.02264259,-0.08814104,-0.16072756,0.038028542,0.006836029,0.028237285,0.10380898,0.17680046,-0.018003749,-0.130167,-0.25522238,-0.026998801,0.091430284,0.10960185,-0.06670487,-0.07268983,0.0064838403,-0.027541425,0.074678056,-0.10639615,-0.040768288,-0.08481995,-0.070927925,0.06842183,-0.0049613975,-0.16188158,-0.06652204,0.07557787,0.0037217042,0.06313222,-0.12928316,-0.36218545,0.1525685,-0.3516526,-0.20222439,0.06846017,0.1773231,-0.03219263,0.12125242,-0.032081243,-0.008996312,-0.100910984,-0.48536402,-0.06404139,-0.0016734789,-0.10365796,-0.1011684,0.07595932,-0.031759992,0.055202052,-0.020423045,0.06316021,0.20763138,-0.06341464,-0.33660272,-0.12205478,0.021573242,0.038178727,-0.0066610645,-0.28642184,0.039721113,0.083380096,-0.16967194,-0.21192837,0.039688736,0.023320757,-0.101087995,-0.055466685,0.12751822,-0.07987536,-0.12984261,-0.09592941,-0.0060474984,0.024159139,-0.06635986,0.011540975,0.3212039,0.143442,0.09149495,0.01742657,-0.0036711465,-0.2607551,0.12078988,-0.21312988,-0.2319932,-0.34487534,0.2620461,-0.07011774,-0.03480661,0.24702992,0.31394118,-0.056888647,-0.26871106,-0.12906966,-0.18757732,-0.272463,0.09933153,0.3747388,-0.17149794,-0.06264273,-0.19932422,0.08648979,-0.010608811,-0.11848217,0.10608145,0.3141996,-0.021356529,0.07729569,-0.08658491,-0.020131653,-0.035931066,-0.15168157,0.02444992,0.12923877,0.018575316,0.0037701186,-0.0028969334,0.2784732,-0.053904194,-0.007061713,-0.10024958,0.096574314,0.023024261,0.19232117,0.045416966,0.14348108,0.17611282,-0.12260947,0.0011234364,-0.16005652,0.18650143,-0.09429382,0.11887442,-0.15425204,-0.13452978,-0.042608276,-0.03616232,-0.08634867,0.06101438,-0.016301759,-0.17145842,-0.08483685,0.11786681,-0.05324733,0.15746516,-0.055749316,0.06772941,-0.23799035,-0.046759743,0.14164768,0.042972937,-0.07738952,0.2208603,0.115412064,-0.5600021,-0.08477112,-0.061867848,-0.12706126,0.24376254,0.19782738,-0.05453088,0.13698329,-0.1895745,0.05202756,-0.37102228,-0.29846728,-0.07159948,-0.22583422,0.2161378,0.010712039,-0.49679112,-0.18903369,0.01647812,0.15599954,0.14532024,-0.28445962,-0.055427995,-0.13394901,-0.06962549,0.01793112,0.08371529,-0.010947015,-0.12224889,0.07801329,-0.18370472,0.16320682,-0.0112583265,-0.04580229,0.042570572,-0.15383655,0.15091072,0.04162881,0.042674802,-0.014179383,-0.105757505,0.028765535,-0.030206729,-0.049726516,-0.20456226,0.15145504,-0.030889703,-0.097699724,0.013610678,-0.17039482,-0.002627578,-0.07224052,0.0486815,0.088562004,-0.11305497,0.021905417,-0.11957134,-0.15321684,-0.13430548,-0.14149016,-0.19424881,0.16952176,0.16518049,-0.21813732,-0.016213851,-0.15933868,0.06976525,-0.18200426,0.045428056,-0.17677598,-0.15465768,-0.28617448,-0.1446226,0.012078067,-0.12323107,-0.1588797,0.13174748,-0.0863856,-0.11831845,0.06434291,0.046361204,0.14283466,0.117487244,-0.06813804,0.28449333,0.113148205,-0.08474087,0.102507,-0.059816014,0.05206831,0.18740782,-0.044955775,-0.09266726,-0.19972715,-0.03683575,-0.07714151,0.15404178,-0.09873222,-0.107393354,0.09660415,0.148519,0.26585627,-0.11496798,0.028669912,-0.21536236,-0.101312935,0.07130139,-0.2812509,-0.4921583,-0.17511544,-0.32108763,0.017607858,-0.098493405,-0.23573835,0.1513308,-0.08191006,0.11247806,-0.03662666,0.15030377,0.2686368,-0.15139267,-0.00851776,-0.016678859,-0.13232385,0.22105911,-0.10001057,0.05282622,-0.19851337,0.38720307,0.008687185,-0.4131416,0.12796557,-0.0090881465,-0.032552604,-0.175309,-0.039389063,-0.31161937,-0.11259375,0.08856705,-0.12759292,0.067047104,0.07256681,-0.18943836,-0.05556121,-0.20083423,-0.2023376,0.14136621,-0.20277943,-0.03285911,-0.11315377,-0.14175428,0.10751349,0.12698409,-0.070354536,0.13453758,0.17248376,-0.7048551,0.008525087,-0.044959895,-0.14311942,0.25264743,-0.6192839,0.23804486,-0.08141736,-0.2583164,0.15196685,0.11641692,-0.09331269,-0.17641647,-0.44469473,0.06671243,-0.15748818,0.046317786,-0.10434538,0.0067711095,0.03621944,-0.07911831,0.2891761,-0.011917336,-0.09258208,-0.09831318,-0.042142678,0.19323698,-0.09234241,0.15243088,-0.06583676,-0.05560551,0.029901953,0.07649737,0.14089066,-0.20595932,0.14720507,0.3343347,0.032117933,-0.28601235,0.10824072,-0.05233251,-0.32188004,-0.2927081,0.385983,0.08287193,0.32062632,0.013897126,0.17440575,0.049711388,-0.020160574,0.12056998,-0.11767602,0.14185391,0.030204784,-0.010444506,-0.11113298,-0.19870174,-0.014758323,-0.10926871,0.23704952,-0.37966716,-0.13267493,-0.054224838,0.066558555,0.081821054,-0.104386754,0.09969324,-0.19429687,0.23127405,-0.121713474,-0.12433698,-0.12687989,0.11225586,-0.31003752,-0.13994934,0.013716373,-0.16542202,0.0474551,0.1688487,0.15304802,0.1416528,0.06768106,-0.11967401,0.19096069,-0.42412317,0.0050646896,0.24695307,-0.14481048,-0.46069828,0.19925398,-0.09165258,-0.3668722,-0.015294514,0.08331607,0.114261754,0.005332542,0.22245,-0.11327772,-0.12373282,-0.009493289,-0.1936391,-0.18902954,-0.15837014,-0.1078005,-0.053400807,-0.03840512,-0.31170937,-0.12969463,-0.029761137,-0.124572806,-0.27654102,0.027453374,-0.048606325,-0.054068815,-0.13989681,0.019267181,-0.114378534,-0.28467435,0.19888274,0.014652391,0.037651166,-0.11234762,-0.09084741,-0.07009089,0.26258767,-0.16772592,0.21882986,0.247612,0.035397347,-0.25305396,-0.22442852,-0.15335906,0.21954462,-0.12913129,-0.114119224,-0.13986994,-0.10506367,-0.22952923,-0.09457406,0.042312715,-0.04330705,-0.036425956,-0.08614995,0.04143241,-0.06239406,0.08298129,-0.028277986,-0.02495038,0.11846508,0.08455367,-0.05375773,0.06695385,-0.17413063,-0.15502083,-0.08468649,-0.022039903,-0.2970701,-0.056338303,-0.018524174,0.096621215,0.16505466,-0.07614486,0.0027133464,-0.18788622,0.012562099,-0.08688882,0.12427477,0.027324999,-0.2932769,-0.059100732,-0.038269117,0.028958434,0.21960953,0.06254465,0.10979161,0.053427525,0.17262438,-0.077628925,0.0038662786,0.00946552,-0.075767376,0.16997339,0.22004552,0.10492276,-0.013290984,-0.07460732,0.081953175,0.13849707,0.12461769,-0.010957314,0.03570498,0.14902285,-0.07468329,-0.12366353,-0.27263564,-0.063395165,0.2933029,-0.3774437,-0.24435888,0.27121124,0.2615077,0.037338253,-0.19591737,0.013216675,-0.2529186,0.061229914,-0.16681853,-0.036857806,0.0715008,-0.5621412,-0.13480172,0.113358825,-0.27403262,0.11114006,-0.1136676,-0.022768954,-0.052321743,0.08381705,-0.07683916,-0.026072944,-0.20048805,-0.21500087,-0.004113414,-0.12926115,0.100953124,-0.08665178,0.046353217,-0.15964422,-0.2788992,-0.34491605,0.19882926,-0.018715868,0.0113824755,0.045820773,0.09583633,0.017017016,-0.040326722,-0.07252531,0.24996464,-0.03479331,0.081049465,0.11313443,-0.11514347,-0.2869453,-0.06358519,-0.18295929,0.23350202,0.051426023,-0.24282385,0.09070031,-0.14650227,-0.0988862,0.031196246,-0.01251103,-0.05064844,0.20408149,-0.19504614,0.007906515,-0.0036421693,-0.20866428,0.13804424,-0.14543137,-0.06172835,-0.15840697,-0.110468246,0.17548509,-0.009376294,-0.039631356,-0.08162814,-0.021033647,0.08695271,0.09183758,-0.091290794,-0.036768526,0.06176271,0.22806594,-0.047856826,0.24353036,0.030492976,0.1338479,0.098936446,-0.18627667,-0.1380689,-0.012866529,0.11498687,0.21404931,0.21406876,-0.1325309,-0.1491457,0.009171486,-0.023707256,0.049815636,0.10663058,0.17802267,0.18847246,-0.13902469,-0.075434774,0.13430962,-0.07005792,0.10306874,0.044315185,0.14164516,-0.21258578,0.15645586,-0.11036877,0.2531881,0.057249945,0.13604316,-0.12877409,0.053504992,0.23306847,-0.006923502,-0.04752956,-0.28119728,0.07773706,0.14505957,-0.027252525,0.31904846,0.041126087,0.13738671,-0.020651415,-0.1237559,0.22198,-0.043875095,0.07272288,-0.093682304,0.10845272,-0.20286953,-0.249475,0.013373043,0.025754416,-0.14305446,-0.29829562,0.18280767,0.10362689,0.06875284,0.016187068,0.27511922,-0.30400243,-0.5667688,-0.7900767,0.1392187,0.24360915,-0.029792162,-0.27925462,-0.043088168,-0.010560061,-0.37323916,-0.13836189,-0.09943408,0.3006066,-0.16440132,0.20054115,-0.17269896,-0.07452128,-0.07474131,-0.250032,-0.04403044,-0.26504862,-0.05711897,0.009816916,0.08089573,-0.4778047,-0.13313931,-0.112587675,0.18617752,-0.25405312,0.01801566,0.027626647,-0.006211203,-0.16461048,-0.11163945,0.20401308,-0.16962644,0.04912298,0.07013362,0.07260747,0.13562901,-0.25276834,-0.1292913,0.2531319,-0.25065097,0.18858704,0.13815705,-0.042553525,-0.3157226,-0.013610305,-0.06366449,0.16463237,0.035729732,0.17091933,-0.12667477,-0.04221661,0.2644676,-0.019778125,-0.0366229,-0.039998177,-0.013501547,0.08177693,-0.19170663,0.20602426,-0.065560326,0.10793707,-0.013747573,0.27558488,0.08460182,0.09153242,0.10099636,-0.03675591,-0.11328808,0.046303593,-0.24046023,-0.0803372,-0.07500909,-0.039291732,-0.14769194,0.032889612,0.11681313,-0.16089712,0.19090936,0.063127905,0.029135551,0.01664327,-0.19734453,0.13147672,-0.62080836,0.20727873,0.32713825,0.20095524,0.22219674,-0.11910022,0.02616539,-0.0233804,-0.033835877,-0.07987155,0.14610721,-0.06871508,0.27470994,0.18523106,0.0769644,-0.07497181,-0.04746555,-0.1389016,0.11416717,0.12521844,0.083931275,-0.12938869,-0.039829735,-0.10489024,-0.023542877,-0.15308005,-0.09599079,0.043590173,-0.08980133,0.09291823,0.12753478,-0.10049893,-0.07751242,0.08212489,-0.1959017,0.16822913,0.06762239,-0.051688902,0.09939488,-0.18442944,-0.12353098,0.058213707,-0.012048415,0.14261742,-0.06782459,0.0037852104,-0.035257023,-0.06987428,0.074170396,0.03491029,0.07885068,-0.027936092,-0.071954966,-0.043481614,0.16825806,-0.14144257,0.09153284,0.13171636,0.18362182,0.021656506,0.046476055,0.1767717,0.19227026,0.037448477,0.057929415,0.07854686,0.032015134,-0.05612454,-0.20285936,-0.26155093,0.20140184,0.09598789,0.10360195,0.18336488,0.14047876,-0.34594688,-0.047941897,-0.017195476,0.2244556,0.15933588,-0.21942504,0.063192196,-0.024212586,0.09243111,0.16285516,-0.05340674,0.096296676,-0.07559875,-0.031677317,0.19081034,0.12865096,-0.15829486,0.04908538,-0.11795307,-0.024778621,-0.1580988,0.12514123,-0.15219808,-0.0070175566,0.05890241,-0.1925589,0.12885298,0.06164108,-0.19251555,-0.13818394,-0.0119078215,-0.14376402,-0.24246255,-0.052701995,0.06923252,0.10412958,-0.026584186,0.16600753,-0.092480905,-0.0820839,0.031438675,0.12255051,-0.01513839,0.11860903,-0.20138286,-0.04106248,0.21207206,-0.08833632,0.07073111,-0.07085733,0.011006658,0.08888324,-0.082195535,0.035262734,-0.0016634836,-0.22981296,-0.0635404,-0.21542646,-0.20918813,-0.0426077,0.097061366,0.05705178,-0.13509196,-0.20174792,0.13804585,-0.12021431,0.08353243,0.11946119,-0.18664072,0.019035587,-0.0017215621,-0.10208482,-0.047286987,-0.09939902,-0.07123689,-0.036665957,-0.058467228,-0.08632285,0.21646388,-0.06027013,0.2583621,-0.0403415,0.053237647,0.06439118,0.117701985,0.2351613,-0.14020629,-0.051872574,-0.057980377,-0.2912426,-0.07085452,0.1660302,-0.46114624,-0.01000293,0.044218004,-0.16161993,-0.046312056,-0.001847678,0.3883153,0.009500261,-0.7362012,-0.030891292,-0.022432642,-0.31742233,0.013842945,-0.070343636,-0.07638066,-0.19739005,0.07509854,-0.20849937,0.0026073935,-0.12804346,0.25866398,0.18489096,-0.30890015,-0.11430534,-0.07127248,-0.0739284,-0.23668005,-0.1749303,-0.62995327,0.099509686,-0.00058646314,0.17274626,0.25964364,-0.039973207,-0.08039008,-0.049773432,0.05139041,-0.09547648,-0.045301087,-0.13736701,-0.12836142,0.036829576,-0.070335574,0.019603087,-0.2908061,-0.04882838,0.02797072,0.22056796,-0.15855256,0.07468159,-0.178579,-0.0764282,-0.02327208,-0.050572407,-0.16118866,0.1881265,-0.21113285,0.22848468,0.12316374,-0.21663642,0.041308027,-0.15588021,0.23331338,0.045296572,0.09957257,0.03890145,-0.0018987333,0.06975455,-0.25154248,0.24680878,0.015901146,-0.075149104,-0.025238235,0.17979391,-0.1600412,-0.17521755,0.042759053,0.1482918,0.051366337,-0.0804082,0.034678664,0.009319286,-0.08549232,0.32968688,0.008624014,0.11018311,0.43491212,-0.04002417,-0.22301556,-0.026186865,0.14835332,0.22762473,0.12741008,0.20366098,0.05002819,0.11070036,-0.10598435,0.025642786,-0.05228867,-0.0013830565,-0.0050756563,0.10578271,0.23865627,-0.22762531,-0.0015121852,-0.12205543,-0.037533462,0.26402646,-0.04574872,-0.046020817,-0.09907986,0.10275672,-0.0829014,-0.11081894,0.153668,0.12621506,0.09036397,0.15850489,-0.109171,0.09155945,-0.04128676,0.052174896,-0.119669735,-0.060777653,-0.11036441,-0.026044479,-0.059754033,0.033463202,0.051160786,-0.20659858,0.17420842,0.17838056,0.11832166,-0.1752072,0.020237738,-0.028747091,0.09686063,0.029895905,-0.06802854,-0.062348943,0.13238412,0.16469918,0.08522197,0.15303136,-0.068779394,-0.08863066,0.13487796,0.09897282,-0.5541422,-0.07446988,0.11385426,0.04501889,-0.051551588,0.007028466,0.13087614,-0.06859308,-0.0578916,0.052848145,-0.21824591,-0.06536268,0.03683375,-0.13857433,0.04659977,-0.07153063,-0.15638332,0.122591615,0.04377793,0.21113177,0.15597236,-0.21236476,0.029522736,-0.016233122,-0.14910977,0.24795945,0.0047175707,0.048357096,0.11047898,-0.037982654,0.13633282,-0.16786112,-0.08518351,0.08212299,-0.051411454,0.0184403,-0.062409636,-0.09241321,0.0111893555,0.26845837,0.16442035,0.042528287,-0.09783679,0.14566265,0.13103269,-0.27249146,0.0020366006,-0.04604833,-0.10935487,0.04328707,-0.18447448,0.0656448,-0.14033605,-0.2171818,-0.09244745,0.06906351,0.022349996,-0.017522134,-0.1289456,-0.11779811,0.1099937,0.031345118,0.12196374,0.014805206,-0.10899484,-0.029483212,-0.1439999,-0.040871326,-0.086266585,-0.0505003,0.015953902,-0.063505486,-0.004266061,-0.092281766,0.026608886,0.11369944,0.17392814,-0.058968097,-0.22249925,-0.18119182,-0.08860979,0.05171985,0.10721058,-0.11376575,-0.11765203,0.09740301,0.048840404,-0.049383834,-0.14625676,0.12309399,0.21296266,0.14046058,0.055899583,0.1026993,0.06363103,-0.03945881,-0.08638007,0.009375718,-0.18696351,-0.057883084,0.12885812,-0.43210664,-0.10697829,0.18280633,0.020918947,0.13376336,-0.19671145,0.19798476,0.0072433823,-0.27261165,-0.030331304,-0.63339007,-0.39332613,0.0022261506,0.063606836,-0.18674558,-0.44910544,0.022086868,0.1154595,-0.04517477,0.106157884,-0.109823816,0.04544327,0.12404861,-0.07694522,0.21600288,-0.075316064,-0.0139591,-0.4320939,0.23317009,-0.15126272,0.089566946,-0.049291905,-0.3890861,-0.19476373,0.0926838,0.05963092,0.09616798,-0.5227764,0.041834407,-0.011222356,-0.009911763,0.14286469,-0.13264723,-0.080496326,-0.1423009,-0.19000569,0.10230387,-0.10454778,-0.247145,-0.028220559,-0.115016386,0.0069721583,0.14401513,0.18093921,-0.005659964,0.056832734,-0.21163939,0.08522817,0.0007564217,0.03055696,0.034211326,-0.019963473,0.065094605,0.06084909,-0.061612837,0.19398057,0.14157002,0.05428437,0.09073397,-0.24023081,-0.0486555,-0.060607795,0.08614215,0.07778811,-0.12488592,0.05895885,-0.08010188,0.13358924,0.18981402,-0.16800562,0.07526147,-0.25546864,-0.3046059,0.3161403,0.004117629,-0.064524375,0.11011181,-0.29837495,0.044299893,0.12440335,0.2417016,0.0021313955,0.11324214,0.09105239,-0.080500886,0.0010494086,-0.093214005,-0.06578197,-0.31455016,0.00049587287,-0.6093559,-0.0038456824,0.1113518,0.12846638,-0.07723438,0.019005168,0.10054981,0.147466,-0.013664101,0.010992679,0.13766503,0.09438037,0.12422966,-0.0551106,-0.29759648,0.109641604,0.088263504,-0.1123663,-0.0052874256,-0.09759094,-0.23432323,-0.050907534,-0.09618315,0.14903656,-0.2699334,-0.046363812,0.0013466188,-0.20523411,0.025970286,-0.021144545,0.035424255,-0.19535868,0.15961434,0.04393826,-0.35467723,0.18951802,-0.018581318,-0.10110516,-0.32551923,0.3845748,-0.14106482,0.07379356,-0.14145249,0.3152351,-0.0017824504,-0.041978985,-0.29416674,-0.101597734,0.1214944,0.054176077,-0.17153943,0.061953213,0.20046279,-0.031935796,-0.04914672,-0.29480118,-0.20805758,0.010965195,-0.039125364,-0.06011356,0.0847672,-0.2756371,-0.12875889,-0.4079557,0.1595967,-0.7246193,-0.29498157,0.16963537,-0.10517984,0.025706057,0.01082143,0.16041717,0.07792615,-0.11267082,0.0037068785,-0.0854989,-0.2437013,0.009439192,0.04374781,0.026398892,0.005864344,0.10831953,0.14562699,0.13782485,0.1918825,0.005342437,0.03763475,-0.067793585,-0.21850304,0.08991255,0.09276106,-0.058104202,-0.43054512,-0.21837303,0.019574828,-0.047580842,0.005105873,0.10452878,-0.16549027,0.06355177,-0.019674148,-0.088032104,-0.081812225,0.1826633,0.17200255,0.01985618,0.05397414,-0.16249542,-0.027636671,0.045990232,0.004630003,0.0686303,0.103365235,0.050938223,-0.16010143,-0.18546876,0.12963943,0.010189565,-0.056715228,0.07857338,-0.03417697,-0.17829296,0.08925606,-0.44012526,0.18982334,-0.053840123,0.029497037,-0.06711817,0.046023972,-0.07134743,-0.16929914,-0.036681976,-0.021426072,-0.055167727,-0.038152594,0.09743408,-0.10048469,-0.004421972,-0.028402207,-0.097585335,-0.07473469,-0.11361759,0.1716335,0.29731035,-0.0727364,-0.17513722,-0.09286359,0.055108715,-0.027775303,-0.081251256,0.033133034,0.020992668,0.10376878,-0.035078276,-0.1391239,-0.05129243,-0.07410012,-0.09598191,-0.046593774,0.08628185,0.0062170564,0.029880308,0.005440795,0.06628659,0.10914457,0.20467736,-0.020556863,-0.016278682,-0.07736345,-0.023016507,-0.086428605,0.088760614,0.0040345136,-0.053865965,-0.096361004,0.09589425,0.21152294,0.042366926,0.1607547,-0.055819962,-0.22129743,-0.037729863,0.10908429,-0.16787213,-0.15657227,-0.0982137,0.13589269,-0.063364446,-0.11023533,0.14511152,0.13455439,0.037185363,0.09608561,0.096315615,-0.19701692,-0.07903987,0.101959996,0.05405125,0.035297845,-0.029448465,0.04625118,0.08630423,0.2826206,0.032119516,-0.020827685,0.0609956,0.1639358,0.028027814,-0.00891391,-0.095038995,-0.12400479,-0.08749387,0.08835901,-0.13895997,-0.0006790469,-0.03394679,-0.10857717,0.056153912,-0.1181562,0.13448769,-0.1309772,0.073209845,0.19069482,-0.0036681562,-0.05615159,0.1318658,-0.09282624,-0.14645763,-0.08187161,-0.14532796,0.04919848,-0.09413074,0.1255136,-0.006301238,0.12956673,0.06414064,-0.0017612177,0.1418488,0.027201485,-0.12170492,0.050222762,0.0074686226,-0.030400658,0.11001776,0.0042689582,0.0074617164,-0.014913623,-0.10243676,-0.093571484,0.01686406,-0.07232558,-0.10201876,-0.062613465,-0.139853,0.035184365,-0.11756586,0.15716928,0.12637313,0.12974414,-0.11733306,0.05810541,0.043551262,0.01530383,-0.0802268,0.017735079,-0.118747056,-0.012092364,-0.099985234,-0.0055585727,-0.07096859,0.07553568,0.09089304,-0.114424184,0.22137587,0.16454023,0.16502705,-0.028016444,0.13121806,0.26521376,-0.09498266,-0.056113735,0.17618346,0.07107905,-0.0965552,0.09834578,-0.1780393,0.035968665,0.11562033,0.033461858,0.014640956,-0.049869463,0.02153541,0.18962184,-0.008836104,-0.016262095,0.06329917,-0.23839286,-0.036721304,-0.051896356,-0.073358536,0.086843126,-0.042025354,0.025512943,0.07193192,0.09403615,-0.061229162,0.037006546,-0.0027654374,0.18551138,-0.10395704,0.1386249,-0.09700742,0.10411966,0.02791112,0.021517633,-0.046016607,-0.07964629,0.08297451,0.04455306,0.04563813,-0.043417357,-0.37023842,0.075376496,-0.026201593,-0.008838482,-0.098852985,0.038786955,0.18881696,-0.11721023,0.081850156,-0.042927023,0.097640656,-0.29787943,0.13648477,-0.007119345,0.16542992,0.05393446,0.035528865,-0.078687735,0.046088524,0.012112916,0.015484003,0.029834906,0.10829627,0.04560814,-0.052602965,0.052996,0.2303711,-0.11102846,0.07545632,0.042300325,0.10649151,-0.010158385,0.04891898,0.16881041,0.033754043,0.09932593,0.07011299,-0.02518298,0.13023937,0.14959365,-0.2461014,0.12611082,0.006841449,-0.002711007,-0.033238355,0.010117859,0.026634894,0.08719857,0.07042536,-0.16961552,-0.13968107,-0.096855216,0.021172626,0.039400276,-0.009858294,-0.0050280453,-0.13183208,-0.07265839,0.00671846,0.20825893,0.12367626,-0.051056206,-0.10355891,0.2567238,0.13993469,-0.04907649,0.11639245,0.05914542,-0.14240228,0.012361092,-0.07412254,-0.06943026,0.1457111,-0.09360128,0.01522779,-0.15487133,-0.16235597,0.022507837,0.120044634,0.17355575,0.10996333,0.0529551,0.13376845,0.15059884,-0.043410853,-0.081883915,0.1716088,0.20342973,0.21963707,-0.21661508,-0.19814458,0.19837408,-0.10484041,0.07989876,-0.06414158,0.20235603,-0.0131448675,0.032421894,0.2994571,-0.16567034,-0.087380715,-0.0070284978,-1.0608813,0.07220496,0.15301995,0.0003016431,-0.37742072,0.20684434,0.16533394,-0.19877067,-0.120195374,-0.04893643,0.16829924,-0.32946703,0.15414998,-0.22062612,-0.052258212,0.00041900892,-0.14993267,-0.06903182,-0.6427442,-0.23195142,-0.027670251,-0.16047256,0.12149434,0.015972,0.110414274,0.17889163,-0.40220127,-0.124756,-0.11417447,0.052048102,0.046819884,-0.13648213,0.2069592,0.03772404,0.12885019,-0.029621167,-0.13492364,-0.052556034,-0.17443219,0.020905854,0.016980572,-0.17036882,0.17805897,0.099331655,-0.41869596,-0.36788633,-0.23502313,0.005949759,0.28403738,0.0064735524,-0.27899295,0.07590907,-0.19176565,0.124810055,-0.3309767,-0.09892554,-0.10171665,0.19479522,-0.046592955,-0.22180358,0.28453737,0.0845354,-0.08216503,-0.06106494,0.28685722,0.26429206,0.14043863,0.056882467,0.15015656,0.13206694,0.16193005,-0.090317585,-0.5458738,0.15282701,0.0850517,-0.19626479,0.01358697,0.03173308,-0.034584638,0.1381701,0.13430372,-0.041453823,-0.03929891,-0.1619156,-0.10074612,0.13592991,-0.04308066,-0.023020972,-0.021641688,0.038093515,0.054582745,0.27758977,-0.12017518,-0.00042663206,-0.08952624,0.18035777,0.07540938,0.1948586,-0.0015696686,-0.024738334,0.029607587,-0.1762203,0.10997823,0.2528759,0.07747059,0.1697661,-0.20380995,0.14136285,-0.29349533,0.012598138,0.070432775,0.024008412,-0.13142309,0.039825108,0.252676,0.23138367,-0.16016853,0.14306518,-0.008675923,-0.012497587,-0.022872962,0.063078515,0.1664621,-0.22935502,0.11210575,0.06683128,0.014505279,-0.025658099,0.23059964,-0.14585012,-0.037715316,0.031385288,-0.21053073,0.02580882,0.008394381,0.3017416,0.14402539,-0.07179423,-0.055363066,-0.043530572,-0.010366809,0.20202571,0.044733346,0.06167404,0.19324677,-0.07835872,0.026384342,-0.90970117,0.07540097,-0.4201832,0.040969234,-0.020952595,0.19410962,-0.22132692,-0.45550418,-0.35575572,-0.03894539,0.14561807,-0.06100207,0.14049926,0.24311659,-0.059092596,0.13116017,-0.024731828,-0.03757744,0.17581555,-0.25256896,-0.022605449,-0.07446618,-0.14605775,-0.068943605,0.017096683,0.119769186,0.043297492,-0.18390131,0.07317211,-0.003353009,0.20669131,0.077599205,-0.09987376,-0.17712553,-0.20952615,0.5033902,-0.05255115,-0.09936452,0.013331354,0.19874075,0.02087304,0.008848723,0.052319907,-0.14664568,-0.00668047,0.11277412,-0.078078054,0.052204963,0.16214989,-0.1549281,0.07778903,-0.4164402,-0.017770287,-0.08326811,-0.18315125,0.0046913237,-0.030073851,0.22308566,-0.045634616,-0.08209496,0.10559569,0.058537725,0.2135661,-0.12838028,0.026239505,-0.32434434,0.029566111,-0.054362345,0.06639435,0.12019624,-0.015513646,-0.27374017,0.16486427,-0.13202344,0.07961254,-0.087288015,-0.058824066,-0.16536225,-0.040356796,0.049107775,-0.064967364,-0.12120696,-0.07105238,-0.13227195,0.05628172,-0.038053893,0.036020376,-0.05069463,-0.012993547,-0.14928526,-0.24254988,0.01320333,0.0639257,-0.18138479,0.039760467,-0.13880202,-0.11504658,0.34213272,0.0603104,0.11495335,0.24158092,-0.07182028,-0.06792484,-0.112319365,-0.12653841,0.10641795,-0.62495774,-0.06883731,-0.013000686,-0.03281434,-0.012663766,0.021444736,0.18258815,0.08112808,-0.06525808,-0.06128362,-0.11008867,0.04823957,0.326277,0.11198887,0.067884825,-0.0064857407,0.058255576,-0.12748101,0.21668784,-0.44766364,0.09553801,-0.054718897,-0.112224944,0.041905113,0.2866021,-0.04136794,0.19464067,0.16182727,0.07455796,-0.05512814,-0.048570603,-0.1648015,0.023437584,-0.12985162,0.33856517,-0.003348012,0.26479617,-0.04647693,-0.83905697,-0.015943183,0.1970995,0.20330216,0.065862685,0.05326219,0.03154015,-0.0095623685,-0.016252102,0.1899347,-0.11985864,0.030295637,0.14175926,-0.19701143,-0.21209906,-0.037541438,0.298141,-0.057046253,0.035429824,0.18729001,-0.45962507,0.048540097,0.036263514,0.17560974,-0.13319315,0.004749411,0.03342128,-0.20886253,0.17467806,0.051323675,0.14391328,-0.037257824,0.2601084,-0.12123151,0.050194997,-0.102097295,-0.04046758,0.0807044,0.16941506,0.033391997,0.15661463,0.10198386,-0.11664141,-0.041167717,0.056904715,0.040517263,0.046685062,0.14157823,0.0049503827,-0.28161636,0.16086823,-0.086760774,-0.121091984,0.05441006,-0.09169546,-0.1254832,-0.101553656,0.19873542,-0.076183446,-0.12658782,-0.03188115,-0.07559594,-0.100352734,0.11666373,0.07066417,0.0091353,-0.12588681,-0.14113449,0.07006954,-0.16476235,0.22281413,-0.099801734,0.08703396,-0.09439766,0.08784742,0.0010061287,0.03225805,-0.046074435,0.049079265,0.12121096,-0.13350867,-0.30695415,0.006528966,0.06548164,0.048193913,-0.12767501,-0.036118697,-0.062754214,-0.1668326,0.13532634,-0.09057301,-0.04018253,-0.009654947,0.03330059,0.0898861,-0.2406971,0.10411096,0.051313,0.029159637,0.019018035,-0.16681743,0.10857454,0.0019765366,-0.26771206,-0.058837164,-0.15430559,-0.23440383,-0.016852455,-0.09119899,0.08807734,-0.06513578,-0.36395454,0.006483423,-0.1445459,-0.0324131,0.045719612,0.0097029675,-0.24070308,0.06529421,0.087118134,0.28743467,-0.117143,-0.124711424,0.012185658,-0.15483657,0.16077517,-0.26627168,-0.22982533,0.01830049,-0.02184445,0.069997326,-0.15405932,0.015806757,-0.43657476,-0.12862991,-0.070566446,0.09625281,-0.089816555,0.046375502,-0.104330815,-0.0785359,-0.11575462,-0.100728504,-0.28461957,0.06406597,-0.08965937,-0.07495259,0.10611293,-0.004035041,-0.086204275,0.36304772,-0.45198667,-0.1419713,0.11859065,-0.0021455744,-0.042979527,0.12530334,-0.26525253,-0.11230795,0.040876538,-0.111037396,-0.030709248,0.005614206,0.17891832,-0.09777147,0.046897646,0.11080914,0.08873857,0.06204401,0.0009249875,-0.11966423,-0.12994589,-0.05179565,-0.05470121,0.19881514,0.040043,-0.03828836,0.14380717,0.10448898,0.24942014,0.087635756,-0.0632608,-0.093161136,0.11326156,-0.0063455515,-0.23316535,-0.045981124,0.14546241,0.24392676,0.05805406,0.18688175,-0.16835716,-0.2248515,0.023563616,-0.047485504,-0.14145967,0.118506074,-0.07291051,-0.12096831,0.046306044,-0.026455605,-0.1277519,-0.0030079153,0.032504067,-0.11595145,-0.060949873,-0.0894641,-0.07833322,-0.010506836,-0.0882329,0.093735136,-0.003090592,0.01743592,-0.13270213,-0.09487346,-0.071178705,0.09145598,-0.09655377,0.23084311,0.28377947,-0.25253448,0.07895406,0.062678985,-0.14403312,0.06178733,0.16075237,-0.023972033,-0.005930896,-0.35539457,-0.16127117,-0.22273724,-0.29234263,0.0037830197,-0.22133803,0.3274798,0.00027463541,-0.037017174,0.018768296,0.08259865,0.053123835,0.022980109,-0.118978016,0.013801184,-0.07656402,-0.13432686,-0.45034343,0.34511933,-0.16829766,-0.2778547,-0.1218055,-0.1534777,-0.058257367,-0.12859312,0.28947183,0.07057711,-0.045808848,0.0081678,-0.09658661,0.31728286,0.10696053,-0.037773684,-0.19125755,-0.030801855,-0.34979218,-0.0436642,0.10958822,-0.21575113,0.018190313,-0.07590485,0.3026389,-0.0788784,0.024089683,0.047279347,-0.23146455,0.112919524,0.22346705,0.17530757,0.0084202215,0.09973221,0.28385898,-0.01995811,0.14814353,0.022534633,0.0470244,-0.024688842,-0.2694057,0.3307128,-0.12297524,0.19119105,0.011408371,0.10955492,-0.24892226,-0.045773216,0.005704465,-0.103267156,-0.018148078,-0.2006896,0.20702475,-0.009849798,-0.10952548,0.063845426,-0.24558185,-0.018855007,-0.2742618,-0.06103164,-0.027318496,0.11034717,-0.0036366726,0.030417107,-0.4108696,0.2584643,0.04747579,0.14161335,0.11904278,-0.09853743,-0.004324334,0.17017974,-0.27164096,-0.17730702,0.029849702,-0.24918506,0.1015111,-0.058443177,-0.18981427,0.08891184,-0.36500275,0.05864464,-0.06837899,0.21104962,-0.11826607,-0.120805174,0.38442525,-0.117779724,0.05739311,-0.016691623,-0.106763825,-0.054966938,0.12747458,-0.005235184,0.028335435,0.26358676,0.059574507,0.004915587,0.19499418,0.007818793,0.031187972,0.06168134,0.016563136,-0.06118456,-0.052098233,0.06023578,0.0073785204,0.23540625,0.034074802,-0.009790406,0.07522754,-0.029581228,-0.052666537,0.1052239,0.07953305,-0.061324205,-0.023899853,0.057949886,0.014008669,0.05926487,0.0044541745,-0.1284575,-0.03133897,-0.02085441,-0.055334937,-0.011355517,0.048157264,0.15440479,-0.06782064,0.1706086,-0.16562301,0.044651315,0.19023184,0.10090432,0.031379122,-0.055355035,0.095756,0.060421385,0.047344673,-0.10702748,-0.053010423,-0.01827253,-0.0064233737,-0.08681146,0.060157515,0.03913056,-0.0056923633,0.073951334,-0.29014632,0.009719136,-0.031092394,0.021480164,-0.012135869,-0.086901166,-0.027082622,-0.06417967,-0.09664936,-0.062292855,0.11093886,-0.052668978,0.024483146,-0.0228083,0.1845477,0.031063631,0.07565919,-0.029553449,0.14255945,0.34811842,-0.07248587,-0.077929646,0.051648226,-0.06882389,-0.009199765,-0.0009938943,-0.09821895,-0.051263265,-0.047329705,0.38632113,-0.008029979,-0.033051256,-0.087779365,-0.018138386,-0.09207403,-0.0538761,0.17638434,-0.050922375,0.08840866,-0.0074633844,-0.37753728,0.12206751,-0.02552294,0.037795864,0.051855613,0.058421846,-0.025895204,-0.022368481,-0.050137322,0.115005836,-0.06358395,-0.053924542,-0.14181678,0.24824373,0.10899934,0.04645242,-0.069665305,-0.11096398,-0.080573864,0.03195929,-0.15046404,0.13453786,-0.051097013,0.19802532,-0.02456544,0.07111429,0.103887185,-0.09513449,0.114429444,-0.12328632,-0.048229426,-0.24141857,-0.14208837,0.009574467,-0.055047642,-0.14739902,-0.046015438,-0.04695405,-0.09411403,0.39687937,0.13531278,0.061342496,-0.12321235,-0.45950037,-0.103571504,-0.33979335,-0.08485358,0.0293194,0.16098562,0.0032035636,-0.005729785,0.09888015,0.032342765,0.051780008,0.09911603,-0.07963836,-0.0036399912,0.05576735,0.075878166,-0.016768675,-0.095582984,0.09980088,0.2033421,0.22570562,-0.10952636,-0.08756643,0.016317656,-0.07613481,0.26169068,0.08914157,-0.5044977,0.39211127,0.09161911,-0.14275877,-0.07040192,-0.03245276,0.11276954,0.18144602,-0.10295948,-0.061758894,-0.17708637,0.10968411,0.020263458,0.028249227,0.18835007,-0.021542748,-0.13888876,-0.035406195,-0.10309785,0.16293176,0.052673403,-0.044201337,0.06602147,-0.14228587,-0.2983519,-0.12615252,-0.16637315,0.11913586,-0.03487932,0.024191841,-0.030582268,0.03798085,0.14888597,-0.23034775,-0.036321122,0.06936395,-0.2141887,-0.07837233,0.18691932,0.07715668,0.045267448,0.092407346,0.064155735,-0.156996,-0.018623605,-0.041757293,0.16659673,-0.011432801,-0.37528586,0.17226295,-0.37758034,0.056701187,-0.11387482,0.03679057,0.024668287,0.08046583,0.0020878746,0.024897177,0.32785416,0.087538436,0.03888986,0.105678335,-0.08406232,-0.16426164,-0.053924467,-0.216253,-0.10163761,0.05565532,-0.019677117,-0.17474881,0.041413195,-0.38052222,-0.13270332,0.23662372,0.010925711,0.13957718,0.13678288,0.07289455,0.086039886,0.0522163,-0.032897398,-0.1452518,-0.12599055,-0.16861568,-0.10597064,0.16742514,0.21374619,-0.01700949,0.028978376,-0.064527355,0.08817719,-0.12916279,0.019055722,0.024368536,-0.032109126,-0.054989126,0.123943985,-0.057605386,0.062024947,0.007446751,0.26832876,-0.1541596,-0.009611594,-0.31072733,-0.05527816,0.0045193858,0.0026996552,0.23622209,-0.07337904,-0.001915092,0.124487564,-0.334247,0.060415152,0.03377468,0.07859581,0.17068134,-0.07635732,0.19149908,0.116064526,0.2566864,-0.04725632,0.20352922,0.17557085,0.017387558,-0.06177557,0.1878763,0.029361306,0.04240725,-0.004785087,0.109179854,-0.11420777,-0.05681926,0.020120835,0.042132266,-0.28276676,-0.08759844,0.0832563,0.05953764,-0.033420883,-0.102794275,0.18058395,0.027082374,0.024313975,0.014863632,0.15829407,0.16287427,0.07333328,-0.07930489,-0.065156266,-0.13790621,0.20388587,0.011875353,0.117135435,0.09541751,0.22074203,0.0495566,0.27741766,-0.20823264,0.026730781,0.108392,0.05710363,-0.03860188,0.24042106,-0.06538261,-0.090470105,-0.12176261,-0.053566422,-0.12741195,0.0076595326,0.10037901,0.0217495,0.09208689,-0.41766027,0.17955104,0.11419474,-0.040748786,-0.018537197,0.01909164,0.04244109,0.08988811,0.009179702,-0.069366366,-0.12640612,0.14278063,0.04646467,0.118067466,-0.15935148,-0.09152433,-0.03984619,0.45117375,-0.03317616,0.21115883,-0.018050611,0.15453765,0.03961759,0.14888431,-0.025903769,-0.0008394754,0.023616541,-0.06524272,0.17111856,0.1858427,0.053995393,-0.028653737,-0.03389452,-0.103461154,0.01998231,0.11174501,0.060192507,-0.03053093,0.28082508,-0.049563177,0.053672027,-0.14932568,0.24989389,0.08758983,-0.27170584,-0.15803324,0.081250496,-0.3951494,-0.07970856,-0.07712802,-0.001660787,0.32757616,0.22220606,-0.2923781,0.2712319,-0.17887828,-0.2264691,0.046356585,-0.5388846,-0.112763286,0.26184735,-0.32306278,-0.46735328,0.051215466,0.11472334,-0.27567893,-0.112214565,0.0687974,0.22203685,-0.09576923,0.10861789,-0.10209257,0.07349704,-0.14025378,-0.2828433,-0.2782083,-1.1235948,-0.012169368,-0.16454531,0.17865628,-0.5706925,-0.08738324,-0.48142928,0.23945439,0.036402207,-0.21145347,-0.037675116,0.101499625,-0.15970583,-0.12663826,0.005958157,-0.17352216,-0.16268644,0.09444322,-0.19071232,0.009002678,-0.112312995,-0.113372676,0.0022333055,-0.2606987,0.10189275,0.2617022,-0.26111913,0.20064862,0.108816266,-0.21847957,0.1399385,-0.035758115,-0.20385647,-0.08260767,-0.236252,0.1324819,-0.16596648,0.0425324,-0.13847084,0.2426596,0.14105155,0.10750301,0.26889074,-0.041818887,-0.041889872,-0.060818557,0.17903936,-0.010408662,0.0033955995,0.14792241,-0.06254229,0.15480626,0.074606374,-0.109295025,-0.28856045,-0.059909996,-0.0554502,-0.19645949,-0.130319,-0.015772147,-0.062851906,-0.027148265,0.09906751,-0.16895154,0.07463238,-0.036919355,-0.34505057,-0.028691623,0.27301455,0.26107278,0.1679201,-0.003859352,-0.10102328,0.20262872,-0.18699649,0.15179838,-0.01757136,0.097789615,-0.2151049,0.0614954,0.1620994,-0.048514806,-0.066710986,-0.06927624,-0.035136975,0.1539491,0.073510624,0.18103431,-0.22993685,-0.13532722,-0.19587998,0.09459684,-0.17767276,0.13679814,-0.120690696,-0.009160489,0.07120888,-0.032385334,0.0668605,-0.07048036,0.13208362,-0.01805465,0.16098286,-0.029803416,-0.3503662,-0.22640967,-0.015056615,-0.09414001,0.052699212,-0.018885102,0.02927841,-0.10982711,-0.09881568,0.08463783,-0.04595331,0.21132913,0.12934329,-0.12443265,0.107218504,-0.03870441,-0.10523074,0.12672822,-0.05223385,-0.07617928,0.1679855,0.115827546,0.05203861,-0.012700428,0.053060494,-0.07254503,0.233371,0.109212235,0.13192868,0.15851824,0.114280574,-0.077859946,-0.18454915,-0.08960115,-0.17668813,-0.19984782,-0.068114296,0.027709542,-0.4245696,-0.06361672,0.13068214,0.2110994,0.08572362,-0.31379968,-0.046791196,0.045061935,-0.009606756,-0.026749386,-0.09903891,-0.05379998,0.11120977,0.0011567264,-0.1380071,-0.0062146564,0.009874757,0.07063645,-0.019191531,-0.16842379,0.046209697,-0.036168944,0.057894528,0.11914354,0.18281512,-0.08088654,0.043711036,0.12000244,0.047837526,0.12378573,0.094802715,0.12896024,0.023849793,-0.20043457,-0.09184208,-0.055530053,-0.15164794,0.055373225,-0.02158335,0.09071813,0.053259466,0.30583233,-0.18110338,-0.102581024,-0.19348782,-0.058594562,0.16095617,-0.09013622,-0.18037501,-0.1543481,0.3023212,-0.18493408,-0.11576594,0.08985666,-0.1317864,-0.62791,-0.062298663,0.002122594,0.040350776,-0.13592274,-0.028057687,0.14872299,0.028615007,-0.07850992,-0.047453035,0.0048224344,0.1582164,0.017023126,0.016396848,0.012655523,-0.018333757,-0.18643844,-0.03920044,0.11265224,0.15923572,-0.107857704,0.056192476,-0.09454356,-0.0683203,-0.06711365,0.046117753,0.54105014,-0.06573966,0.06534005,0.050956436,0.10066217,0.006963947,0.10370814,-0.0430775,-0.03286991,-0.00021788944,-0.12473942,0.03215034,-0.04205112,-0.10375935,-0.026140338,-0.026935495,-0.07856263,-0.0458082,-0.14248224,-0.34837174,-0.023197837,0.07710472,-0.0068309656,-0.022584286,0.22679207,-0.041822,-0.13795455,-0.002414012,-0.10661608,-0.010106828,-0.063418135,-0.41085574,-0.021481749,-0.043608617,0.06393289,-0.00097021484,0.13372302,0.1971118,-0.12977412,-0.053390138,0.099956274,-0.52194595,-0.02016829,0.16571768,-0.020787956,0.088240236,-0.07230027,-0.22332242,-0.21665312,-0.063545175,0.0051561813,-0.07900605,-0.02604188,-0.17196979,-0.039352182,0.07727244,-0.033173416,-0.08034351,0.1376428,-0.16087332,-0.0138405375,-0.09306412,0.05298428,-0.045653988,-0.07895887,-0.16208695,0.111499935,-0.15129243,0.37047145,-0.09187349,0.009606203,0.061221622,0.117214225,0.06915397,0.4049928,-0.027381068,-0.017052403,-0.02480052,0.14918159,-0.006641569,-0.067784466,0.041547827,-0.086856835,-0.16156866,0.05131645,-0.0019798551,0.12753457,-0.10166445,0.12073741,0.16500807,-0.09072368,0.09578535,0.60115397,-0.008475397,0.13841486,0.06664179,0.05993494,-0.0074626207,-0.16614336,-0.13229221,0.30621308,0.22391638,0.026582913,-0.019555876,0.008371031,-0.22718239,-0.022798656,0.15399794,-0.07378475,0.02970894,-0.02644587,-0.14284973,0.18646976,0.103106014,-0.13062783,0.0116695585,-0.10642767,-0.049038276,0.08461655,0.028121205,0.09084087,-0.11106811,-0.034962367,-0.01800725,0.091395475,0.012572378,-0.009810874,0.0445974,-0.03358583,0.034662057,0.061556697,-0.09088184,0.091165386,-0.15315615,0.15002407,-0.06396763,0.17049298,0.16237561,0.11259346,-0.06539375,0.14228484,-0.087647885,-0.6170857,0.30354688,0.25443628,0.2662132,0.026308643,0.26351032,-0.037732836,0.16621312,0.2750052,-0.26187766,-0.19080539,-0.036122568,-0.1924897,0.24256383,-0.08769288,-0.14582224,-0.040662933,-0.39492214,0.02550386,-0.0045737843,-0.18034542,-0.07715891,-0.16305134,-0.37810272,-0.09968519,0.035254743,0.15604971,0.045091532,0.078465,0.10359323,-0.10712513,-0.113162376,-0.08927364,-0.09362534,0.005854169,-0.21416517,0.101833016,-0.0055915765,-0.06639672,-0.06970584,0.06760802,0.201389,0.046198204,-0.032542717,0.23514213,-0.112821475,-0.26178995,-0.10461319,0.06495228,-0.079929866,-0.07077962,-0.0073208385,0.06384242,-0.142803,-0.3643661,-0.1438052,0.005492637,-0.11380791,0.028155347,-0.15685248,0.10296642,0.15925266,0.09068925,-0.011617371,0.1341875,0.12808122,-0.10509828,0.14169395,-0.0471376,-0.17488374,0.13947572,0.053590976,0.23177598,-0.4151855,0.12885766,0.1065704,-0.1870147,0.07677645,0.09009369,0.066000015,0.19673736,-0.0833987,0.059177164,0.06905408,0.049898654,0.047083892,-0.029507495,-0.03160845,0.087353274,0.16242693,-0.35207292,-0.07144872,0.12421538,0.1723668,-0.04302453,0.08003566,0.056513432,-0.10462537,-0.11642912,-0.06847601,0.086118676,0.054452296,-0.20531459,-0.20568621,-0.06626986,-0.03969473,0.01108272,-0.055984765,-0.09223159,-0.10215128,-0.22569208,0.16069649,-0.03729403,0.12199177,-0.12878971,0.051544476,0.032749377,0.121512115,0.1913922,0.024626372,-0.039020278,-0.1656166,-0.04556672,-0.19260246,0.11533971,0.22358748,-0.17749971,-0.08064195,0.0924128,-0.14657919,-0.19608524,0.121067576,-0.11137348,0.18390581,-0.0382374,0.055931326,-0.2515557,-0.09989474,-0.25740305,-0.16103531,-0.0029478925,0.029030977,-0.21430868,-0.25390548,-0.18268816,-0.6295922,-0.104810044,-0.7202434,-0.07016903,-0.21144691,0.09814429,-0.6300597,0.1526956,-0.16226292,0.019005455,-0.20185505,-0.28950584,0.06171039,-0.057417285,-0.03520571,-0.22276227,0.11257086,-0.051900674,-0.037486237,0.032745555,-0.032782283,0.17654994,-0.037825026,-0.12829109,-0.07159755,-0.13013595,-0.16785602,0.26090896,-0.019083664,-0.056327097,0.0049259886,0.029819403,-0.01873426,0.022416985,0.14432089,-0.085580386,-0.09826074,-0.2620953,0.10557517,0.015464602,0.02205724,0.10728089,0.13702706,0.07047517,0.17463762,-0.05690023,-0.11950875,0.10290527,-0.11467116,0.1315042,-0.04331066,-0.11581935,0.05214764,-0.0077163964,0.0002624256,0.05118398,0.0037011479,0.13911997,-0.16609411,0.027467834,-0.015411916,0.11827304,-0.0055266977,-0.024350813,0.030764906,-0.11888318,-0.51318204,0.0984969,0.06434328,-0.03258837,-0.05000735,0.013125346,0.384995,0.13758115,0.053058673,0.2307822,-0.69049275,0.063689314,-0.07986192,0.058760606,-0.029223818,-0.9218316,0.02042367,-0.41906178,-0.06809507,-0.16258442,-0.076795325,0.054418065,0.056040514,-0.08238266,-0.14268512,0.1287206,-0.12971678,0.013845574,0.13893057,0.0102362875,0.11918687,-0.04680674,-0.11187177,0.07160085,-0.007336569,-0.096769646,0.11247672,0.036571756,-0.09577861,-0.0745579,0.20090945,0.2323246,-0.06388194,-0.08354049,-0.026948739,0.013364789,-0.13918643,0.120316066,-0.094611995,-0.0038583856,-0.20077273,-0.04690727,0.018306453,-0.07775731,0.13355623,0.11150665,-0.081390016,-0.016734207,-0.032181334,-0.11934452,0.084883556,0.19700572,-0.2823127,-0.1193453,-0.18655346,0.0053487243,-0.10020095,-0.022493431,-0.081374615,-0.016669745,0.18732761,-0.0033253802,-0.17341025,0.035832856,-0.17745231,-0.034933936,0.047680367,0.030156782,-0.38155505,-0.113778636,-0.19819343,0.20642851,0.16078287,-0.082658626,0.12893993,-0.032794103,-0.065797955,0.07304654,-0.05504477,-0.17907096,-0.03684458,-0.06284043,-0.028141404,0.14430407,0.08452595,-0.15303038,0.07451365,-0.030924655,0.06695401,0.019217666,0.030589184,0.025353068,-0.009899793,0.09005724,0.04394584,-0.19152996,-0.10435496,-0.10823269,-0.12067332,0.1147434,0.045928273,-0.22542675,0.14364648,-0.046940435,-0.02062643,-0.06408614,0.037071165,-0.18287393,0.018438075,0.09654956,0.13269687,0.22675322,-0.20206423,0.030926067,-0.066526674,-0.01914177,-0.40518472,0.10129285,-0.079843335,-0.12429178,-0.08336683,-0.016459234,-0.07409839,-0.26859367,-0.11075965,-0.015090254,-0.15714762,-0.088601194,-0.04236008,0.029007241,-0.10087811,-0.07529407,0.09057001,0.14768912,-0.121813744,0.056993183,8.7509994e-05,0.03213134,-0.15762158,-0.1866278,-0.059774455,-0.0024987203,0.11050856,-0.21075104,0.14673293,0.08991093,-0.0011356155,-0.13461335,0.07632307,-0.05659667,-0.08776541,0.077154614,-0.02024623,-0.0003963829,-0.137504,0.107037045,-0.11052441,-0.02337891,0.028425647,0.0037582912,0.1268981,-0.15234452,-0.052903414,-0.096412465,-0.19203518,0.1472603,-0.072594985,-0.08833748,0.1485025,-0.08302397,0.0048166537,-0.35210437,-0.13246006,-0.1854761,0.012522923,-0.036531523,-0.02060989,-0.055129927,-0.0145495515,-0.10806836,0.034551192,-0.15629613,-0.34455246,-0.11624,0.002466972,-0.043879885,-0.14869425,-0.12654948,0.16578229,-0.03732684,0.0007661371,0.056386556,0.052125856,-0.13004014,-0.048060913,0.06571906,0.11816661,-0.035069257,-0.06818719,-0.08422733,0.077973545,0.18371998,-0.085935675,0.055138122,-0.009510405,-0.0031182345,0.07664457,0.119141325,-0.023726609,0.2293139,-0.011834856,0.047638517,-0.11753536,-0.07786428,-0.0596657,-0.042288866,-0.046461485,0.2534105,-0.013395643,-0.06354761,-0.08958183,0.14495762,0.17623675,-0.18887918,-0.064824015,-0.06372329,0.0735967,-0.12217405,-0.053697426,0.098941945,0.13080691,-0.11290645,0.0027858128,0.042260617,0.033097398,-0.00685947,0.24118827,0.0339296,0.42113316,-0.31222478,-0.05553768,-0.14175767,-0.0052957055,0.17172253,0.0066286162,0.16114545,-0.030596817,0.024748744,0.04982874,0.23302217,0.28385884,-0.09472693,-0.094070144,-0.03555374,0.28677118,0.0023449622,-0.0105698295,0.16057445,0.06141199,0.057008788,-0.109831795,-0.24544501,0.02191066,-0.11711343,-0.15155451,0.029785283,0.029662428,0.114617765,0.0366067,0.021922532,-0.09712173,0.16228488,-0.07717585,0.055099715,0.05408593,-0.06685435,-0.015908487,0.18390019,-0.12230418,0.18364634,0.07669414,-0.22291365,-0.28001314,0.054517265,-0.1818684,0.14034678,0.10845428,-0.37960908,-0.08355652,-0.19042654,0.27393356,0.08569252,-0.14415103,0.21604587,-0.031208817,0.14873472,0.16975349,0.1854874,-0.5026614,-0.025705105,0.061398327,0.13722187,0.020997215,-0.13590226,-0.059972513,-0.04354799,-0.07520321,-0.009079419,-0.29027155,-0.10282491,-0.06921499,0.15043351,0.05520766,-0.43554005,-0.03812768,-0.04842495,0.034362964,0.14650065,-0.33985466,0.00079626363,0.047432292,-0.09616902,-0.06707678,-0.44456187,0.26861507,0.20085964,0.12973444,0.0075266925,0.09604278,0.032503515,0.0917999,-0.15082768,0.12904441,0.07533798,-0.06495102,0.06640593,0.018902117,0.077887945,-0.2652199,-0.06220128,-0.09115268,0.040820114,0.08094264,-0.35579655,-0.13903812,0.10677792,0.05911235,-0.0064540505,-0.19030622,0.081722625,-0.22779271,0.011260694,-0.08315343,0.17161022,-0.3499795,-0.013987523,0.09512979,0.0473306,0.15961021,-0.15774442,-0.078054376,-0.06724991,-0.053795923,0.27222174,0.075129084,-0.02781538,0.0042820224,-0.111938365,0.1802979,-0.012415027,-0.058655463,-0.040399596,-0.04843917,0.09691477,0.008656155,0.11362735,-0.51127857,-0.039918657,0.093336225,-0.3125011,0.032370523,0.007332458,0.07838727,0.084582366,-0.09301472,0.36296067,0.046215877,-0.09949941,-0.071280375,-0.11162605,-0.28597096,0.08071195,0.16487616,0.01897611,-0.04677016,0.0012298675,-0.062392797,-0.30116057,-0.12758327,0.16146927,0.1680652,-0.067036994,0.12527171,-0.14510298,-0.022298908,0.06624059,-0.068944916,0.13117479,-0.22717723,-0.16036277,-0.14401297,0.018664515,-0.14554973,-0.13389672,0.022137841,0.22834837,0.19046429,-0.026386116,-0.13608196,0.068493985,0.11754022,0.12857759,-0.042982616,0.04711274,-0.034476373,-0.036149394,0.086031914,-0.074406244,-0.05749246,-0.0827498,-0.09769932,-0.052802395,-0.16247933,-0.015987454,0.00078710256,-0.04240485,-0.33186758,-0.18155749,-0.063841216,-0.06611341,-0.08262115,0.09248599,-0.09798997,-0.15651138,0.21084526,0.12045483,-0.22358909,-0.1217284,-0.05263162,0.020210136,-0.1253162,-0.13898902,-0.014912922,-0.09400005,0.14118743,-0.056762274,-0.01328209,-0.25222665,-0.056124337,0.010423595,-0.1885475,-0.042083975,0.020254102,0.03202522,-0.10795182,-0.5950859,-0.04617253,0.021505296,-0.1320681,-0.06874543,-0.078835666,-0.007553521,-0.14129223,-0.008900728,-0.016623013,0.15196101,0.034555443,-0.010747932,0.16277073,0.059954286,0.003736432,0.08224537,-0.12076032,0.025714988,-0.16430263,0.07628378,0.30314147,-0.08302743,-0.07422536,0.06333001,-0.14165434,-0.22902834,-0.07134765,0.12826917,0.14343587,0.17316431,-0.052210286,0.21629518,-0.051296145,-0.1917735,-0.028607849,0.1318478,-0.038083818,-0.08553694,0.017371971,-0.32690588,-0.0996964,-0.14299239,-0.02190667,0.020269673,-0.008394962,-0.046154663,0.116476506,0.12869833,0.06812634,-0.108839765,-0.0055012107,0.085036546,0.08633314,0.23476672,0.02187298,0.028911527,-0.07502788,0.074207,-0.19078453,0.18117687,-0.020066693,0.17799631,-0.00896971,-0.059481926,0.10209828,-0.17911935,0.20242712,0.47020343,0.17834876,0.08954485,0.17095217,-0.04842361,-0.0043487744,-0.26571575,-0.13497217,0.04221981,-0.009933043,0.4852578,-0.071360335,0.02586976,0.16718863,0.23434359,-0.11622436,-0.15680023,-0.00944221,0.030010462,0.042063657,0.13793914,-0.24528281,0.0006545734,0.17462298,-0.30357116,0.010776329,-0.049753264,-0.6074094,0.060365092,-0.07283079,0.009320478,0.010130507,0.16387656,-0.15386507,0.31318992,-0.052049413,0.06770872,0.020266633,0.2988382,-0.30951238,-0.19431989,0.076164134,-0.21246849,0.22222728,-0.15975772,-0.039572407,-0.12406336,0.28420904,-0.062371816,0.0658882,0.46781874,-0.08186285,0.13335432,0.19881128,-0.062015194,0.010043225,-0.023982266,0.07011451,0.11906359,-0.029415041,0.11002056,-0.31306908,-0.052849557,0.12847638,-0.07133407,-0.036786333,-0.6677201,-0.25639802,-0.18848503,-0.061471146,0.3857871,-0.10124761,-0.17931172,0.10936862,0.1342742,0.1586282,-0.20262127,-0.040520236,0.18972854,0.055570137,-0.31936684,0.023920652,0.17509824,-0.018382635,-0.55031776,0.2771943,-0.01998758,0.10734498,-0.31261408,-0.18155816,-0.08720916,-0.23011462,-0.07555959,-0.19710778,-0.22157025,0.18965468,0.04229815,-0.060869697,-0.06725976,-0.018727347,-0.16557215,0.10928615,0.21188556,0.04090681,0.2146988,0.12909168,-0.10605282,0.5117748,-0.023603538,-0.28011426,0.18411526,-0.00049737643,-0.27848208,0.36527172,0.007090106,0.0063008764,-0.07354419,-0.08394392,0.097147994,0.021482594,-0.1443076,0.015276905,-0.04797797,0.22197239,0.049349207,0.23808244,0.16897778,-0.13957284,0.022939568,-0.10690272,-0.11196635,-0.14612228,-0.087713726,0.12729731,0.15962842,0.15220904,-0.117629856,0.18245435,-0.18217957,-0.022417169,0.09488261,0.033061422,-0.04329562,-0.1243206,0.31095305,0.14658302,-0.061667986,-0.16321766,0.21945414,0.34628624,0.10958882,0.14608991,-0.06037405,-0.015954599,0.148085,0.12727554,0.23726667,0.14982331,0.09856671,0.14291145,-0.13536023,-0.03441846,0.018484876,0.14428885,0.033242285,-0.16382198,0.21058089,-0.087259956,0.11337117,0.14129765,0.10382706,0.06998444,-0.14669374,-0.013538871,0.18919183,-0.44074658,0.23684508,-0.17681482,-0.07086349,0.24283865,-0.13701953,0.019997949,0.08563748,0.024186986,0.1425076,-0.0507618,-0.1121313,0.0033920663,-0.11315957,0.0302516,0.06885134,-0.053606924,0.09783034,0.035926785,0.41713706,-0.017334012,-0.14760993,-0.0909325,0.027007192,-0.010000685,-0.06995774,0.19357565,0.03576366,-0.0917783,-0.043014742,0.12428114,-0.34954733,-0.05226784,-0.20185284,-0.076570734,-0.025024982,-0.04024448,0.38163242,-0.11879247,0.1297481,-0.10788888,-0.26007962,-0.16220409,0.030887835,0.06495906,-0.10529672,0.19583343,-0.003848747,-0.10966755,-0.090321906,-0.13969791,-0.091229565,0.09308978,-0.123919636,-0.025160328,-0.10458178,0.17648262,-0.1425494,0.14124164,0.03219007,-0.12034202,-0.017638858,0.022051945,0.08341136,0.114331305,0.060851965,-0.09073372,-0.03739534,-0.037331432,-0.08556223,-0.15902881,0.010910692,-0.04058002,0.0036355793,0.0078979265,-0.13759749,-0.06770315,-0.09602165,-0.17868562,-0.019878495,0.04426291,-0.024830963,0.2787863,-0.020922624,0.17534404,-0.098578304,-0.16360372,0.0253922,-0.0023888827,0.062819816,-0.040750127,-0.26501787,0.059996195,-0.07116641,-0.13617347,-0.100597315,-0.01374703,0.08913209,-0.0050579235,-0.08531054,-0.2868475,0.15006557,0.60895073,-0.05756915,-0.026497139,0.039562736,0.02949327,-0.033342518,0.09692505,0.06535657,-0.0048769917,-0.056227677,0.32345313,-0.253419,0.032857116,0.004208939,-0.119660325,0.25410557,-0.00024977484,-0.17713451,-0.08914584,0.27047738,0.12456073,0.0005531875,0.083467655,-0.066965446,-0.04402549,-0.3754514,0.08047145,0.20688735,0.2632379,-0.10968978,-0.10882276,0.30166376,0.04843032,-0.03317363,0.0059163487,-0.0043237796,-0.04279946,0.067481905,0.20227243,0.025629645,-0.2857836,-0.06379111,0.1559911,-0.0024831686,0.018253949,0.3957243,0.0421335,0.079939105,-0.48006517,-0.14052233,-0.06975978,-0.0867419,0.028990269,0.016347133,0.110922046,-0.1974959,-0.09188698,0.21628812,0.03543086,0.047057755,0.19249392,-0.23524308,0.096039616,0.7253844,0.11729595,0.10633508,-0.04428504,0.09399376,0.05315669,-0.08419698,-0.13394006,-0.060636234,-0.08339305,-0.070167914,0.15095034,0.019403506,0.025077451,0.08271236,-0.12016682,0.045558333,0.005617758,0.1260487,0.03408815,0.24560915,0.055016592,0.078848355,0.21823129,0.086369425,-0.06243558,0.14502722,-0.051713895,-0.12606667,-0.20368278,0.091928996,-0.13597956,-0.16935869,-0.08883858,0.19994994,-0.06728661,0.112282015,-0.07546099,0.2750965,0.2229084,-0.005014117,0.17149264,-0.0683657,0.14145452,-0.17949101,-0.26047158,0.10143852,-0.034131154,-0.030204216,0.059682798,0.109755315,0.040365074,0.020880854,0.08625165,0.039029848,0.014347256,-0.3289716,0.029049093,0.109538004,-0.053343244,-0.1598281,-0.005468999,0.07530974,0.07015521,-0.06423305,-0.71633416,0.13554712,-0.043250233,0.13651404,0.058751553,-0.03296891,-0.029870456,0.0036081772,-0.08737121,0.0023662823,-0.022990514,-0.048860453,-0.061194863,0.3377338,0.06611983,-0.11123941,-0.020420896,-0.14620335,0.001629494,0.009559173,-0.07352105,-0.026078422,0.16414548,-0.09490137,0.063794166,0.05579333,0.021132473,0.27559993,-0.025312869,0.7580412,-0.032389276,-0.09856255,0.011221833,-0.1354321,-0.029161772,-0.06325939,0.0071720174,0.01299391,0.26763135,0.047387227,-0.03597758,-0.08423634,-0.11322553,-0.1825061,0.22857355,-0.58037704,-0.07117326,0.44110945,0.20881428,0.723193,0.022470856,-0.0069256118,-0.3564243,-0.004775491,0.0031516915,0.12468365,-0.1799185,0.4501695,0.035979018,0.13348357,-0.046454202,-0.060678445,-0.1809871,-0.9117277,-0.15397608,0.01589176,-0.10529329,0.2237831,-0.06725689,0.035138294,0.033968057,0.02976482,0.006586112,0.008524606,0.010051508,0.0049956967,-0.1670178,0.08154667,-0.2516214,0.02027516,0.011774428,-0.17479965,-0.03489115,-0.016862128,-0.021174815,0.035901412,0.020669857,-0.020795401,-0.077451326,-0.04010509,-0.121670865,0.025642572,-0.05065358,-0.06235498,0.043287642,0.009001621,0.111914694,0.024166305,-0.109648034,0.11588338,0.05179576,0.117278256,-0.027033405,-0.103915386,0.075647324,0.108829096,-0.0017745841,0.086216286,-0.15658027,-0.1609231,-0.074730515,0.14455828,0.017364262,0.07159329,0.0023789154,0.033904534,0.013660702,0.028136138,-0.05046099,-0.11699932,-0.025003571,-0.012091829,-0.011673286,0.23524134,0.067291915,-0.19554411,-0.00858234,-0.010743793,0.13731183,-0.008214696,0.10515293,-0.013604028,0.012427824,-0.10415387,-0.047744676,-0.059626102,-0.061531845,0.0959194,-0.11051549,-0.035494376,0.24468026,-0.42378756,0.11919877,-0.22781461,0.036473043,-0.078721866,0.2315579,-0.049047932,0.0010528468,-0.49996108,0.13211761,-0.048656233,-0.1329535,0.013924346,-0.19454996,-0.058995392,-0.20930602,-0.083087124,-0.110284664,-0.022338836,0.15122166,0.04559549,-0.22841342,0.113840505,-0.26511133,0.08828748,-0.013811063,0.10738389,0.041901477,-0.029485509,-0.10940541,0.012904733,0.19944514,-0.08151144,0.0025442569,0.0100442385,-0.044554755,-0.17323513,0.0805195,-0.024342598,-0.4311071,0.014220488,0.04050346,0.21778919,0.10855747,0.123208016,0.032248404,0.13324307,0.060016952,0.03175791,-0.12676069,-0.018071191,-0.2541294,0.095673636,-0.10234027,-0.1981024,-0.044130735,0.016231287,0.05353583,-0.01866125,-0.048473578,0.020469418,0.03987876,-0.05487955,0.12594074,-0.13573395,0.22876108,-0.20010455,0.01252582,-0.25823036,0.052024662,0.030998163,-0.04750498,-0.1064691,0.08808585,0.003116145,0.02954274,0.116262265,0.16681038,-0.27798906,0.012980121,-0.018054266,0.3232174,0.17895041,-0.10279775,-0.020976078,0.1156926,0.03438314,-0.1360741,0.11239555,-0.15000385,-0.13835788,-0.1944946,-0.12325707,0.046853155,-0.12999801,-0.05246394,-0.025249831,-0.03259741,-0.34140366,-0.008783362,-0.26272753,0.002436718,0.06249309,0.024887314,0.0045251814,-0.025582548,-0.12392234,-0.15160246,-0.26223958,-0.09246868,-0.13499485,-0.054655213,-0.12679254,-0.060744096,0.19734167,-0.182674,0.12246055,0.045196444,0.23049383,-0.1164142,-0.18731257,-0.00358348,0.075528085,-0.05010883,0.036441483,-0.2963744,0.13346605,-0.10454592,-0.05812055,0.012211678,0.069686756,0.014066211,-0.02314552,0.20239605,0.083634324,0.07021746,0.14492628,-0.08366417,0.029583441,-0.022294499,-0.059798658,-0.12524153,-0.15104418,-0.09153449,-0.19017643,0.01524317,0.081826985,-0.068624176,0.14119689,-0.016239611,0.08394896,0.06696251,-0.08931946,-0.18850903,-0.074783795,-0.016575877,0.12319002,0.13208261,0.10759619,-0.06969538,-0.1376956,-0.028919963,-0.01886737,-0.1429167,-0.16043276,0.011551755,0.13089952,-0.1574004,-0.05338452,-0.07632811,-0.32686344,0.11667083,-0.09278395,0.07131062,-0.14950772,0.102662526,-0.16620536,0.07023441,-0.3799691,-0.005492723,-0.1363384,-0.051126923,-0.14417614,0.0056981756,0.114992365,-0.029484242,-0.091917545,-0.10199498,-0.00989451,0.10595891,-0.06374681,0.024570514,-0.074788906,0.05134797,-0.084537365,0.016673356,-0.16366252,-0.07804061,-0.11526431,-0.005655366,-0.108725965,-0.023092292,0.068764776,0.06635045,-0.15814,0.037476216,0.0027800717,-0.012639429,0.008913302,-0.102085896,-0.0066475645,0.02074664,-0.079878405,0.08368976,0.032881968,0.029399583,-0.0902698,-0.13237612,-0.049780592,-0.056133784,-0.025713801,-0.039340843,-0.08013607,-0.04561689,-0.10269649,0.06252112,0.004244905,-0.07560238,0.08481454,-0.07538667,0.1652366,0.01905812,-0.09168059,-0.105430886,-0.063230075,-0.023187747,0.20178798,-0.26609784,-0.045958996,0.054809768,-0.095408686,-0.36135444,-0.041170385,-0.043900926,0.14976516,-0.11125678,0.09461344,0.08469668,-0.025203185,0.23561116,-0.029975075,-0.019964878,-0.045480058,0.022614028,0.18261656,0.16869216,-0.064160764,-0.006251625,-0.11365136,-0.075311705,-0.11412175,-0.03645086,-0.08427831,0.0014748911,0.19876538,-0.13711958,-0.18164577,0.04292467,0.010339723,0.07818377,-0.24344116,0.0745464,-0.073329695,0.0061718514,0.03585089,-0.10388872,-0.014945266,-0.025086131,0.017719213,-0.15296003,0.101340264,0.10201365,0.21108799,0.051459406,-0.09173353,-0.1378857,-0.07406791,0.10955989,-0.056076925,-0.107539594,0.072034456,-0.09257339,0.08289311,-0.009979227,0.20578548,-0.030666731,-0.09781808,0.08380492,-0.050385464,0.15765895,-0.03335768,0.12788884,0.014099169,-0.23556457,-1.5875616e-05,-0.08723163,-0.01881321,-0.16343586,-0.09420657,-0.10256463,0.04327457,-0.19251888,-0.08003268,0.06357229,-0.19281922,-0.027489502,-0.13551438,0.0565472,0.43450448,-0.09808256,-0.1053855,-0.012663726,-0.23815179,0.07953374,-0.07981188,0.09886098,9.0045854e-05,-0.12681302,0.060004342,0.034888826,0.11496308,-0.032974042,-0.027245238,0.04098448,-0.086208746,-0.10145161,0.2192106,0.012178963,0.0029882088,0.14912519,0.057314344,0.19225551,-0.12677139,-0.14164175,0.13616116,-0.044817615,-0.08113647,-0.15696877,-0.06458483,0.033117134,0.020497072,-0.049840663,-0.06882032,0.03433018,-0.07224594,0.007923453,-0.14837143,0.017217174,-0.084171005,-0.12551613,0.009837618,-0.06895479,0.017621998,-0.12805246,-0.023034459,-0.11237339,0.1399833,0.052823644,-0.13289446,0.033687316,-0.025012016,-0.9570695,-0.0076880627,-0.024861947,-0.2929684,-0.04035538,-0.048203994,-0.027901508,0.012095289,0.057260767,0.008537211,-0.719206,-0.04269128,0.12517054,-0.11450944,0.028834064,0.07414928,-0.0805151,0.12796818,0.07860147,0.0143423,-0.62135375,-0.15008482,0.08305462,-0.12587334,0.0073077325,0.12680379,0.025204673,-0.023837682,-0.036661115,-0.9099883,0.004374542,-0.3772909,0.006835127,-0.36384338,0.08723762,-0.041962784,-0.030250758,-0.003673228,0.023190353,-0.05258629,-0.12865332,0.040274374,0.20706263,0.12900904,-0.033943586,-0.20757446,-0.0937766,0.0772245,-0.1587229,-0.7065029,0.09007686,0.10881855,-0.8039158,-0.016585616,0.07221926,0.1744464,0.040787864,-0.21090254,-0.12286792,-0.111859486,0.08515568,-0.13113844,-0.15805537,-0.03992368,-0.030085696,0.120890826,-0.10250732,-0.08107103,0.09826604,-0.10092382,0.075041056,-0.04766059,0.1079631,0.08393132,-0.29802296,0.0067061675,0.14666532,0.07419478,0.20566565,-0.04114221,0.009811779,-0.4724343,0.12303962,-0.19099706,0.037481185,0.05033289,0.070991375,0.12069168,-0.086408354,0.08676001,-0.19478399,-0.075382225,-0.027271695,-0.030408807,0.10013657,-0.13993567,-0.08249656,-0.23081999,0.066641666,0.06616776,-0.045234926,-0.21951975,-0.08311379,-0.14633141,0.17017648,-0.21548243,0.10895156,0.16258143,0.0721944,0.0005373666,-0.18446964,0.50798726,0.016895747,-0.04506411,-0.2784768,0.0022093768,0.19563018,-0.06668656,0.1115369,0.16648367,-0.1725618,-0.07329438,-0.027238617,0.19839427,0.018436361,-0.0979301,-0.0108095035,-0.03354029,-0.104643025,0.1387282,-0.08293342,0.077322476,0.13449274,0.39680257,0.06480764,0.023192445,-0.17066623,-0.16605015,-0.049950577,0.12066223,-0.07957582,-0.20221783,-0.14893939,0.020126915,-0.1384028,-0.071739845,-0.031179797,0.023681972,-0.09341931,0.12282017,0.1453442,-0.08271634,-0.08669813,-0.5444867,0.027289974,0.13733499,0.08303093,-0.22558227,-0.0054676873,0.10349958,-0.40964422,0.08458456,0.07737552,-0.081014015,0.09289517,0.14132476,-0.26198426,0.042906195,0.050010234,-0.06636446,0.033108246,-0.277252,-0.10649018,0.07017607,-0.022941884,-0.05303769,-0.17793553,-0.17707951,-0.13920645,0.019067733,-0.585716,-0.06627544,0.0024294646,-0.09651584,-0.07159591,-0.1356384,0.07875361,0.27131587,0.014571835,0.4648735,-0.07861174,-0.07538679,0.14325757,0.07006876,0.051517196,-0.1210667,0.052382287,-0.011758869,-0.26617053,-0.004283707,0.019450532,0.10934831,0.29807925,0.3456928,-0.25197083,-0.085380025,0.5581127,-0.08042511,-0.035201002,0.30761033,-0.016401803,0.21775702,0.17834164,0.16137367,0.25811908,0.36100626,-0.013263847,-0.25562528,0.035963938,0.04760593,-0.3140687,-0.10648561,-0.039203726,-0.18604137,-0.15329473,0.13957734,0.08462125,0.10468766,0.0057470994,0.15738729,0.1553718,0.035710722,-0.05047854,-0.023663715,-0.098758236,-0.12320197,0.008553383,-0.11823074,0.02943143,-0.09902894,-0.15313368,-0.015416352,0.12399949,-0.11717755,0.058982797,0.14369997,0.16246492,-0.12201305,0.007220418,-0.10464419,0.097015135,-0.0036614991,0.15332535,0.11336292,0.02407013,0.009008242,-0.0375427,0.08614705,0.13587342,-0.019023905,-0.1260158,-0.112959035,0.008499378,0.062442522,-0.12709142,0.0062382417,-0.2525372,-0.008562302,0.10697793,-0.023889864,0.09232185,-0.016794238,0.07956317,0.1239261,0.15500747,-0.104516074,-0.6035408,0.10691286,-0.1601266,0.022629602,-0.14458106,0.014476018,-0.2143297,-0.40982053,0.049147118,-0.08867241,0.002525558,-0.33150738,0.14244053,-0.26479352,0.05671586,0.10366211,-0.06830315,0.086952165,-0.0343484,-0.12394808,0.04045681,-0.032456964,0.034394104,-0.049200416,-0.04065531,-0.00865525,0.096067764,0.0085103875,0.06755439,-0.19737285,0.12539218,-0.0047353054,-0.20664425,-0.00088740553,-0.066392265,0.19867732,0.077973746,0.0035982195,0.11853509,-0.209359,0.20760678,-0.13843456,0.13346612,0.049724083,-0.099094085,0.062766574,0.033371504,-0.05441862,0.17474099,-0.09278302,-0.22795476,0.17744802,0.19353382,0.003664655,-0.09723263,-0.048420273,0.0028229423,-0.012938879,-0.12082429,-0.12590636,0.03625462,-0.31239197,-0.05208247,0.040012244,-0.065735996,0.012938671,0.114745624,-0.059478234,0.039767396,-0.17448266,-0.17217432,0.10696567,0.038758807,-0.08635304,0.032640632,-0.020107394,-0.03578081,-0.2152835,-0.097188,0.14776461,-0.023064677,-0.11200838,-0.06977011,0.20784555,-0.030573893,-0.1524137,-0.10351713,0.057422686,-0.016806683,0.036763385,0.008362417,0.13944206,-0.08653791,0.10805891,-0.021822868,-0.16245101,0.07387253,0.088845916,-0.1706337,0.040102545,0.11575577,-0.013657738,-0.04232732,-0.16543701,-0.072519444,-0.13119914,-0.66977066,-0.08332444,0.083206184,-0.040482227,-0.02749715,0.0760088,-0.0011738783,-0.08052966,-0.31676748,0.5064927,-0.16409284,-0.09979588,-0.4318823,0.32749823,0.03074501,-0.018539453,0.062409338,-0.24864136,-0.28437868,-0.13434684,-0.26833323,0.26388326,-0.22290938,0.05277929,0.07409223,0.037437145,-0.023037769,0.0016039785,0.31605828,0.0017353544,-0.25334224,0.056590512,-0.09415182,-0.084250614,-0.16169485,-0.061169878,-0.08967217,0.041329604,-0.098642096,0.096542574,0.15637463,-0.08144731,0.024286406,-0.06144373,0.16167353,-0.13009115,-0.23031089,0.15645894,-0.053631835,0.13840412,-0.01748546,0.073653094,-0.17571415,0.18375768,-0.0012973794,-0.0484688,0.13565655,0.09348155,0.0074711526,0.1449394,-0.4233514,0.0673556,0.004555486,0.10078539,-0.16577819,-0.05226226,0.024168905,0.017288806,0.031228058,-0.052334838,0.045545887,0.12377523,0.09403042,-0.13233204,-0.19850992,-0.2112447,0.2202351,0.11014375,-0.10054762,0.07664756,0.018935913,0.2203926,0.039133497,0.27230245,-0.44121164,-0.019003807,-0.17522483,0.16360313,-0.33223066,-0.049672965,0.009783979,0.066641495,-0.18793176,0.24722202,0.0675967,-0.4388399,0.07876873,-0.039481636,-0.1882389,0.12820898,-0.64486504,-0.1853646,-0.055701885,0.20987092,-0.04271915,-0.047871098,-0.023138868,-0.2502173,0.25884318,-0.2523573,-0.20885703,-0.10901067,0.15564787,-0.3025965,-0.026801024,0.1291984,0.007555047,0.12833628,0.02795203,-0.2201366,0.042362962,0.18980734,-0.23312789,-0.020648487,-0.2016346,-0.34019455,0.19391628,-0.15111113,-0.42642546,0.15037206,-0.04149862,-0.24976514,-0.07712831,-0.08034131,0.17685133,-0.35279742,0.14749002,-0.074143454,-0.068067335,-0.005528218,-0.047667257,-0.48440936,-0.5086801,-0.20530379,-0.03248789,-0.27630064,0.17661153,-0.34441003,0.09207194,0.089466564,-0.30137596,-0.21227714,0.1260453,-0.16410026,-0.11583196,-0.26800224,0.17478265,-0.29220507,0.06809983,-0.014598688,-0.106559046,0.06646389,0.015857257,-0.05145475,0.26122156,-0.12808779,-0.068218276,0.15346885,-0.23495194,0.2400314,-0.13470982,0.11317946,0.03781436,0.08223321,0.014123326,-0.1758266,-0.36222145,-0.11501721,-0.13818355,-0.0032621098,-0.13480468,0.18176308,-0.12698203,-0.048316035,0.110894464,-0.06466147,-0.08270207,0.016255502,0.09523449,-0.021395486,-0.1393726,0.054542378,-0.046138108,-0.010543662,0.27131873,0.12121722,0.17744432,0.10645428,0.28169683,-0.035129074,-0.21829478,-0.042451244,0.031970352,-0.2137878,0.11591833,0.35054493,0.002046973,-0.09636826,-0.057538725,0.38167474,-0.032716487,-0.017274411,0.23027138,-0.17415868,-0.046952542,-0.015947042,0.102870375,-0.039716873,0.053589992,0.21308014,-0.18205002,0.1588365,0.09961753,0.1446841,-0.025818484,-0.08779385,-0.11155773,0.12594265,0.19854903,0.078695126,0.08423051,0.08243919,-0.065775804,0.105379686,0.06346546,0.0939324,-0.06603558,-0.10579176,0.14323032,-0.0769117,-0.18838415,0.10654419,-0.027700849,0.11886098,0.04667695,-0.011946111,-0.22099334,-0.09568061,-0.18052672,0.11529215,0.014794758,-0.031171804,0.12201592,0.053268857,-0.024583925,-0.0912981,0.059449047,-0.05616372,-0.13598298,-0.089478865,0.018813128,0.03759668,1.2925833e-05,-0.11952606,0.059694797,-0.009366457,-0.13038161,-0.032219116,-0.14298846,0.14268024,0.15993816,0.12025106,-0.095884815,0.052365888,-0.03520893,0.15454268,0.07407343,-0.017371174,0.09303263,-0.011121372,-0.26154894,0.051531687,0.0840571,0.033268064,-0.22073005,-0.29029822,0.049160767,-0.19504413,0.11238885,0.12614311,0.109761685,0.1120826,0.113535255,0.13837454,-0.13862544,0.03294138,0.075080976,0.14798962,-0.19194295,-0.09439777,0.12991937,0.019469451,-0.10757113,0.048482742,0.03518297,0.083651766,-0.032638136,-0.28841245,0.09501947,0.054100603,-0.051928625,0.07403695,-0.021833228,-0.24577492,0.10418188,-0.022674952,0.028504772,-0.031333167,0.11148114,-0.024779605,-0.13229012,-0.012870743,0.09054003,-0.010288664,0.03464409,-0.087250315,0.19875579,-0.07861744,0.07554208,-0.05694526,0.11403791,0.097651236,0.064659245,0.16922109,-0.32238346,0.12992175,-0.11750083,-0.039687537,0.2050991,-0.14409919,0.118747234,-0.019834936,-0.03316935,-0.128018,-0.21372971,0.113533586,-0.04608865,0.110722095,-0.20073827,-0.07965608,-0.046861164,-0.14912143,-0.0752669,-0.08652583,-0.056844268,-0.01738577,-0.055803604,0.18477832,0.08197415,-0.034702808,0.099232815,-0.2123038,-0.13735987,0.04039265,-0.0728394,0.46229494,0.03646855,0.08694719,-0.009876365,-0.10126425,-0.1186499,0.19013332,0.04317308,-0.008263523,0.034133375,0.18563768,0.07439731,-0.0854696,0.07675274,-0.20806628,-0.0648964,0.19805886,-0.017956875,0.1718249,0.061236266,0.10080069,0.020207835,-0.1798264,-0.075089805,0.19417724,0.060972434,-0.0070445463,-0.05785353,0.077010565,-0.02796795,-0.0753244,-0.21174672,-0.20271832,0.17516243,-0.02360837,0.004598365,-0.10791585,0.11158405,-0.006955981,-0.03656256,-0.0797697,0.004061991,0.0500966,0.17722172,0.10375863,0.08378952,-0.3481029,0.33419812,0.0456845,0.17329904,0.07095835,-0.019252174,0.015921395,-0.17558928,-0.061038025,0.167208,-0.1472115,-0.047035087,0.15177226,0.06387355,0.21666825,-0.050223712,0.006946777,-0.0833552,-0.09996258,0.072591685,-0.07243086,-0.085266486,0.0017864942,-0.23308724,-0.15132734,-0.09691383,-0.031735618,0.1739536,0.12372802,0.058335483,0.10621392,0.017553734,0.073050894,0.03558172,0.1829263,0.06746279,-0.0022353232,-0.039696828,-0.12635124,-0.09224744,0.12983443,0.14275816,0.08995913,-0.071530424,-0.12888125,-0.041357554,-0.045081537,-0.042961046,-0.14688414,-0.035294443,0.032570474,0.16361773,-0.070273854,0.2633586,-0.021721829,-0.07117429,0.20984899,0.18459323,0.26541713,0.010062692,-0.009276202,0.27518177,-0.13115941,-0.03275992,0.020786572,0.10078931,-0.37667337,-0.10471014,-0.01783696,0.06433734,-0.04720777,0.07265986,-0.07373633,-0.022630613,-0.10287809,-0.10482614,0.21797545,0.017460866,-0.055645283,-0.07073907,-0.08655706,0.0025140166,0.0016001683,0.051257633,0.09114309,-0.02382928,0.29164258,-0.013693761,0.046821836,-0.063721076,0.011231455,0.012245066,0.017745545,-0.18187349,0.17471091,-0.100764826,-0.13970333,-0.005039436,0.085947596,-0.10488155,0.14426827,-0.53623825,-0.09184607,0.04768374,0.0975081,-0.16264924,0.024684036,-0.09390918,-0.06926539,-0.14011969,-0.13586469,-0.058521066,-0.10449245,-0.06794858,0.16219084,0.497869,0.002170889,-0.07696074,-0.36202347,-0.32808596,0.017854905,-0.1585072,0.018412149,-0.098450325,-0.3424964,-0.06290579,0.10725397,0.05703734,0.026099093,0.2639728,-0.4048119,-0.065143235,0.015616943,0.012814617,-0.14712785,-0.0978644,0.09883033,-0.35124102,-0.067665696,-0.26465064,0.12869324,-0.120284155,0.14217505,0.0055732224,-0.013039878,0.28305507,-0.1370361,0.25570077,-0.05184741,-0.19897121,0.05108124,0.1524144,0.100452036,0.050277866,-0.12527567,0.05816282,0.01789783,0.17394352,-0.03686685,-0.18084455,0.24525756,-0.13509533,0.0013535981,-0.16181347,-0.1558662,-0.21835113,-0.07470392,-0.010573106,0.016306665,0.0148280505,0.09646099,0.09751249,-0.002747851,0.060720596,0.007698292,-0.049750462,0.26231873,-0.024224995,-0.030083638,0.21170473,0.00081718643,-0.086819194,-0.14311248,0.030347768,0.18535876,0.054532163,0.029153492,0.15713464,0.19618136,0.13068919,-0.0455508,0.11765693,0.06580574,-0.3019355,-0.027073978,-0.09990458,-0.119962834,-0.15809925,0.05381244,0.04544168,0.18322204,0.022007013,-0.03485517,-0.13594984,0.21419075,0.043519154,0.1117678,-0.21739517,-0.13468125,-0.18749528,-0.12768424,-0.09745091,0.014846268,0.041273963,-0.12260855,0.04777984,-0.13991025,-0.008966072,-0.04966562,-0.31085268,0.16587584,0.049204975,-0.07999352,0.13037418,-0.029365877,0.06399933,0.030172737,0.026522446,-0.08793895,-0.06288761,0.01592396,0.09255082,-0.16167985,0.13270207,0.07527256,0.02970812,-0.09802846,-0.17255218,0.011269949,0.003671616,0.002094333,0.03339987,-0.13013695,0.008907367,0.016751194,0.16197512,-0.08911374,0.07234278,0.0043376475,-0.07065819,0.092044644,-0.16850471,0.061489075,-0.13359985,-0.13736859,-0.13793586,0.11883093,-0.16973463,-0.031716105,-0.069544286,-0.57634276,0.1251905,-0.08505672,-0.09232124,0.16712363,-0.1074371,-0.1660159,-0.043845184,-0.080566145,-0.029315988,0.06455858,-0.028015206,0.143873,-0.043106474,-0.15857007,-0.015547378,0.1968344,0.05650654,-0.06701215,-0.025369924,-0.36533844,-0.120543286,-0.099261366,-0.2765266,0.0535017,-0.13195819,-0.0137307,-0.010112601,-0.22159784,-0.11423383,-0.14875405,0.14428928,0.04302588,-0.15761594,-0.04260269,-0.16091163,-0.016828718,0.09540022,-0.18041389,-0.13554883,-0.042202763,-0.07037,-0.018526725,0.028077222,0.11427585,-0.30157673,0.09782488,0.024514867,-0.07175695,0.14638798,0.009476726,-0.13129678,-0.23716222,-0.08595182,-0.10657328,-0.16168155,-0.13248551,0.0073531535,-0.084979944,0.047636848,-0.15833813,-0.012189336,-0.10000133,0.08659249,-0.04733129,0.009190112,-0.0075608515,-0.062908486,-0.1895176,-0.018002985,-0.09946483,-0.13970695,-0.20214564,-0.10394181,0.08594509,0.05219319,-0.054814704,0.14370643,0.119665295,0.18763326,0.15135927,-0.09964349,-0.3030736,-0.09929589,0.08600993,-0.011531441,0.10306257,0.06535727,-0.0399787,0.06724512,-0.019615911,0.15222032,-0.04979631,-0.2548669,-0.030806242,-0.086678386,0.20225395,0.0217805,-0.101453364,-0.091070764,0.19458349,0.06082441,0.030052949,0.20976864,-0.011412643,0.160853,0.3277338,0.038183935,-0.14545763,-0.3581362,-0.07362076,0.00060036016,0.030206235,-0.032809634,-0.075302474,-0.29858297,-0.16275164,-0.12213337,0.10388001,0.044659562,0.0067495233,0.058866512,-0.19758387,-0.14723049,-0.15173279,-0.20116691,-0.016373029,-0.11250857,0.028929314,0.04990987,0.16415872,0.073273025,0.056513082,0.1774308,-0.041442513,0.122821,-0.05990498,-0.15402336,-0.14059545,-0.21393436,0.040537596,0.15861501,-0.08935341,-0.026433444,0.031406794,0.15959261,-0.28142816,0.14275636,0.053380877,0.0011117199,0.18472882,0.042969357,0.19351587,0.07273033,-0.15910842,-0.1492879,0.11247128,0.11838568,-0.116149046,0.1030875,-0.05005025,0.046271287,-0.04673139,0.041639835,0.03959818,0.031317644,0.16268231,0.009384498,-0.03579938,-0.019766483,0.0018468513,0.048429783,0.285127,-0.005211638,0.045463413,-0.050792925,-0.14527456,-0.057640687,-0.11805786,0.13777538,0.06316958,0.16988504,-0.078327276,0.164487,0.15193614,-0.2662669,-0.060693786,-0.06928978,0.19468437,0.066495694,0.027471127,-0.001378938,-0.100890584,-0.092782505,0.029813178,-0.20124802,0.03421284,0.19924738,0.057317913,-0.09840697,-0.05020335,0.09738759,-0.037708145,-0.008908557,0.03216655,0.25576496,0.053894315,0.07054573,-0.06961004,-0.066157825,-0.13667886,-0.026837526,0.11078198,-0.09132404,0.08444571,-0.10568828,-0.14693086,0.24789846,-0.009433707,-0.12535867,0.1000523,-0.019192586,0.13993911,0.073214576,-0.093282506,0.081069574,-0.054095555,0.08893411,-0.59819025,0.048771117,-0.0332668,-0.24323578,-0.040581446,-0.18651837,-0.5750887,-0.14261521,0.008849743,0.10307926,0.15655656,0.020946287,-0.055136655,-0.10269901,0.040656928,-0.19798033,-0.023216171,-0.3153405,0.09516029,0.31550744,-0.07509912,-0.050324157,0.031712458,-0.114702344,-0.06047216,0.10660513,0.114738695,0.14910619,0.07829836,-0.10143459,0.004856217,0.004696638,0.04962344,0.5025721,-0.0066399397,-0.0082184225,0.06148556,-0.06621236,-0.18225367,-0.1573195,0.02305795,0.04425038,-0.0848585,-0.004130726,0.17290512,0.04317567,-0.39457315,-0.1744019,-0.0012146442,-0.14724451,0.11178402,-0.35283244,-0.10401805,0.104715675,0.08953922,0.13960707,-0.02540618,-0.25382876,0.02115237,-0.011090689,0.0812145,-0.15645815,0.29720217,-0.103764094,-0.11683794,-0.23895147,-0.090720356,0.0021687837,0.041655507,-0.09402346,-0.027713431,-0.03488111,-0.36520234,-0.11241815,0.087380365,0.10724896,-0.14757259,-0.027664859,0.21626113,0.01748809,0.03198968,0.16054985,0.20800845,-0.22028719,0.19547082,-0.17385969,-0.12936206,-0.03719554,0.25548875,0.05711209,0.15187818,0.17171915,0.2853222,0.039494734,-0.14999263,0.057320617,0.24711035,0.06346661,-0.0023901605,-0.083778195,0.0019633158,-0.06772128,-0.0976699,-0.013577587,-0.14358969,0.008378742,-0.05297798,-0.16806115,0.053152345,0.12603578,0.10749592,0.08851152,-0.06711292,-0.10398,0.0014075176,-0.08601767,0.032706365,-0.069722235,-0.13719732,-0.01336016,-0.07578985,0.028321646,0.09388671,0.052023094,-0.088478886,0.12889832,-0.22944108,0.043035332,-0.10716467,-0.15643486,0.09796828,0.02741047,-0.08075973,-0.034053355,0.114769965,-0.19586319,0.09271589,-0.49186864,0.056592684,-0.49701735,-0.00560051,-0.09709564,-0.31680474,0.020405559,0.0045107096,0.13636814,-0.22981703,0.030204127,0.060137007,-0.22568999,-0.16982193,-0.1675084,-0.06594591,-0.27002168,0.07726733,-0.13289021,0.043529235,0.059884682,-0.032386567,0.05782938,-0.12682183,0.18279071,-0.14320469,-0.008886861,0.13286422,-0.014491922,0.025595736,-0.064877026,0.008341719,0.008076349,-0.100400425,0.2081549,0.056710307,-0.09038389,0.13337055,0.09028829,0.004170097,-0.09500917,-0.06029747,0.050527368,-0.0072749886,0.07081445,-0.009791992,-0.044774346,0.09420277,-0.07934022,-0.009914064,0.066821836,0.020670814,-0.007794113,0.07780473,-0.2757518,-0.16701764,0.1383522,0.14560318,-0.036431566,-0.109313235,-0.033201538,0.035064682,0.062604286,0.08379637,-0.055866614,-0.17815231,-0.18586846,-0.051277597,0.08729936,-0.35801727,-0.11667795,0.07439359,-0.09324618,-0.029624855,-0.030710697,0.11669363,-0.15899408,0.015600811,-0.0884706,0.017844787,0.023149984,0.31398052,-0.14975993,-0.11934584,0.07274557,0.103071816,-0.19304189,0.07463152,-0.010526556,0.109340385,-0.057118434,0.18016207,-0.2526367,-0.07515102,0.015229456,-0.1431912,-0.11867737,-0.21576558,-0.09901871,-0.111264214,0.09555125,0.03535213,-0.16378437,-0.0026905928,-0.11435172,-0.037526175,-0.09854374,0.356265,0.090616554,-0.44251388,-0.1054256,-0.0356228,-0.14816393,-0.03111222,0.023560613,-0.021512488,-0.17322087,-0.15578093,0.06259558,0.06757089,0.01900175,0.050641716,0.02596004,-0.21817888,-0.02443863,-0.07281259,0.13834114,-0.12931709,-0.22055876,-0.3031435,-0.27905664,-0.2343892,0.04811903,-0.14090958,0.19468959,-0.27114978,0.23234296,-0.0581545,-0.008648729,-0.030541385,0.12726901,0.073134005,-0.047202487,-0.08798286,0.10754501,-0.09473672,-0.272391,-0.21118362,-0.13545969,0.12183355,-0.095513195,-0.0039966335,0.006118972,-0.16291164,-0.09882653,0.037358228,-0.08517674,0.02699932,0.16456497,0.07961592,0.0043103825,-0.2543054,0.27894083,0.080846906,-0.2165685,-0.03507959,0.14369066,-0.55237454,-0.02185956,-0.06542296,-0.34349743,0.0032818029,0.059848778,-0.16838917,-0.11709235,0.19510177,-0.04727952,-0.20896125,-0.0048653344,-0.08166676,-0.052415017,0.032632384,-0.23879708,-0.035334054,0.12963614,0.08620455,0.15583114,-0.23336151,-0.15718067,0.041701276,-0.09013229,0.013934846,-0.1616901,0.26039755,-0.032374527,-0.013592089,-0.23046099,-0.2588883,0.11772474,0.04399727,0.037352018,-0.11773418,-0.13774641,0.0653827,-0.63647693,0.2092131,0.09486341,-0.06836029,-0.16095798,0.13337146,-0.033620663,0.18483916,-0.13962978,0.05706898,-0.05223996,0.09000741,-0.012864766,0.14554812,-0.14416216,-0.0306578,-0.15511414,-0.26402998,-0.070780925,-0.0061058113,0.06632004,-0.1307031,0.12285867,-0.073975466,0.089949295,0.10288208,0.1462739,0.12175282,0.13400543,-0.15824232,0.05546074,0.12873194,0.11974406,0.0820396,-0.0063218637,0.06876766,-0.028713088,0.14327557,-0.068577036,0.06799306,0.08195174,0.032628108,0.45845604,-0.088438846,0.119523585,-0.09049989,-0.015031793,0.021908978,-0.25340748,-0.15716435,0.08607197,-0.09509788,-0.17630051,-0.1396958,0.14649168,-0.09375568,0.17868714,-0.112571545,0.051885713,0.035957765,-0.13497344,-0.17296566,-0.17554493,0.02717346,-0.023431329,0.03020139,-0.131373,0.107689366,-0.20257884,0.004766578,0.1368673,-0.22225732,0.028090164,-0.009016775,0.019416958,0.11355285,-0.08690043,-0.108610116,-0.045222323,-0.02207635,-0.041316826,-0.13549697,0.02916212,0.040402487,-0.06721449,0.109665655,-0.021637406,0.36319423,0.104078,0.17600076,-0.009379007,-0.0455227,-0.06726026,0.076672815,0.112844,-0.24182054,-0.076047644,-0.26989183,-0.1631028,-0.071835004,0.12149959,0.08728572,0.14010422,0.08617068,-0.21911453,0.40688634,-0.17637494,0.082678385,-0.05447987,-0.11112287,0.1820617,-0.01687749,0.028735457,0.046319865,0.119717844,0.045383327,-0.26428553,0.0329403,-0.13209455,-0.09738173,-0.12753116,0.09871398,0.079807475,-0.29372948,-0.12238922,-0.0100684725,-0.080330804,-0.0764274,-0.13104002,0.030810997,0.0058207703,-0.056637395,-0.018757306,-0.07011138,0.08591729,0.05693373,-0.23205219,0.1315504,0.07956114,-0.108300276,-0.019111443,0.13026394,0.078096196,-0.04080483,0.0483603,0.04205904,-0.064023525,-0.03998836,-0.08977972,0.042519577,-0.059172217,0.11597982,0.18719788,0.10443672,-0.15039161,0.15479429,0.20052034,-0.03303364,0.08685912,-0.20447157,0.19085148,-0.0016768071,0.05950466,0.18539663,0.0009913255,-0.12187866,0.047125477,0.16844879,0.15581644,0.1064985,-0.09913184,-0.07408392,-0.112113155,-0.21755561,-0.090515435,0.17885688,-0.20949115,-0.13474423,0.1405604,0.21320897,-0.37851593,0.09041081,-0.11859736,0.15682748,0.03355685,0.2556046,-0.054625113,-0.08647541,0.0649478,0.08447244,-0.23535798,-0.191355,0.15824433,-0.11545508,0.09037713,0.17731275,0.15177277,0.0145744905,0.10670895,-0.1729615,0.17209014,-0.16553345,0.12530482,-0.005681555,0.05267661,0.1994928,-0.023411782,-0.056077164,-0.09747166,0.14361943,0.006842233,-0.08912093,-0.05498922,0.16094185,-0.034247804,0.27475145,0.23698293,0.2516728,0.16352832,-0.19207753,0.17062515,0.08539197,0.030624349,0.24076402,0.10346959,0.013829019,0.043006152,-0.026078722,0.06681134,0.046438433,-0.22661857,0.14818251,-0.06284198,0.028576415,-0.20038451,0.1314249,0.10252052,-0.09014761,-0.21358621,-0.04319889,-0.03986955,0.005973123,-0.12766829,-0.08363827,-0.071215935,-0.102300785,-0.03834816,-0.079546034,0.06959099,0.015808273,0.074468926,-0.014245784,0.035446,0.16062081,0.17291367,-0.09837505,-0.107874684,0.19883737,0.032976568,-0.16746783,-0.084908634,-0.10945302,0.0811509,-0.0944395,0.026097286,0.10652137,0.05252506,-0.14142647,-0.08744855,0.08820672,0.0017874646,-0.087791786,0.21165887,0.010512853,0.03003998,-0.14533618,0.0788307,-0.13587575,0.11186942,0.13949692,-0.17708175,-0.0018578058,-0.0703684,-0.07839386,0.053689063,-0.0390703,0.19558364,-0.13863789,0.22949776,0.17002006,0.0071152514,0.07303164,-0.034985937,0.111602165,-0.106853284,0.10394062,0.25539267,0.006459773,-0.08330971,-0.10487121,-0.012820411,0.2840273,-0.107477784,-0.13119076,-0.030867193,-0.1808946,0.09499224,-0.06453371,-0.18496074,-0.07664526,-0.21666351,-0.016602362,-0.030107632,-0.0814684,0.5004216,-0.10895534,-0.09874655,0.028168092,0.043326594,-0.44723377,-0.086040474,-0.041187167,-0.13971438,-0.20610866,0.037588898,-0.085150994,0.068367034,0.023319466,-0.16962269,-0.21198878,-0.10270867,-0.08494038,0.06358867,-0.100755826,-0.030683277,-0.07199884,-0.108787805,0.11330743,-0.028310267,-0.10231848,0.03356531,-0.07339425,-0.066030525,-0.02220999,-0.15099101,-0.31487775,-0.08273721,-0.10794764,0.019480586,0.06468408,-0.11772646,-0.044456888,0.10781723,0.010090379,0.024583368,0.19075088,0.033323213,0.029130608,0.07632596,-0.012291594,0.022437528,0.02106907,-0.09663859,-0.021098386,0.044468667,0.109902255,0.058734242,0.073625825,-0.122439764,-0.17270811,-0.0063328934,0.006338165,0.1255206,-0.082960404,-0.15109614,0.0767325,0.092178226,0.055991773,0.13069086,-0.044997178,0.080930166,0.20281062,-0.086103186,0.17487334,0.008429205,-0.07363809,0.04910634,0.21260013,0.018496472,0.1472905,-0.09494502,0.113478474,0.12585257,-0.05045405,-0.0673337,-0.061301827,-0.32098314,0.028136296,-0.13302702,-0.085454494,-0.021245824,-0.14673124,0.16435435,-0.29619646,0.061606023,-0.24863185,-0.033364736,0.2320538,0.12413728,0.09976058,0.36537823,0.090508856,0.08034797,0.029380646,0.12653488,-0.33589286,-0.055172432,-0.11621778,0.15459755,0.23431829,0.038685802,0.16126853,0.058061413,0.0853145,-0.07683486,0.16267972,0.32023832,-0.20282444,0.01117258,-0.14065495,0.008712783,0.1472714,0.0034730115,-0.12027736,-0.21493264,-0.061497137,-0.16898301,-0.557895,0.031093303,-0.18623555,-0.11941558,-0.020993888,0.20250954,-0.16946931,0.09605197,0.09227732,0.22801921,0.4511273,-0.09034886,-0.068254836,0.13879801,-0.031897455,0.07203169,-0.0013036748,-0.11826324,0.35755157,-0.024200406,-0.031730823,0.20031479,0.074259125,0.021994112,0.06007973,0.14092965,0.004631123,-0.36630195,-0.1471022,-0.1982363,0.2417391,0.10971374,0.067120105,0.05047771,-0.025545526,-0.07862274,-0.025866233,-0.107373565,0.3012188,-0.013662559,0.118468024,0.11587997,0.19045925,-0.19745763,0.058238864,0.11161845,0.15290815,0.11042286,0.07521594,0.05436836,0.04987344,-0.12156017,-0.21618211,-0.027678175,0.014459313,-0.13334578,-0.12554061,-0.6727438,0.5505041,-0.1532219,-0.08819497,-0.12663558,0.064139776,0.17805058,0.64640623,0.102660604,0.08593704,-0.1430775,0.742429,-0.05108876,0.042026505,-0.0332282,-0.09750784,-0.056788776,-0.078007326,0.14336982,0.037222456,-0.047321152,0.15142813,-0.06133819,-0.2877344,-0.08734864,0.031051151,0.016998226,0.057903763,-0.15326126,-0.077895835,0.01858969,0.17404756,0.091290765,0.083757445,0.03490599,-0.03433272,-0.07834146,0.017420555,-0.061868012,0.12739915,-0.0479798,-0.13930883,-0.118557,-0.14364827,0.040418502,0.05813193,-0.031134129,0.07251947,-0.15295947,-0.026426239,-0.13642476,0.01831681,-0.02588943,-0.07329631,-0.038920503,0.17220947,-0.17996529,-0.23142917,0.06362774,0.042763393,0.42806593,0.1426269,0.13660693,-0.24752933,-0.047644172,-0.0408739,0.056736376,-0.03493874,0.18563646,-0.03430581,0.05167905,-0.17242432,0.011512052,-0.15376703,0.17082296,-0.024285672,-0.10509577,-0.050935246,0.20482992,-0.04039194,-0.18854369,-0.078620695,-0.2667488,-0.11385385,0.15662852,-0.15527524,-0.46172434,-0.23310162,-0.1068358,-0.88106334,0.14959611,-0.44809195,0.0014507634,-0.120277055,-0.15986267,0.12572134,-0.054825053,-0.0812905,-0.06011128,0.07765224,-0.029204916,0.015699951,-0.049173266,0.08089114,-0.30578658,0.33710185,-0.022642583,-0.10849055,-0.07623885,-0.7007012,0.19078034,-0.011202423,-0.17429581,-0.1162803,0.060518954,0.23722586,-0.12739563,-0.6325576,-0.05287092,-0.2910471,0.007456164,0.00891141,-0.027355019,0.5562263,-0.22134195,-0.18473613,-0.0024934474,-0.48448503,0.12345932,0.13793898,-0.09349725,-0.04054607,0.23836733,0.083744824,-0.78269064,0.03948492,0.10412363,-0.10873614,0.16400874,0.05623486,0.10873584,-0.09557996,0.03229862,-0.28374788,-0.01930148,0.09662468,0.16396402,0.07163459,0.17019692,0.07523287,-0.17551434,-0.041592274,-0.060897984,-0.06842751,0.16595368,0.09369886,-0.038618706,-0.43170795,0.04603383,0.07296532,0.114577375,-0.15721846,0.09435731,-0.18133605,0.13291232,-0.06243151,-0.15688749,-0.16919626,0.06334206,0.007518139,-0.14756498,-0.09293272,0.09418438,0.034127284,0.14022903,0.01365552,-0.010209847,0.10894995,-0.03639989,-0.15516266,0.21647513,0.011169337,0.06697485,-0.18348627,-0.08157981,0.0043125437,0.0015125377,0.1136513,-0.70704174,0.060674507,-0.014427222,-0.12431852,0.031096932,0.023747016,-0.06909756,0.014498736,0.2357586,0.06476651,-0.30633402,-0.032304388,0.02322574,0.08119265,0.23797184,-0.054747622,-0.0061091506,-0.005093072,-0.023405842,-0.10573333,-0.07584397,0.0029177177,-0.12118509,-0.10761253,0.20343174,0.062495463,-0.545157,-0.10515825,-0.07995861,0.12379329,0.033279493,-0.18576899,0.0026561208,-0.05897195,-0.032663785,0.078039,-0.07311393,-0.14812721,-0.013218828,0.014422178,0.1311295,0.12512879,-0.08547832,0.040907655,-0.20436385,-0.58515,0.21598028,0.002467393,0.13013144,0.04065226,-0.028080124,-0.08007972,-0.58206403,-0.0216808,-0.1569897,0.20307031,-0.14078556,-0.14816436,0.021100061,-0.1530426,-0.018209007,0.17166498,-0.03786242,-0.8155749,-0.17687827,-0.09299215,0.10157946,-0.06443688,-0.03429897,0.0031513919,-0.2883221,0.026710449,0.16183278,0.092995115,-0.22564106,0.078602314,-0.15225258,-0.016968496,-0.05678565,0.12499965,0.0995589,-0.5516625,-0.13892373,-0.07545231,-0.15484479,-0.11812856,-0.033102125,-0.000838899,0.1717144,-0.13514674,-0.040125415,-0.042687166,-0.021278776,0.013590823,0.2175902,0.082991965,-0.025306407,-0.25566736,0.051372796,0.0337943,0.049417187,-0.20128648,0.11565726,0.039059207,-0.078235485,0.1447109,-0.10009341,0.02821395,-0.12607098,-0.13197921,0.006426291,-0.1486538,0.14544389,-0.032818012,0.04884032,-0.032692872,-0.25753766,0.007962561,-0.0066042906,-0.12113157,-0.08582919,-0.06628632,-0.17939189,-0.22180907,0.015504025,-0.058182232,-0.10139921,0.010714768,-0.5447921,0.049915116,0.09023576,0.18116273,-0.08388817,0.05197308,0.010756104,0.010387592,0.17747651,-0.07306183,-0.07172893,-0.11186349,-0.047662765,0.03241611,0.14881366,-0.24628563,-0.17746395,-0.06776615,0.020115547,-0.10063304,-0.20811893,0.1774299,0.027659543,-0.09318043,0.196719,0.041333336,-0.40684906,-0.1488192,0.03141895,0.30123907,0.2322732,-0.001831943,0.1428907,0.13500622,-0.109425694,0.045152754,0.06764801,0.113463566,0.06868082,0.09584482,0.020654699,0.1957286,-0.10844925,0.14086714,0.07754146,-0.32617465,-0.16963345,-0.03446904,0.063374884,0.27982986,0.19192088,-0.118702084,-0.14256069,-0.13036105,0.08745339,-0.0595567,0.056440413,-0.0029557412,0.009018946,-0.17301536,-0.07735111,-0.025158413,-0.108444795,-0.3952028,0.029467719,-0.14309955,-0.16352569,0.0764134,0.13259566,0.03543205,-0.030746816,-0.20318691,0.25209835,-0.02977919,-0.08517855,0.047152802,0.06357516,-0.07785957,0.11344628,-0.16948338,-0.0030913881,-0.24782915,0.1230255,-0.19875115,0.1252427,-0.059351873,-0.17602848,0.105215356,-0.12734005,0.14811686,0.15958689,0.02199751,-0.022283103,0.03719797,-0.28674212,0.045057062,0.023836039,-0.18088229,-0.14408052,0.07357588,0.11996832,