0.75177616,-0.5011543,-0.40852848,0.13480243,0.07487913,-1.0934837,0.041928165,0.09727859,-0.14589167,-1.0369163,0.11476841,0.45140243,-0.84626776,0.5306353,0.31623003,-0.8773063,0.027793761,-0.007807748,0.077951245,-0.62928826,0.034492582,-0.9389705,-0.06578914,-0.060711835,0.33230487,0.122444354,-0.13820921,-0.37187192,0.19698338,0.5026822,0.1056369,0.009472306,0.22317748,-1.0914166,-0.6286746,-0.86744875,0.029028576,-0.7653895,-0.4432716,-0.0414003,0.44543597,-0.82310635,0.31777465,-0.52567124,0.38835254,0.111063525,0.5837875,-1.1204325,-0.39805084,0.1519533,0.59945875,-0.03909918,0.31435242,-0.9269731,0.6484065,-0.04038385,-0.9427808,-0.8913948,-0.6208527,-1.0792704,0.56912357,0.22542496,0.08861983,0.32570282,0.22223584,0.10048912,-0.010787016,-0.013048445,0.027985493,-0.32361642,0.011849609,0.022054527,0.0034260473,-0.011081444,0.004263336,0.04171594,-0.08050859,0.054374814,0.11859048,-0.006361141,0.019469764,-0.009990532,0.025669727,-0.11766971,0.021541271,0.28735548,-0.043199822,-0.039312635,0.053691,0.028737504,0.11625635,-0.019062966,0.03217849,0.07261872,-0.24511822,-0.0034255914,0.022038046,-0.038332276,-0.31363273,-0.12391857,-0.06133368,0.07961216,0.07771633,-0.015687317,0.08386866,0.09912308,0.0025980498,-0.06513461,0.11793763,-0.45882076,-0.1775275,0.03904504,-0.021009816,0.028588584,0.09275885,-0.079379804,0.030464727,-0.1757141,0.124184825,-0.010917373,-0.09917074,0.03631799,-0.095511384,-0.17126472,-0.062109742,0.094946414,0.020734148,0.02053927,0.09062366,0.036481947,-0.022273704,-0.013416606,-0.009411574,-0.13374284,-0.009498555,-0.015293335,0.0019872272,-0.019684726,0.00048294262,0.032376572,-0.06384955,-0.020045472,-0.0012701455,-0.0060566776,0.0008958037,-0.1780161,-0.010290113,0.1996871,-0.0011330772,-0.064437255,0.009588479,-0.017094888,-0.12166826,-0.01658714,-0.009823311,0.024142824,-0.0086859185,0.007362361,-0.0042178007,-0.005577387,0.027932873,-0.014656835,-0.011020415,-0.012139932,-0.1795612,0.040752243,-0.008433769,-0.30310228,-0.14371341,0.023804214,-0.0001391169,-0.42721358,0.03588698,-0.008217267,0.04399309,0.022929193,-0.040626213,0.052766908,-0.04299023,-0.016476475,-0.006878057,-0.133331,0.09101029,-0.48186958,0.035328075,-0.030726064,0.23214054,0.077748224,-0.03523566,0.025002278,-0.019252332,0.030463994,-0.014842757,-0.0021150575,-0.0022914454,0.002733014,-0.0048627905,0.020792503,0.0005815918,-0.00088461395,0.0056079617,0.0020899787,0.00037185047,0.017389558,-0.03283321,-0.024301412,-0.0015736051,-0.0012750404,0.03302267,0.07931221,-0.003982178,0.09750112,8.9432564e-05,-0.003736305,0.00495297,0.0012856298,-0.07689774,-0.005025687,-9.9914716e-05,-0.002622978,0.013064314,-0.014118985,-0.0062960405,0.00083205506,-0.003480478,0.002532928,-0.0011646146,0.022850841,0.008281659,0.000103478436,-0.0043439292,-0.021769417,-0.070086405,0.0029601352,-0.0055963285,0.024645865,-0.008061276,0.0012417857,0.0028905624,0.0023428155,0.0035231356,0.005229685,0.072084025,-0.0031911181,0.010312241,-0.047779884,0.03558721,-0.0033490108,0.04263091,-0.0024456591,0.13843071,-0.13010451,-0.0018079504,0.0044409195,-0.005775552,-0.0051995423,0.15911613,0.17136326,-0.09417454,0.16231994,0.10469458,-0.23132485,-0.04705733,0.02615323,0.17982319,-0.067846805,-0.34619784,0.09894434,-0.18275478,0.16359435,-0.20199578,0.01812319,0.0010561615,-0.007999098,0.008367464,-0.39590874,-0.016856445,-0.11214688,-0.02315533,0.008566598,0.060891677,0.013744151,-0.03528999,-0.23711364,0.085580505,-0.018836943,0.022007545,0.11731165,0.20025732,0.091456704,0.147909,0.03828234,-0.07183406,0.21187542,-0.0147512965,-0.020461915,0.28111032,0.026129223,-0.36931258,-0.08549502,0.004215096,0.019820565,0.071917504,0.13792855,-0.41488555,0.07695159,0.18035266,0.09135064,0.17302515,0.054394934,-0.03964617,-0.0154692745,-0.28973204,0.12053186,-0.108446315,-0.32444197,-0.16062011,-0.17191638,0.05322483,0.34491587,0.13976896,0.051544663,-0.24408953,-0.14658397,0.055102725,-0.2031107,-0.35967296,0.028727856,-0.0220422,-0.031482086,-0.005236805,-0.027074784,0.046056718,0.013048161,0.07819358,0.017363079,0.06878803,-0.019409765,0.04349029,0.030551882,-0.35345232,0.00762744,0.107252665,0.24167097,0.08685477,0.051353317,-0.03688547,0.07890463,0.020126652,-0.119767144,-0.015975455,0.0032051434,0.007936665,-0.033500783,-0.03444423,0.20911273,-0.081300795,0.036255736,-0.110218085,-0.011298743,-0.020960897,0.032274008,0.04424691,-0.071626656,0.116561994,-0.029194908,-0.0063505764,-0.004804882,0.0065029487,0.031250887,-0.042591847,0.15614982,-0.104964465,-0.09731105,0.07014382,-0.006780889,-0.0261444,0.0009416697,-0.16676316,0.07591358,-0.024914695,0.066654846,-0.35575056,-0.008756973,0.000897723,-0.00039054733,-0.0015957176,0.0015418681,0.0004725942,0.00026417623,-0.002879803,0.0017339969,-0.0019336739,-0.0009935361,-0.00083698414,-0.0027995137,0.0015429116,-0.0012197429,-0.0017800807,0.0005263648,0.00010918165,-0.0038200188,-0.001095851,-0.00023095415,-0.0032907566,0.00021895589,0.0024751099,-0.0013616453,-0.000101963116,-0.0018022609,-0.0018664433,-0.00092311105,-0.0006841911,-0.0009981706,0.00021872204,-0.001810154,-0.002622701,-0.00050739775,-0.0017272781,0.001092141,-0.0060313917,0.0013307016,0.0019070421,-0.0015402315,-0.0014722433,0.0015640288,-0.00090732414,0.0016706877,0.0005330314,0.00063592935,-0.0006813184,0.0003690122,0.0003942257,-0.00022454013,-0.00042715174,0.00062011956,-0.0033168718,0.003179047,-0.0013379632,-0.0033189822,0.00314004,0.0029489498,-0.0013793787,0.00011524595,-0.0009452149,0.0027466621,0.0025614544,0.000166452,-0.00041701173,-0.0020352348,-0.005022664,0.0008582786,-0.001332001,-0.0011771277,-0.00076702103,-0.00083697506,0.0026540905,-0.00030344742,0.0011832418,-0.0014633618,0.0009027611,-0.0017223076,-0.0009875296,-0.0009810006,-0.002678692,-0.0006764648,0.0017549768,0.0033170646,-0.0037179457,-0.00040816213,-0.0006001056,-0.0009735378,0.0009210241,-0.0010392924,0.0039480696,-0.0015221052,0.0015961054,0.0017764404,0.001028348,-0.0020841686,0.0012799434,0.0006717785,-0.0005261515,-0.00044070178,0.008350459,0.003750226,0.0038601984,0.0013338882,-0.00046489044,0.00014008024,-0.00042216692,0.0012708337,0.001183387,-0.0010933125,-0.0016422275,0.00011748698,-8.7697714e-05,0.012120475,0.00054269074,0.0023051056,4.1563093e-05,-0.0013148342,0.0014027869,-0.0004542079,0.00013060053,0.00018690227,0.0052400474,-0.001362174,-0.0024466484,-0.001094025,-0.0017529867,0.002142192,-0.09838003,-0.005345665,0.03474423,0.13000119,0.23496749,0.14115514,-0.0069066966,-0.3664363,0.029663036,0.03854687,0.14137833,0.0592492,-0.10427933,0.12584004,0.0744686,-0.00039315643,-0.0140925795,-0.0066321585,-0.73174,-0.06331609,0.0071083745,0.051449828,0.04834803,-0.0034004862,-0.103424296,-0.67932653,0.010842991,-0.05347856,-0.19196552,-0.05283603,0.024918577,-0.65343475,0.075654626,0.04413193,0.038978156,0.08815155,0.026460111,-0.05278587,0.013084445,0.10344188,0.044733766,0.018951565,-0.052592423,0.037815664,-0.14884657,0.037943043,-0.033236567,0.02130376,-0.14725907,0.14089301,0.0057083713,0.027199108,0.046022065,0.14090638,-0.099857464,0.047305726,-0.22210275,0.029947374,0.1845607,-0.007908389,0.041276768,-0.003241424,0.0017165188,0.12549105,
-0.09017969,-0.026064152,0.004220954,0.3712073,0.019723725,0.13240683,-0.069331534,0.060742825,0.09279667,0.19455995,-0.26829353,-0.012007195,0.024743713,0.009051674,-0.16357128,-0.13998197,0.045153975,0.026520472,-0.35142958,0.057151936,0.14026769,0.006708058,0.6528381,-0.2953178,-0.024904072,-0.15506546,0.10782093,0.085691504,-0.29784024,-0.020288726,-0.006077205,-0.3710018,-0.037265774,0.1519435,-0.00038174857,0.034347422,-0.20612922,0.1809141,0.013485411,0.024338422,-0.040706165,-0.07006304,-0.20726086,-0.22086504,-0.17353082,-0.2226528,-0.0035523395,0.0138771795,0.029194653,-0.19894451,-0.028949259,0.017739162,0.026849119,0.12458832,-0.0879787,-0.25816908,-0.012241325,0.06334054,0.05223362,0.052358646,-0.13856918,-0.26993504,-0.25323007,-0.020678366,
0.19239411,0.14855157,-0.09588947,-0.16815127,-0.3236421,-0.14988187,-0.0063629444,-0.16531527,-0.32582796,-0.17438322,0.08183726,0.12548852,-0.16409498,-0.22582936,-0.43014812,0.05251536,0.30441013,-0.013169688,-0.01630442,-0.11694567,0.011762971,0.018225763,0.030507024,-0.13499591,-0.10976328,-0.058968887,-0.09321164,-0.28332403,-0.10088981,-0.113501064,0.17557655,-0.06903615,0.06335884,-0.034937195,-0.13576534,-0.39521775,-0.25618535,-0.10855912,-0.3821616,0.15501396,0.10574753,-0.015003961,-0.18396138,0.1836438,-0.45638886,0.076865934,-0.39442748,0.2070238,0.08133157,0.10354779,0.14584948,-0.027449345,-0.0091324225,-0.23644575,0.024739683,0.02799212,0.17826916,-0.037631672,0.1392713,-0.26135176,0.0755931,-0.23294456,0.09227432,0.13484137,0.048615117,-0.14203744,0.060606685,-0.01800211,-0.4271398,-0.20706819,-0.23621897,0.15955508,-0.20668195,-0.3475081,-0.06540039,0.17080803,0.072982214,0.0738989,-0.1061529,-0.24175702,-0.10678521,-0.15709987,-0.054915562,-0.2417324,-0.07278078,0.110106446,0.04608933,-0.009382271,-0.24959035,-0.27114603,-0.056332994,-0.417178,0.11733613,-0.28750852,0.087480694,0.13174391,-0.02927965,0.055398136,-0.27666682,-0.071399696,-0.12834091,-0.107083894,-0.1496863,0.07171036,0.14745916,0.21130826,-0.077799335,-0.18372495,-0.48047975,-0.22945671,0.09205018,-0.32269472,0.25352684,-0.04059556,-0.05906802,-0.008871362,-0.16086234,-0.067393996,0.21880963,-0.1426472,0.07779776,-0.061557144,0.081174746,-0.49537516,-0.21322297,-0.22350773,0.10147455,-0.2845577,-0.058105767,-0.07570771,0.04042384,0.1228892,0.31940097,-0.06195639,-0.042671006,-0.1479352,0.16600305,-0.18176542,-0.052931905,0.18746792,-0.05033012,-0.29075587,-0.05941531,0.058606833,-0.1262686,-0.34891623,0.21549408,0.2956193,-0.27466863,-0.13803701,0.018221112,-0.08275691,-0.08115444,-0.41927204,-0.0006655499,0.17052099,0.16235279,-0.11424433,0.024716273,-0.14456072,-0.011163068,-0.16884342,-0.05551385,-0.19820122,0.021326719,0.04445608,0.070379645,0.12982349,0.040935416,0.053389873,0.21447718,-0.06927526,0.027474726,-0.03079028,0.06764501,-0.043463893,0.0016324288,-0.012405025,0.02408249,-0.2172518,0.18347935,0.19327475,0.044161584,-0.19876131,-0.030210746,-0.016585032,0.26836386,0.13874574,0.008841368,-0.011467075,0.20862918,-0.09602014,0.20551038,0.18957846,0.15308589,-0.22865802,0.20288499,0.082589194,-0.005038393,-0.14094229,-0.06338438,0.16462234,-0.07741387,0.07694189,0.37275624,-0.15132932,0.28725693,0.04420703,0.13611007,0.038295496,-0.087758355,0.10499851,-0.41662705,-0.08446188,0.032129623,-0.32278016,0.05356365,0.04813459,-0.5795563,0.19625184,-0.18611182,0.51475996,0.045635536,0.1320353,0.08769145,-0.14422132,0.027541758,0.054808553,-0.041067217,0.055824213,0.16503233,0.1095116,-0.04858347,0.11565795,0.11429674,-0.11840014,0.22042097,0.25493908,0.11144526,0.14725685,0.29627004,0.3320291,0.14093782,0.32816243,-0.19958551,-0.1453899,-0.05512324,0.0715951,0.03166632,-0.11995776,-0.3822854,-0.011601683,0.04019766,-0.046541877,0.11271235,0.06719418,0.10074396,-0.029726682,0.06718145,0.03480319,-0.055956174,-0.14694373,-0.1619335,0.16432779,0.0068132496,-0.2218273,0.12914261,0.16306211,-0.2764164,0.07918959,0.10738479,-0.55121154,-0.10307867,-0.17228623,-0.5578651,-0.51707304,0.07624494,-0.07896637,0.0202361,-0.11744626,-0.11525292,-0.20361522,-0.004235512,0.06402719,-0.03530275,-0.7853093,0.053619,0.067725375,-0.2834208,-0.003080491,-0.42286995,-0.16157441,-0.11245212,-0.07915453,0.028469786,-0.32166559,-0.03436723,-0.20471874,-0.30531642,-0.05416631,0.04040679,0.0669169,0.0073428964,-0.067069195,-0.008592104,-0.06001907,-0.8008297,-0.12778945,-0.020077037,-0.03496458,0.1322079,0.16092515,-0.122806534,-0.4313302,-0.15263751,-0.26816785,-0.07632582,-0.07191075,-0.031240761,0.05694929,-0.09709334,0.079178415,-0.11788271,0.2070595,0.32292107,0.14942399,0.07259007,0.044918,-0.211166,-0.0472597,-0.11177796,0.06622833,-1.0939409,-0.54989445,-0.37321028,-0.19125466,-0.4621076,-0.13685074,0.2186942,0.13050894,0.0038289274,-0.6341213,0.10699545,-0.10822017,0.13629754,0.042519134,0.021843635,-0.056319997,-0.34518194,-0.43455678,0.10590377,-0.084085524,-0.31598595,-0.035234816,-0.08248659,-0.09049254,-0.024134425,-0.30192924,0.05614866,-0.27398494,0.22718468,-0.34011212,-0.08284198,-0.34599417,-0.17713596,-0.079036854,-0.049112067,0.11054355,-0.5229421,-0.41953346,0.11434228,-0.28422236,0.034967534,-0.08719235,0.03994265,-0.650609,0.08533098,0.14383762,-1.2659019,-0.52469337,-0.20097159,-0.440102,-0.084530436,-0.028617892,-0.11632019,-0.24140044,0.120965086,0.07654947,0.015023826,-0.07576407,-0.23776697,0.054805726,0.1799471,0.0021201153,-0.021071238,0.036710262,0.15166026,-0.07009692,0.0025358857,0.063247144,0.24208307,0.034197897,-0.006263947,-0.12276186,-0.11934299,0.07879829,-0.118181884,0.35262337,-0.15443124,0.09922438,0.047939397,-0.056034736,0.109813444,0.053524584,-0.04093895,0.14589107,-0.22274615,-0.34530345,0.13900304,0.030287573,-0.1310963,0.15708001,-0.011631422,0.01319459,-0.06679611,0.15810499,-0.2320991,-0.1010471,0.07271795,-0.10181682,0.15664005,-0.21229398,-0.16567212,0.05519967,-0.18699448,0.179417,-0.21425708,0.08748339,-0.16020699,-0.12988538,0.2008988,0.23684143,0.004059078,0.19248717,0.049408596,-0.23072919,-0.15354644,-0.26396778,-0.21794981,-0.19442722,0.13748503,-0.10741492,0.25607905,0.12310098,0.05634913,0.10745677,-0.046917807,-0.035165578,0.19239162,-0.0218779,-0.08960547,-0.3653755,0.02045428,0.15468043,-0.072171316,0.20562626,-0.21436884,-0.13709123,0.0064998455,-0.14622143,0.07288545,0.03533871,-0.23474167,-0.03847507,0.040643822,0.24047534,0.09760103,-0.1353005,0.091117434,0.09716847,-0.57282126,-0.14127262,-0.08547882,-0.110696554,-0.07620374,-0.25758642,-0.16435227,0.073756844,0.1582537,-0.3734914,-0.03954533,-0.30250654,-0.041614473,-0.076198414,-0.3023485,-0.010678136,-0.17292802,-0.027957067,0.095131405,0.00042639283,0.13402317,-0.06214814,0.17843997,0.017082026,0.009937608,0.07909491,-0.16249312,0.028805451,-0.030405344,0.3094409,-0.012589298,0.27639067,0.03777377,0.31721658,-0.04984335,0.10565749,-0.03180304,-0.037888177,-0.037045445,-0.040898792,0.15981385,-0.008976663,-0.08515036,0.023756908,-0.023306116,0.123005725,-0.029196098,0.5070096,0.11603899,-0.09706585,-0.16848226,0.0014132285,-0.11725518,0.11213576,-0.031419992,-0.29210502,0.085008934,-0.14232609,0.19008148,0.044096064,0.073645055,-0.12059317,0.010846825,0.11869365,-0.25270045,-0.17785314,-0.10291427,0.21801808,0.0873467,-0.12978089,0.11980586,0.091367185,-0.11368517,0.08863208,-0.2754286,-0.0598171,-0.11919576,-0.40896383,-0.01656937,-0.14574836,-0.27679923,0.15136254,-0.32310718,-0.2225106,-0.45400977,0.0027935763,0.13773754,0.028036851,0.04534096,-0.22161947,0.093017444,0.032767463,0.095181055,-0.0760281,-0.011543567,-0.5355306,-0.4521091,-0.1798794,0.095155805,-0.07887181,0.13474326,-0.076077335,0.09709,-0.08686723,0.10716089,-0.14092697,0.019090028,0.16234908,0.14544933,-0.17402679,0.081609175,0.041203927,0.10804641,0.08635936,-0.04949617,-0.023730747,0.083712496,0.090364896,0.087101564,-0.04979059,-0.08386905,-0.039588846,-0.32598975,0.16109791,-0.49637562,-0.119470626,-0.04737797,0.0033392732,0.27396956,-0.25521696,0.0118787885,-0.13322854,-0.1485206,-0.44144213,-0.1479151,0.08795338,0.17586257,-0.09831586,0.13797179,0.33669952,-0.06239022,0.029698474,-0.56363887,-0.02588997,-0.29210487,-0.21415335,0.00891609,-0.017989783,0.008084898,0.03823737,0.043245982,0.14900295,-0.0053407513,0.5364569,-0.09134074,0.23684892,0.014907634,0.17506915,0.1464395,0.11603246,0.05926492,-0.09289548,0.067483716,0.08764283,-0.25973836,-0.027120553,-0.2963636,0.13972564,0.22766095,0.028625634,-0.037824657,-0.0019794349,-0.09117767,-0.21981987,0.22462122,-0.55955833,-0.15735795,0.13922489,0.07959842,-0.25070757,-0.051358692,0.10215534,-0.083853945,0.065792635,0.06759722,-0.004059969,0.09732424,0.09787659,0.17731439,-0.035437927,-0.30267212,-0.045685392,-0.0384498,0.106863864,-0.098954275,-0.21749523,0.23466234,-0.15999667,0.1088932,-0.72322506,0.050349873,-0.17366467,-0.15588245,0.051845845,0.12509252,-0.013416832,0.27663174,0.12011676,-1.018524,-0.18366204,-0.33935013,0.003771429,0.087001294,0.06353508,0.17800677,-0.11747952,-0.22720078,-0.2397453,-0.37032065,0.12799938,-0.04872378,0.14137512,0.08008896,-0.021708475,-0.3872263,-0.01096648,0.09214172,0.22801067,-0.064706326,0.364834,0.2360599,-0.094401255,0.0041578594,0.14127013,0.12535241,-0.3533928,-0.7443807,0.14125489,0.115686804,0.029912459,-0.09200406,-0.08164348,0.21790288,0.32648984,0.13680986,0.10403943,-0.67118156,0.06885673,0.13227977,0.20331888,-0.08018407,-0.008008548,0.05698588,-0.23492189,-0.0009868855,-0.10977813,-0.03452807,0.07099405,0.25440285,-0.5379714,-0.13643773,-0.48368612,0.15637702,-0.293361,-0.009321315,-0.21086384,0.11936132,0.15253374,0.21624112,-0.27407283,-0.60151744,0.37395316,-0.41202384,-0.64263916,0.10554014,-1.8955063,0.06172495,0.14740312,-0.14319374,0.077303134,-0.038361114,0.07656023,0.12678428,-0.09454227,0.11228093,-0.44178906,-0.10187189,-0.0033168148,-0.057119682,-0.0006500045,-0.051530126,-0.06250775,0.12283268,0.057941325,0.0017202148,0.036170088,0.13954295,0.11567419,-0.024223128,0.06042342,-0.05578017,0.15889923,0.059633512,0.0690496,0.14099474,-0.08981312,0.17119507,0.031035077,-0.04456856,-0.109279566,0.0013310863,-0.34115005,0.11499358,-0.1783917,-0.013459659,0.1258106,-0.021997571,0.03659335,-0.13702735,0.27119133,-0.050835684,-0.049539737,0.4104955,-0.07957295,-0.014432864,0.0748837,-0.13025954,0.09818449,0.04302385,-0.009931245,-0.14670919,-0.021564016,0.12408301,-0.02900782,0.030064305,-0.23562334,-0.193159,0.02600837,-0.13923907,-0.069753185,-0.776933,0.11204442,0.28537437,-0.11791208,0.033586923,0.30036664,0.0864898,0.22726288,-0.046834696,0.024219552,-0.08605205,-0.047887307,-0.028843556,-0.061281137,0.01596071,0.022212222,0.18482874,-0.034953576,0.085619345,0.115411155,0.07763493,0.17691548,-0.020095898,-0.011043771,0.25124088,-0.29692838,-0.02928859,0.15194699,-0.0027594047,0.048894208,-0.025973627,0.26873055,0.08548745,-0.14451098,-0.14928675,-0.06922949,0.06748801,0.1360898,0.013732363,0.0924232,0.059636105,0.03340929,0.07131612,-0.028418727,0.6042882,-0.034676373,0.066514105,0.012060447,-0.056469917,-0.043924745,0.07105626,0.0019173548,-0.093343735,-0.036152653,-0.047045134,0.009428749,0.18439052,-0.08633362,0.043196008,0.17726383,0.10625587,0.15067726,-0.08637085,-0.1092053,0.42109033,-0.14691657,0.057469927,0.2740149,0.065268435,-0.008359999,0.25256613,0.22231412,-0.06161269,0.06788902,0.029198697,0.18284595,0.19979113,-0.09195408,-0.036232255,-0.14920832,0.043090228,-0.06679874,0.09364397,-0.047202848,-0.33044147,0.08719883,-0.034460668,-0.030270869,0.047083177,-0.18658313,-0.14274473,-0.0019230884,0.090568125,0.04112674,0.039292842,-0.012682945,0.08280437,0.0995518,0.10230275,-0.08175018,0.08969239,-0.22775337,-0.075339094,-0.2516408,-0.10986935,-0.03557522,-0.024412407,0.106786296,0.18168248,-0.07803678,0.02440927,0.021199254,-0.048620418,-0.12468153,-0.0008477573,0.017133638,-0.080600016,-0.008445857,-0.14326729,0.12112011,-0.05227458,-0.08283702,-0.086053,0.060250144,0.06803688,-0.044041157,0.14044398,-0.44009006,-0.03447034,-0.0074658873,-0.058398042,-0.06014998,0.022978405,-0.023101974,0.12993552,0.045198582,0.19270846,0.015848849,0.07121963,0.14868964,0.033034228,0.04180854,0.011448773,0.007008572,-0.17280143,-0.0030058906,0.0006864768,-0.16510889,0.1611427,-0.18705589,0.097901165,0.18079494,0.0690906,0.13349968,0.043653276,0.0034592703,-0.15501373,-0.0040290845,-0.28113303,-0.23625946,0.03434516,0.1364749,-0.15741439,0.04933294,-0.2108157,0.03126738,-0.059246477,-0.070829764,-0.0137597,-0.04006859,0.009809029,-0.03296899,-0.055933695,0.25803885,0.012921087,-0.039853998,0.010931479,0.049184646,-0.18119535,-0.14909667,-0.38213274,-0.06264648,0.04118321,-1.4725379,-0.23608103,-0.022049518,0.23075792,-0.039040077,0.29449072,0.05895403,-0.027646078,0.062173504,0.0810829,-0.020823877,0.01601643,-0.12186277,-0.018203383,-0.10328541,-0.0018193332,-0.06180084,0.022132296,-0.12527393,-0.20726998,-0.21770225,-0.42801315,-0.030145451,0.07559503,-0.055094335,0.07175092,0.17075887,0.015325726,-0.1563215,0.2006609,0.023058629,-0.37295285,-0.0020055051,-0.05339741,-0.06360036,-0.07041118,0.15872306,-0.010465712,-0.26168868,0.1311098,0.1269207,-0.4766023,-0.025298262,-0.44271767,-0.15103231,0.03346846,0.20287336,-0.8323759,0.08959209,0.08949594,-0.12576142,-0.53996277,0.1767135,0.20928404,-0.081100486,0.060369156,0.13616675,-0.039583344,-0.020918895,-0.5369052,-1.394671,-0.036502644,0.108951904,-0.22788946,0.16977334,0.119402826,0.005625107,0.0042322436,-0.25900877,-0.07389364,-0.08158137,0.010163555,-0.13293177,0.19499604,0.23311186,0.16315125,-0.05572536,0.05536303,0.055902082,0.18791296,0.049488224,-0.036279302,-0.23375477,0.10988452,0.09303221,0.4370271,-9.213506e-05,-0.11513497,-0.1400419,0.1289513,0.121697314,0.111915775,-0.06949772,-0.06603548,0.05935714,0.09935709,-0.032244395,0.20233814,-0.23569094,-0.265154,0.082734406,-0.11466468,0.036012523,0.10231711,-0.08518947,-0.021524264,-0.03561805,0.30435705,0.01933744,0.026075259,-0.10652553,0.077727996,0.09167576,-0.21288094,0.0868808,0.08451198,-0.07291958,0.048243046,0.10717528,0.09529476,-0.29042718,-0.22686362,-0.0038068322,-0.18299119,0.16825049,-0.0010662598,-0.17214975,0.054228246,0.31355965,0.14815937,0.020703867,0.17524154,-0.02420237,-0.10420088,0.20492896,0.06743116,0.37224847,0.15234964,0.33538216,0.096659824,-0.025811782,0.122614324,-0.037056044,-0.30771405,-1.9679813,0.17507362,0.14509654,-0.021424502,0.13069953,-0.33234558,-0.1992334,-0.13123633,0.081930354,-0.079149045,0.20598975,-0.034807812,0.35857946,-0.08975294,-0.0640186,-0.10802523,-0.05169416,0.16840307,0.27205995,0.099258915,0.023056157,0.14539352,-0.09997242,-0.80945534,-0.17288223,-0.087548815,-0.059148923,-0.21605746,0.028072966,-0.067205474,-0.2856071,-0.14592552,0.053334758,-0.18578845,-0.19428037,-0.14135467,0.07055849,-0.24525264,0.027568134,-0.25142938,-0.05776616,-0.24259923,-0.029205972,0.23266944,-0.36568424,0.14038572,0.11184188,-0.52160895,-0.14601128,-0.18304344,0.24250478,0.31354025,-0.5230494,-0.41405192,0.15275805,-0.15111248,0.17294814,-0.26791343,-0.022433063,0.18164594,-0.20817982,-0.1503005,-0.07169758,-0.2087069,0.07734724,-0.10878946,-0.2469453,0.041629218,0.04522869,-0.5518998,-0.1675927,-0.0072928993,-0.6384408,-0.34246203,0.14287327,0.27270788,-0.077793114,0.2278423,-0.103533484,-0.02606114,-0.040598027,-0.6158131,-0.05154885,-0.9365506,-0.030031694,0.14871275,-0.04231115,0.19620956,0.24534951,0.09835282,-1.0762197,-0.08358348,-0.04231018,0.10486106,0.16429265,-0.19550616,0.023248672,-0.34161893,-0.26021147,-0.12508339,0.057995886,-0.35923377,0.012010201,0.31749523,-0.24359113,-0.43834364,-0.17957708,-0.07845555,-0.078520544,0.09494117,-0.40328383,0.0825419,0.0011482476,0.02019989,0.0454403,-0.26178905,0.22602059,-0.641341,-0.54830784,0.1549947,-0.66240114,-0.020951249,-0.09678448,0.0443749,0.34054503,-0.085317224,-0.05829272,-0.29783422,-1.1396114,0.2520446,-0.10374955,0.10114721,-0.029897999,-0.0041333865,0.16697544,-0.10738133,-0.120428525,0.12140787,-0.18656081,-0.16329768,0.17968653,0.020700611,-0.10764351,0.31602037,0.30225167,0.027993396,0.1739508,-0.15916574,-0.030941648,-0.0757251,0.11491903,0.22807768,0.16031122,0.20229961,0.02639138,-0.08891275,-0.04864407,-0.54911613,0.12781808,0.48282573,-0.1791323,0.07202596,0.06187665,-0.023681723,0.059106912,0.41952258,-0.08754337,0.0023256629,0.089725964,-0.12598018,-0.055002525,0.16100603,0.22517669,-0.09757483,-0.039932165,-0.30430177,0.16081801,-0.20161884,0.30278695,0.01264852,0.054972805,0.31004682,-0.016395811,0.097506545,0.030186241,-0.4086394,0.041370813,-0.21468304,-0.1887567,-0.23663175,0.020922432,0.009201852,-0.120144546,-0.0017134,0.044413425,-0.029967796,-0.54450697,0.21321127,-0.14923355,-0.255306,0.5673079,-0.03183179,-0.050388027,0.05133337,0.046603225,-0.1467379,0.060274027,-0.22118254,0.044126783,0.19972262,0.038390476,-0.054980922,0.11104849,-0.20405944,-0.057396695,0.065443315,-0.11578039,0.0030735987,0.066895336,-0.33902583,-0.119585864,-0.13126796,0.11336695,0.07864189,-0.013725332,-0.008867311,0.02477702,0.11500699,0.005102747,-0.038343824,-0.34586897,0.094300136,0.098480314,-0.027980728,-0.29435784,-0.0933266,-0.27754298,-0.029800951,-0.21126914,0.08740573,-0.6435725,-0.16750984,0.23940538,-0.4569576,-0.029390305,-0.68784326,0.09989217,-0.13325553,0.4202857,0.1345166,-0.2925389,0.03472824,0.108862475,-0.08253725,-0.085900344,0.2770664,-0.056954283,-0.041445237,-0.050693788,-0.080156736,-0.08414438,0.12355492,-0.011178197,-0.12572472,-0.48215714,-0.06460996,-0.266955,-0.16926035,0.011775833,0.48921293,-0.13280763,-0.107639894,0.115284644,0.018527675,0.22646953,-0.10331079,0.027835758,0.2701135,0.065631114,-0.15001512,0.10102675,-0.03587272,-0.23526375,-0.029826637,0.17568716,-0.039103657,0.10344623,0.022478625,-0.26672775,-0.025551947,0.10152651,-0.36522081,-0.1633684,-0.065792084,-0.09847248,0.029440736,-0.182019,-0.080735005,0.040141802,-0.013260564,0.02868737,0.13361031,0.06191764,-0.39135054,-0.07803528,-0.11896265,-0.00774008,-0.3222437,-0.047102027,-0.090549044,0.14164574,-0.0988292,0.06558434,-0.32215062,0.25724322,0.11263492,0.025921836,0.09657012,0.13011225,0.13346922,0.028543955,-0.18077073,0.14233105,-0.11321825,-0.105332255,-0.24146777,-0.08034686,-0.054257005,-0.073897466,-0.04679904,0.13849887,-0.1552001,0.06473097,-0.15205286,0.0013824047,-0.16688952,-0.34883508,-0.055583723,0.10894899,-0.029641066,0.096913114,0.0045373654,-0.083756275,0.124582484,-0.1284455,0.040237892,0.10073341,0.051850986,0.019054152,-0.19928685,-0.16762573,-0.034733836,0.049045596,0.103276275,0.019145515,0.10473055,0.071603924,-0.11559586,0.09434338,-0.19398008,-0.12956001,-0.2397352,-0.20457722,-0.06039555,0.14175013,-0.076458834,0.031298462,-0.08042926,0.008515026,-0.29237682,0.05243582,0.100828074,0.03133878,-0.029389821,-0.07518825,-0.13483912,-0.5044952,0.14608707,0.14285952,-0.016422827,0.06668051,0.1533212,0.120871365,0.123553954,0.09211454,-0.11665454,-0.10970525,-0.11510342,-0.11582854,-0.12988722,-0.04649003,0.16899733,-0.036861658,0.0018047433,0.04340894,0.14109498,0.10878168,-0.06961481,-0.028997222,-0.048144575,-0.017654723,-0.025058297,0.09393326,0.09321253,-0.31809667,0.04397942,-0.005863883,0.2103845,0.056742236,0.05062423,0.13631189,-0.06728196,-0.06348098,-0.0617233,-0.11056324,0.16280237,-0.054126404,-0.014824027,0.19633205,0.16353941,0.09959981,-0.035242837,0.11869598,0.1636182,-0.008292891,0.0972362,0.0022180171,0.035746194,0.31889844,0.031896982,0.0023423734,-0.32889062,0.12017905,0.025374774,0.07172185,0.2902538,-0.10295507,-0.11538387,-0.103467315,-0.061651178,-0.038115684,-0.024427595,-0.39746362,0.10145518,0.14518924,-0.20087345,0.339349,-0.058858078,-0.011341122,0.044359397,-0.06598628,0.084883995,0.092605725,-0.19850095,-0.13781428,0.09560317,-0.7297898,-0.058342565,0.051297184,0.13069344,0.11158517,-0.10807806,0.011951817,0.116971105,0.048758242,-0.23555137,-0.05874753,-0.08732457,0.06441113,0.087416336,-0.07114797,0.22430557,-0.014110026,0.054989632,-0.5793089,-0.16020583,-0.059349764,-0.0062176543,0.18222544,0.014425437,0.067696095,0.015803773,0.15041721,0.2193206,0.06412745,0.10267365,-0.09679608,0.163028,0.15861498,0.1602566,-0.20203269,0.048921097,-0.02518823,0.21883202,-0.15274772,0.034040995,0.010849571,0.20573941,-0.03620163,-0.3969358,0.23809867,-0.3086256,0.09375773,0.045333054,-0.25418574,0.016815897,-0.34293443,0.075558886,-0.08456059,-0.056658432,0.06966686,-0.020389022,-0.036172617,0.022089276,0.12945777,0.023155894,-0.017890466,0.08758111,0.025312584,-0.108326726,-0.52961546,0.030010138,-0.11800709,0.080985926,-0.23048303,-0.31485173,0.080097124,-0.12182596,0.016482854,-0.0866426,-0.026616901,-0.19571127,0.14993182,0.29578862,-0.01496825,-0.0060284683,-0.026506284,-0.10508826,0.031288926,-0.08584992,0.0044026477,-0.07084886,-0.10901319,-0.022998309,-0.026178535,-0.04513081,0.13924836,0.15366611,-0.1269309,-0.34171784,0.19786139,0.018316066,-0.0405586,-0.026644286,0.12082784,-0.062347014,0.11683225,0.09482935,0.016484292,-0.23461725,0.08249553,0.0786747,-0.032316238,-0.35048997,-0.017663376,0.101556025,-0.16559009,-0.10080187,-0.08368559,-0.25277925,-0.19802354,-0.0916783,-0.1410865,0.18412022,-0.13465416,-0.19926749,-0.1374115,0.21615401,-0.13635403,-0.22902308,-0.26438206,-0.08093411,0.088647544,0.05305711,0.13160047,-0.03041138,-0.26859167,0.008590956,-0.0963119,-0.021057837,-0.1779696,-0.19012776,0.16818058,-0.15289572,0.16777381,-0.022872547,-0.1811583,0.16748059,-0.15376206,-0.22539541,-0.25591215,-0.049792904,-0.0045026476,0.16594768,-0.13006142,0.1096704,-0.21060619,-0.08931965,-0.11718918,0.084319755,-0.1294851,0.13372163,0.111782625,0.15968664,-0.06495704,-0.22404155,0.078685425,0.018606624,-0.057329495,-0.29158998,0.20785041,0.27516252,0.121736795,-0.08953129,0.21978404,-0.16618687,-0.15221612,-0.06204025,-0.032551683,0.07470203,-0.11687271,-0.25469816,-0.16921918,-0.19513614,0.004210523,0.26994136,-0.14446615,0.016703794,0.2739994,-0.13776508,-0.013664465,0.067556575,-0.11749809,0.13789856,-0.10544243,0.03574772,-0.06499883,-0.018258052,-0.015090584,0.11888838,-0.08859814,0.010279105,-0.03147458,-0.10205206,-0.025639089,-0.10515379,-0.22575766,-0.13118352,0.19062825,0.13599208,0.32753304,-0.009544886,0.012326555,-0.09284047,-0.0358484,0.11073696,0.018501723,0.09410297,0.00037537082,-0.12919404,0.09889033,0.2983879,-0.05195021,-0.18144326,0.13344185,-0.017277636,-0.06825043,-0.319685,-0.044800278,-0.06937586,-0.19233279,0.07013809,-0.0128755355,0.0299472,0.014738293,-0.1405673,-0.20689693,-0.4386407,0.12843625,0.1137798,0.009402945,0.12088995,0.0687315,-0.1085181,0.040399905,0.06168654,-0.3225383,-0.27683148,-0.17757049,0.35502413,0.026723174,-0.022156242,-0.039461184,0.08257039,-0.042806063,0.01937468,-0.1554397,-0.073763676,-0.20104018,-0.061512094,-0.12821269,-0.08769468,0.3058422,-0.015062865,-0.009361666,-0.053738058,-0.05228611,-0.010119297,0.07307088,-0.13542485,-0.075400464,-0.03418359,0.18186083,0.034460295,0.0019823392,-0.028332487,0.004438275,-0.104242854,0.0061500673,-0.12156067,0.17675334,-0.3036984,-0.062196437,0.09269284,-0.00977538,0.115847655,-0.048437804,-0.35831922,-0.09905114,-0.31550926,-0.03483937,0.08683679,-0.30355388,0.010964303,0.14679936,-0.082630046,-0.19965436,0.103443705,0.043901622,-0.026088953,-0.022101667,-0.0077007827,-0.08011662,-0.29515624,-0.08679141,-0.55894756,-0.04097803,-0.23952463,-0.09176839,0.07587315,-0.07433949,-0.049210094,-0.106705524,-0.14380017,-0.02621146,-0.08449082,0.09707932,-0.13983785,-0.043964434,-0.058716293,-0.11634509,-0.21470822,-0.10553577,-0.1235438,-0.03298067,-0.070719,-0.03626282,0.32647362,0.03126913,-0.13876472,0.054876424,0.21962163,0.077207364,0.31241974,0.16746487,0.046763275,0.05197251,0.07425161,-0.26914,0.020533554,0.35282138,0.41323772,-0.3234833,0.003823465,0.07818732,0.27452567,0.12925081,0.1034328,0.26475924,0.59638095,0.0024152668,0.04758838,0.2743309,-0.42170885,-0.3111906,-0.60685545,0.20645338,-0.11316891,0.05847896,-0.08454685,-0.17829296,-0.06675486,-0.016282933,0.13973527,0.18160138,-0.84885633,-0.9179406,-0.45723405,0.09182418,-0.0037620727,0.015163643,-0.4124316,0.30551815,-0.5396956,0.13705021,-0.37028298,-0.41017747,0.34742904,-0.13079739,0.120412044,-0.1907197,-0.061585344,0.3002414,-0.08865559,0.030899042,0.14019445,0.026556697,-0.46782938,-0.10834603,-0.101068325,0.10929771,-0.28368425,-0.14514722,0.054329194,-0.28782815,0.092733696,-0.17206182,-0.053739008,-0.09188593,-1.1686018,-0.0053438623,0.13632432,0.18109313,0.06872755,0.16020393,0.1470285,0.21971135,-0.5155966,0.038488384,-0.67253613,-0.43200234,0.16865367,0.31040496,0.18361214,-0.10538688,-0.1325136,-0.6446108,0.22712632,0.25108662,-0.6344076,0.028440155,0.039735448,0.12875128,0.095366746,-0.63237274,0.22159305,-0.4095644,0.123655386,0.022405118,-0.116759434,0.20086794,0.20283724,0.19452934,-0.39306062,0.13870572,-0.44014278,-0.35177153,0.16328062,0.21786426,0.09203748,0.05267916,0.020777779,0.14155442,0.16218153,-0.02736629,-0.09043615,0.04075239,0.04471833,0.122069426,0.18364078,-0.2554209,0.11383794,0.21184146,0.01746666,-0.14211094,0.019220177,0.1197778,0.04330123,-0.06284042,0.44255012,-0.107382305,-0.035312116,0.11579285,-0.18257125,-0.0020459916,0.11731474,0.09661022,0.16746223,0.122552685,0.004704249,-0.037967477,-0.1920116,0.13915235,0.020521069,-0.2055056,-0.12159531,-0.103720285,-0.05993162,-0.06561677,-0.07526469,0.036097743,-0.17030862,-0.4345877,0.003386742,0.0720518,-0.22237925,0.02454409,-0.04884499,0.15403679,-0.020690277,-0.13027135,-0.10066517,-0.04935696,0.026602298,0.04539536,-0.34852093,-0.06135217,-0.06627366,0.0745675,0.072988704,-0.031114439,0.13320492,-0.21387334,0.13582599,0.2782256,0.107338406,0.027833993,0.06785268,-0.27540383,0.10821003,-0.02144661,-0.29628277,-0.061030846,-0.037786573,-0.0661883,-0.10553735,-0.14643498,0.07804719,-0.2518015,0.082804374,-0.24826275,0.076359525,0.14071333,0.07142673,0.12252188,0.02885621,-0.016262664,-0.095370024,-0.051101822,-0.016096015,0.105135165,0.097662896,0.03599213,0.018269511,0.0082421675,0.06523913,0.030579831,-0.082914785,0.026694851,-0.14211917,-0.02015548,-0.033248447,-0.08868465,-0.032995854,0.089128755,-0.111222796,0.008253455,0.29537126,-0.029760057,-0.15362585,-0.027015377,-0.2119193,-0.26282102,-0.14145823,0.0034685845,0.10972188,0.21819146,0.016518757,-0.21803337,0.13296075,0.056880537,-0.14039779,0.14696518,0.055687714,0.01898887,-0.09385414,-0.036448672,-0.14299926,0.0011621928,-0.099766105,-0.29812038,0.12897283,-0.014913907,-0.25542086,0.0068825944,0.017408984,0.049699556,0.11472776,-0.07370134,-0.06919558,0.034210328,0.0065840185,-0.10899092,0.038472448,0.05730689,-0.02455469,-0.030441293,-0.8762801,0.050119147,0.10337837,-0.311554,0.063847154,0.22871415,-0.055913985,-0.09838093,0.060409416,0.096933894,0.045429863,0.059580535,-0.24320509,0.035739165,-0.09953928,-0.03733598,0.029677061,0.052413527,0.057144027,0.12593523,0.010654526,0.040122945,-1.1128385,-0.054720398,0.037023872,0.11333018,-0.037164558,0.023312043,-0.018288683,0.00069088396,-0.04531009,-0.10534412,0.00054055866,0.043919004,-0.007572927,0.06566575,0.01635392,0.31981462,0.141236,0.010978867,-0.12308832,0.021270318,0.1142663,0.14923054,-0.044710524,-0.6439279,0.0039062886,-0.06307561,-0.11285609,-0.018483704,-0.15727745,-0.062503286,0.4094456,-0.025595035,-0.026054002,0.07276631,0.1360768,-0.1629935,0.046512287,-0.042423327,0.004318508,-0.18693808,0.021492662,-0.2019547,-0.033017267,0.6378921,-0.054934073,0.018271495,-0.09749466,-0.031783767,0.006766031,0.046909545,0.04825048,0.10405314,0.37278178,-0.09300881,0.14310671,-0.06528532,0.0549224,0.0051486013,0.16277543,0.012086603,0.25571418,-0.08194382,-0.20555978,-0.048377268,0.074506864,0.020087287,0.122562684,0.08587789,-0.07097715,-0.023568612,-0.24640706,0.018654704,-0.22306079,0.089354664,0.18599068,0.06945983,-0.06825619,0.74626946,-0.26368394,0.13912143,0.058916397,0.02030583,0.06344442,0.048143968,-0.059862737,0.029078994,-0.01519486,-0.26045793,0.052110884,-0.035253417,-0.025030281,-0.042556696,0.04751909,-0.0028729672,0.12012543,0.064889506,-0.010046319,0.024050917,0.28384694,-0.88829696,-0.0034388022,-0.019482784,-0.16747777,-0.075204454,-0.022508614,0.13398972,-0.24768688,-0.1547414,0.07217855,-0.994643,-0.09318823,0.061219957,0.019907944,1.0811936,0.087088086,0.029241681,0.29483035,-0.033564888,-1.0454187,0.030523274,-0.9378327,-0.008760964,0.14861488,-0.33236137,-0.12779005,-0.26123002,-0.14984672,-0.084421046,0.31837922,0.03666043,0.8703865,-0.091123864,0.09169522,0.013467614,-0.04429566,-0.038752176,0.2400635,-0.34020823,-0.18488277,-0.18379644,0.34291694,0.08096967,0.059559718,-0.4958516,0.03726359,0.054604396,0.2001498,0.01895885,0.11757335,-0.49057543,0.6155016,-0.2799956,-0.10691958,0.039172422,-0.16121402,-0.26161933,0.05086605,-0.14010324,-0.036812194,0.020358952,-0.0528801,0.6521027,-0.09935665,0.14217405,0.0784915,-0.05058407,-0.25240612,0.022177951,0.020115962,-0.3561132,-0.1398846,0.38529754,0.118674,0.025213819,0.011717957,0.3500955,-0.044329785,-0.17519644,-0.3102669,-0.23398978,-0.5490078,-0.24958698,-0.049190346,0.3803348,-0.13461743,-0.0070216097,-0.49219212,0.103615135,-0.74418706,-0.02334354,-1.0939913,-0.16458733,0.044663996,-0.009071793,-0.044688053,0.9914871,0.045669902,-0.14427038,-0.23798856,0.8616753,0.043177146,-0.2994872,-0.2487071,0.466352,-0.024143223,-0.4801315,-0.036080167,-0.2320362,0.7804293,-0.22122169,0.042818215,-0.30809233,-0.065955214,0.03671654,-0.09301818,0.3551728,-0.027343638,0.15730236,-0.19976538,0.006776238,0.2500196,0.103645,-0.14953701,-0.072964385,-0.103011996,-0.103744954,0.09798091,-0.04062343,0.08293544,-0.0181664,0.0119028995,-0.03494052,-0.22430621,0.15200883,0.4905544,0.08133943,-0.06251987,0.07575466,0.024364658,-0.01963117,-0.13052459,0.072629064,-0.056955338,-0.01415345,0.15445799,-0.39206642,-0.42733467,0.1976841,0.0034000943,0.051725924,-0.1769765,-0.06615813,0.005184412,0.036089133,-0.10687602,0.057511244,-0.052650787,0.05582457,-0.005140239,0.05605323,-0.025803056,0.1163988,0.08933013,-0.1250915,0.043157186,0.07279234,0.027568854,-0.05884953,0.064860694,-0.05809886,0.17414507,-0.16609752,0.0017173123,-0.15175112,0.26403275,-0.04961567,-0.06948541,-0.027440092,-0.12771668,0.35355446,-0.0850492,0.02047035,0.023347987,-0.5266198,-0.018108971,-0.06496629,-0.13339569,0.052982803,0.029369293,0.057649937,-0.15507646,0.08433634,0.080399305,0.12152478,0.17928632,0.095611066,0.215995,-0.29435432,0.06256664,-0.29517883,0.028193546,-0.09232307,-0.024130004,-0.05575219,0.020571027,0.11746467,0.05173074,0.08749802,-0.13106266,0.0055534625,-0.0006875347,0.09177343,0.021353146,-0.10380602,-0.061919626,0.15524662,-0.24652971,0.0669745,-0.24010752,-0.019393314,-0.24144831,0.043466482,-0.008291338,0.25582322,0.14490011,0.25266707,-0.15718254,0.24862587,0.080746084,-0.10860012,-0.1613769,-0.010858364,-0.0029829165,-0.19022596,0.16610244,-0.04342743,-0.14311874,0.103480324,-0.02675685,0.011801174,0.043382637,-0.10227879,-0.22525269,-0.63893855,-0.13740927,-0.07682995,-0.11898666,0.10041935,0.18314002,0.07053661,-0.031519655,-0.12522604,-0.016172128,-0.008290639,-0.081070356,-0.31266686,-0.04676397,0.11355831,0.10084891,0.114132605,-0.0827162,-0.05258544,0.18759173,0.00038011957,-0.16616356,-0.0030173569,0.10042762,-0.08061334,-0.022191525,-0.080926634,0.07630026,0.11180386,0.11294964,0.15541063,-0.07139774,-0.11569006,0.020436572,-0.5028806,0.0077886167,0.22939552,-0.0029718159,0.22649117,-0.017214201,-0.11547279,0.039979294,0.06541396,0.01791619,-0.5896207,0.37279183,0.19652528,0.14078316,0.10949936,-0.11550993,0.016077906,-0.05703151,0.06361959,-0.054257862,-0.07475668,0.11773822,-0.05584973,0.016295778,-0.21172285,-0.17210743,-0.055606514,-0.16373637,0.03677448,-0.14473307,0.16222107,-0.113350734,0.08276197,0.13477898,0.47281617,-0.060838927,0.34142983,-0.09425846,-0.0789272,0.091833524,-0.030522397,0.061936583,-0.10731011,0.03600522,-0.07396141,0.20705216,0.2556405,0.06868644,-0.05952488,-0.06427743,-0.16169727,-0.0066384804,0.061646055,0.32488048,-0.21478985,0.07718409,0.2677414,0.084719956,0.04999347,-0.2541332,-0.048862405,-0.02115748,-0.23958124,-0.10348374,0.042788748,0.15584251,-0.009010433,-0.24198925,0.083159454,0.069496065,0.028556565,0.11708204,0.027196215,-0.01690084,-0.020182373,-0.065976754,0.0077393292,-0.07072929,0.018969225,-0.09850415,0.20920752,-0.14647643,-0.18087998,-0.035530034,-0.1082838,0.09145064,0.026565958,-0.04551944,0.16086178,-0.040899463,-0.11911828,-0.044880524,0.094204865,0.32594085,0.17534426,0.033365168,0.41532567,0.012798273,-0.021167211,0.45254022,0.02663147,0.120603785,0.026269423,0.12420224,0.16755056,0.047787923,0.06753363,-0.10880276,0.18526827,-0.04395665,0.16869265,-0.18853338,0.20613208,0.0021819847,0.13233265,0.08769632,-0.007555353,0.0857396,0.30508837,0.24249211,0.058884118,-0.16863976,0.25005174,0.041114043,-0.3088955,0.011934612,0.24613509,-0.028878571,0.008595377,-0.6384602,0.22887601,-0.121137984,0.20559224,0.18137495,-0.043477,0.085081324,0.20169358,0.09557059,-0.054883312,-0.026357569,-0.031473577,-0.122148775,0.034481823,-0.27185547,0.109875835,0.13810194,-0.13053493,-0.102565154,0.17780301,0.002734242,0.03096147,0.14329389,-0.119164035,0.037636872,0.31179148,-0.028277196,-0.005413165,-0.01478944,-0.04531141,0.09982183,-0.07433067,-0.043008886,0.1484016,-0.25673327,0.14156535,-0.041236646,-0.09229741,0.1438335,-0.0830261,0.018264519,0.12749775,-0.07425641,0.25051835,0.1131046,-0.05869437,0.22314115,-0.06701272,-0.20632774,-0.061392624,-0.15875904,-0.10272722,0.041219644,-0.15355211,-0.25106087,-0.030026533,-0.2557436,0.12750608,0.1971377,-0.0040692287,-0.28066775,-0.047543738,0.07347145,0.09581445,0.07836088,0.2507953,0.097122,0.0038856014,-0.4008536,-0.2546398,-0.050778072,-0.040952854,-0.042673837,-0.053292017,0.09213589,-0.06906962,-0.089536026,-0.19373213,0.03592381,-0.12894627,0.016737444,0.049439505,0.21196343,0.29961964,0.32896435,0.12750754,0.061214164,0.08722891,-0.238759,-0.17142417,0.049810056,0.094148345,0.20139754,0.03213052,-0.08070178,0.045591917,-0.035121467,0.1649905,0.16687429,0.21525572,0.028893162,0.1508065,0.0026941942,0.12049962,0.034831718,-0.35658923,0.17371354,-0.01523376,-0.2804749,-0.14494288,0.08566548,0.081231825,-0.17322078,-0.020030636,0.100695,0.11322324,-0.053866368,-0.040802564,-0.103650674,-0.23113354,-0.027762016,-0.065159455,-0.13533263,-0.06405878,-0.02804943,0.09320884,0.1870679,-0.023071595,-0.17682445,0.02863208,-0.121857695,-0.20423503,-0.10194964,-0.00761944,0.033100132,-0.37482736,-0.23105636,0.10476021,-0.5858485,-0.1132437,-0.17200547,0.10438738,-0.0943311,0.12697482,-0.30951,-0.04264455,0.022346597,0.091510825,-0.2342653,0.14055774,-0.06254267,-0.11662393,0.16821475,-0.048198927,0.18079218,-0.021122323,-0.096527874,-0.08686785,-0.32328197,0.020098066,0.029778646,-0.9178937,-0.06788983,-0.34983674,0.1918721,-0.027888672,-0.17995727,-0.16520433,0.18631403,-0.05129507,0.14693183,-0.08969995,0.196841,-0.63676834,0.23317666,0.06605859,0.05503835,-0.18506129,0.03397987,-0.073148474,-0.10832883,-0.25298917,0.017573662,-0.24589932,0.034775145,0.05736642,-0.27827656,-0.12272805,-0.07801874,-0.18287407,-0.41766402,0.10638611,-0.26604047,-0.3945177,-0.12437845,-0.15076469,-0.10422903,-0.25137344,-0.0128428005,0.11726651,0.029510563,-0.5043936,-0.1499191,0.016351841,-0.025442842,-0.33029917,-0.04156587,-0.19962236,-0.13440108,-0.36718857,-0.14415297,-0.58544403,-0.36854476,-0.24242859,-0.4998164,0.20991828,-0.14165576,-0.1963407,-0.15440856,0.25787246,-0.97800946,-0.062559396,0.091050364,-0.31144768,0.23890452,-0.17491563,-0.8929252,-0.18229108,0.1637458,-0.03435729,0.088845745,0.013624779,-0.20456247,-0.5074081,0.0007260195,-0.04578083,0.12523136,0.038461618,-0.06810823,0.038651258,0.21054697,0.002210982,0.1369734,-0.055584796,0.11475854,0.20040923,0.10572641,-0.066357605,-0.00041641932,0.1834845,-0.027299723,0.32410192,0.17119734,-0.09196134,0.042116728,0.16648899,0.057212394,0.681494,0.0015243376,0.20822328,0.05622774,0.30089042,-0.0037871934,0.050785493,-0.06808549,0.0047074207,0.077193365,-0.15353169,0.00097645575,0.028592227,-0.1270822,-0.1551596,-0.089111775,-0.08168594,0.022372426,-0.023879936,-0.57626706,0.022287127,-0.020135092,-0.07224356,-0.02094558,0.007500121,-0.1759857,0.04793599,-0.024438838,0.033908114,0.36282066,-0.014384525,0.117316835,0.11641564,-0.10736041,0.19804971,-0.0914505,0.17577334,0.021688173,-0.16091552,-0.015067102,-0.07478522,0.106695905,0.10587808,0.11613475,0.47231713,0.017299067,0.3411883,0.15620925,0.24665987,0.16063137,-0.19957736,0.088447526,-0.23762158,-0.25096565,-0.06862894,-0.06127393,-0.060869984,0.16691108,0.15654844,-0.21597196,-0.015566292,0.081876636,-0.11380889,0.23065333,0.08364017,0.95081484,-0.05601033,-0.18714647,0.25449738,-0.046370313,0.06545367,-0.16868849,-0.03169673,0.044536427,-0.062889695,-0.15554106,-0.055156026,0.107303575,0.27396464,-0.023324257,-0.20098591,0.049459156,0.3414559,0.21736467,-0.067709975,-0.12112115,-0.018749936,-0.23092228,0.39846107,0.016105676,-0.3949319,0.3506864,0.15137008,-0.103300266,0.11977248,0.1747858,-0.07113755,-0.18913206,-0.07886054,0.04959408,0.027882569,0.04902627,0.1608528,0.03878075,0.13473636,-0.104529,-0.09848818,-0.08439648,0.046714205,-0.17064975,0.04277402,-0.6187047,0.063764416,0.14309609,-0.19600242,-0.04671457,0.35637188,0.1343563,-0.33519176,0.179576,-0.0034749254,0.036588103,0.09194304,0.08778287,-0.06571833,0.024598196,-0.09703377,-0.0038120465,0.013882253,-0.0004881881,-0.004345428,-0.17332448,0.3829317,-0.08467651,-0.20449643,0.086642526,0.1087928,-0.09475981,0.044418965,0.06385497,-0.18569782,-0.10369606,-0.22074708,-0.14339001,0.018563699,0.096622005,-0.021507679,-0.116657,0.059977457,-0.21545868,0.059839614,0.087627314,-0.020703774,0.104552746,0.04547803,-0.027748808,-0.41203076,-0.011060901,-0.016890155,0.09453327,-0.110059336,0.052684456,-0.17885414,-0.09951351,0.0971568,-0.06970352,0.20158163,0.06026743,0.20696169,0.05717926,-0.09276558,-0.0008252247,-0.12335319,-0.0022631849,-0.016572546,-0.08689147,0.4732015,-0.011269697,-0.76036185,-0.19199029,0.19537252,-0.17773339,-0.18023704,0.020487344,0.08863218,0.106482364,-0.1473925,0.17459182,0.021681663,-0.07142016,-0.11752312,-0.09255952,-0.32335386,0.08674579,0.032551274,-0.24805751,0.021170061,-0.118062586,0.006609788,0.09535875,0.091049455,-0.11022873,0.123859175,-0.06307218,0.051152166,-0.19507194,-0.008230001,0.012798464,0.16596094,-0.011954812,0.38668406,-0.45217097,-0.18877746,-0.1486657,-0.095557384,0.119030826,-0.012040179,0.024041383,-0.03266329,-0.14039332,-0.49462458,-0.0038028168,0.0003314716,-0.06570324,-0.21515764,-0.112857185,-0.050188035,-0.041824654,-0.06514527,0.020396585,-0.15088041,0.045660295,-0.14674258,0.09009023,0.1270065,0.13301694,-0.15551946,-0.08089604,0.00599731,-0.21066627,-0.1228726,0.18779367,-0.26280475,-0.10194385,0.050783828,-0.108017795,0.51920176,-0.12343363,-0.05674702,0.14797847,-0.1714256,0.0527895,0.17627098,-0.87703,0.011482964,0.31489477,0.03679497,-0.029696349,-0.32017174,-0.06447504,0.009604328,-0.038118847,0.008095451,0.34899056,-0.054804437,-0.04120733,0.05255784,-0.07576362,-0.12385186,0.118224286,-0.18367815,-0.053092383,-0.12116428,0.13494654,0.20633823,-0.24641527,-0.40659237,-0.105868906,0.3429692,0.06848209,-0.017365018,0.2796293,-0.20671394,0.3802545,0.16806859,-0.07485685,-0.051970776,-0.08690612,0.038802616,-0.023596704,-0.13118778,0.10065562,-0.07653187,-0.072083645,0.48503777,0.04394661,0.009344077,-0.04880889,-0.43655345,-0.23076342,-0.17165875,-0.080715224,-0.05035523,-0.019785892,-0.12682827,-0.09976638,-0.027488055,-0.095232666,0.046449397,-0.0030151422,-0.035007857,0.0076164533,-0.017472465,-0.26249832,-0.16783547,0.005987411,0.11979639,0.04777784,-0.09338589,-0.37848628,-0.05819384,-0.204313,-0.25294772,-0.5449293,-0.079226695,-0.19318378,0.026854873,-0.043128543,0.4804417,0.10461914,-0.12072586,-0.2543877,0.5393986,0.10978858,-0.12402592,-0.1976861,0.044083327,0.09230953,-1.5591046,-0.015719747,0.021972649,0.55833644,-0.18972029,0.13137622,0.022634009,-0.10292989,-0.040652968,-0.008825905,0.23018038,-0.04299061,-0.0519132,-0.11230864,0.076051675,0.07525074,-0.17445873,-0.13717088,-0.04237184,-0.04108129,-0.18576933,0.20431142,-0.44730505,0.12313296,-0.05503573,0.39575294,0.09658774,0.01680028,-0.13205297,0.054288384,0.041914318,-0.008993095,0.029679071,-0.031562604,-0.043695573,-0.07230654,-0.051112305,-0.034424752,-0.6179117,0.00021612423,0.1484352,0.11665808,-0.012071083,0.014164311,-0.09795904,0.109600976,0.026033213,0.1815061,-0.08794649,-0.051995892,-0.5213535,-0.12236407,0.17680098,-0.17909774,-0.1074098,-0.007229796,0.013894967,-0.24331588,0.009278657,0.09304264,0.20040394,-0.13413301,0.15183564,-0.03538348,-0.08392966,-0.008454231,0.05768423,0.042901807,-0.10791698,0.090505674,0.25709796,0.17337658,0.14401747,0.06126603,0.10141858,0.15125537,-0.12736979,-0.12525646,-0.22704877,0.04694507,0.16192584,0.07513678,-0.12959987,-0.12459605,-0.043091472,0.17294109,-0.06711556,-0.23671135,0.0021623217,0.1661333,0.08699914,0.014278441,0.027931688,-0.09987039,-0.05875548,-0.017256005,-0.04404691,-0.01193828,-0.16104257,0.08977476,0.0708605,0.28891885,-0.07202097,-0.15896748,0.06753708,-0.099783905,-0.22116926,-0.0066829105,0.08453364,-0.0507943,-0.14910707,-0.060087997,0.11975936,0.16542594,-0.14338759,0.10484677,0.03276803,-0.038572636,-0.01238832,-0.008607541,0.016709503,0.052977215,-0.05155589,-0.011885712,-0.054521985,-0.024008427,-0.3148572,-0.024727356,0.08016611,-0.15581308,-0.108609356,0.111427166,0.19438142,-0.120364115,0.7420124,0.14715368,0.1269085,-0.084446914,-0.02686047,0.038155932,0.03793379,0.0140464045,-0.007923867,0.17573456,0.19408935,-0.051653307,0.03132984,0.05247041,0.03723084,0.020291748,-0.18964137,-0.0021408463,-0.10718399,0.009121472,-0.13813831,-0.23924465,0.17769258,0.23997328,-0.07574935,0.052224994,0.039102353,-0.036032647,-0.24009176,0.07810003,-0.2713897,0.14040683,-0.117577374,-0.042016223,0.36765712,-0.4354882,0.044779066,-0.02730409,-0.14453249,-0.17645213,0.08009457,0.017896252,0.0151107535,0.09100669,-0.038592935,0.23595981,-0.10858733,-0.27516803,-0.16491811,-0.626828,0.031212026,-0.078471586,-0.092010826,0.062901095,-0.27848506,-0.011023772,0.2818859,-0.14360926,0.12811172,0.037484683,-0.060708106,0.08585431,-0.11742526,-0.4026513,0.028773949,0.16346163,0.21026617,-0.24678804,0.14825785,-0.25271323,-0.07595803,0.075431466,-0.27728963,0.20173788,0.04916015,-0.047339767,-0.04506278,-0.04858797,-0.12925601,-1.0387857,-0.16020024,-0.27796248,-0.13231388,-0.22043927,-0.026440075,0.2510082,-0.4279628,0.029943401,0.003543533,0.08477101,-0.011081676,-0.69383985,-0.16553017,0.17159632,0.040274393,-0.071901634,0.0032275743,-0.2735649,0.03809022,0.10529326,0.19788589,-0.59261364,-0.010815267,-0.18678202,0.12342178,-0.4857658,0.07000335,-0.115252756,-0.3492422,-0.3111868,0.092401095,-0.068846345,-0.16817735,-0.13428411,-0.14978845,-0.21860288,-0.40930867,-0.06793206,-0.5873428,-0.08902125,0.08331775,0.035568126,-0.6621033,0.10701419,-0.082437605,-0.12628418,-0.1411146,-0.7584415,0.45140874,0.085887454,-0.71720445,-0.18268822,-0.29958498,-0.108624645,-0.20983389,0.10911414,-0.015183697,0.27352703,0.2696317,-0.061176196,-0.14920136,-0.034770347,-0.14919733,-0.25071764,0.10221777,-0.2208118,0.6164061,0.03491645,0.15744364,0.039341815,0.082293004,0.40853587,0.17362423,-0.2429421,0.52809554,0.049215224,-0.13623352,-0.42171028,-0.23151854,-0.0064070337,-0.06365699,0.054692443,-0.037246373,-0.1778595,0.45283473,0.15051968,0.06891622,-0.15795282,0.10089377,-0.09741813,0.096338235,0.115384616,0.14684936,-0.23975375,-0.47939152,-0.08171665,-0.12499767,0.07102978,0.046084724,0.103092946,0.0069836155,0.26138917,-0.11815958,-0.028100707,-0.031416748,-0.047391355,-0.052331436,-0.00021894599,0.40104958,-0.0019600256,0.13811706,0.13045628,-0.051943872,0.0010763647,0.16555649,-0.094067045,0.26634565,-0.06933611,-0.07143849,0.034087095,-0.036678858,-0.06424311,0.03943616,-0.13178039,0.09648728,-0.12089555,-0.120757304,0.035369974,0.016844844,-0.09649137,0.14852272,-0.10040299,-0.037288193,-0.0934078,0.029925397,0.15498649,-0.016765298,0.15265773,0.14533357,-0.009318175,0.013629333,0.52632576,-0.021633694,-0.3541633,-0.2081223,-0.3729206,-0.35051623,-0.18747522,-0.10153705,0.1630438,-0.041874386,0.42414272,-0.6517846,0.17466325,-0.26409373,-0.24566655,-0.06089617,-0.055779282,-0.12995173,0.13593377,0.015162502,-0.107048415,0.017771207,-0.12067901,0.17693987,0.18595806,-0.036208477,-0.094014816,0.09024512,0.021542234,0.46098506,0.17957196,0.011422481,0.048304494,-0.1440814,0.17338403,0.14375395,0.33055216,0.0035895796,0.11465758,-0.5649128,-0.037685636,0.11925402,-0.14779285,0.5781335,-0.051951893,-0.29035884,-0.046172835,-0.1685728,-0.35714477,-0.029582104,0.15118729,-0.29608768,-0.15640287,-0.2004961,0.15064791,-0.3772517,0.007969592,-0.10338526,-0.32012263,-0.20615992,0.054668397,-0.07168815,0.02542551,-0.31725305,-0.038805086,-0.017109929,0.21147612,0.0418424,-0.021148646,-0.078234784,-0.18098585,0.036138993,0.15854311,0.0012289536,-0.11819384,-0.006828444,0.109505236,-0.15954246,-0.045972504,-0.6009318,0.37723687,0.1765422,-0.052096087,-0.061652075,0.12269206,-0.05410798,-0.21530981,-0.11704142,0.12915674,0.10116054,-0.3960208,0.11762229,-0.24244028,0.019566068,-0.14583509,0.0759284,-0.22110899,0.11917128,-0.031808548,0.17305239,0.242726,-0.044948537,-0.19868188,-0.4366922,0.042923726,-0.1815261,0.10362958,0.16592954,-0.22768298,0.17283154,0.23696953,-0.13686565,-0.26748505,-0.003191676,0.15034488,-0.107916884,-0.13080998,0.040235113,0.050809372,0.086536236,0.09014152,-0.15548801,-0.077456795,-0.0023836743,-0.17502205,0.34750983,0.15519205,0.10110742,0.3683572,0.16220303,0.12255415,-0.24870902,-0.16147694,-0.11198774,-0.21970369,0.00017211934,-0.013195184,-0.2541322,-0.008897101,-0.12385541,-0.021139447,0.032389563,0.09739467,-0.28494617,-0.17019051,-0.0019738988,-0.43662193,-0.067775875,-0.23286149,0.19374065,0.15763676,0.09053214,-0.49951974,0.066932365,-0.18917894,-0.034464616,0.24157435,-0.32570705,-0.26102346,-0.18132149,-0.0059215706,0.033208564,0.038582947,-0.18548597,-0.20049857,0.03369649,0.28309768,-0.07921537,0.14793125,0.1805268,0.16318505,-0.11374532,0.15455945,0.16434051,-0.12519412,-0.05220931,-0.049995575,-0.15713938,0.024455536,-0.18114085,-0.13544905,-0.04850354,0.003516793,0.15896933,-0.21359281,0.0825608,0.10024703,0.059727605,-0.12153972,0.026509916,-0.018597294,-0.37016296,-0.0017791593,0.10397822,-0.07836265,-0.07206282,0.16280396,0.026084222,-0.29956388,0.03478238,-0.14733794,-0.0045118923,-0.07909607,0.013666475,0.016432388,0.32591227,0.050044306,-0.17592666,0.19761358,0.053611368,0.16923676,-0.13612533,-0.1247452,-0.006561526,0.042250276,0.052108202,-0.12922095,0.13252628,0.06214223,-0.15908149,0.10750471,0.08020697,-0.16277692,0.05159379,0.10453005,-0.1370576,-0.035725553,0.339801,-0.09731601,-0.041278005,0.11610654,0.034097705,0.11769229,0.07148999,-0.15354358,0.081933655,0.06131086,0.18892553,-0.12041834,0.09644666,0.10100193,0.073310375,0.029894197,-0.0038693885,-0.019344622,-0.16711983,0.17931414,0.08414189,0.09838259,-0.062406812,-0.015818562,-0.18667884,-0.018079627,0.05289257,0.16284284,-0.25723508,-0.32750255,0.17931052,0.23793302,0.07146436,-0.107670784,0.12802361,0.20500907,-0.23706718,-0.16029406,-0.07602896,0.1174846,0.173653,0.084818155,0.15457506,0.11624956,0.18520665,-0.1566179,0.123995095,0.032237176,0.02190391,-0.09595171,0.15071706,-0.0748195,-0.018879943,-0.1579735,-0.16267858,-0.14341724,-0.32923356,-0.0130585935,-0.11379637,-0.20567401,0.16158834,-0.07592107,0.055419303,-0.050579537,0.11422026,-0.036046423,0.08999851,0.10251534,-0.1460028,0.09860324,0.10673064,0.021882303,0.11042319,0.030073091,0.148547,0.018792331,0.06779948,0.06809324,0.14818212,0.025492199,-0.89896905,0.011641378,0.09458154,-0.07436601,-0.08522993,0.0058677867,-0.09697432,-0.37396392,-0.032318506,-0.09364676,-0.33916414,0.03461324,0.06765875,-0.15527713,0.460075,0.09421276,-0.014003516,0.2712057,-0.002232418,-0.24638304,-0.12856747,-0.66006505,-0.012395124,-0.13832645,0.044915453,0.3524166,-0.17284925,0.019073393,-0.119018406,-0.679183,0.15281202,0.6456002,0.051375628,-0.11288804,0.07364729,0.06391014,-0.13614523,0.37692234,-0.51270473,-0.07589055,-0.00028957985,0.24200736,0.31036183,-0.113331676,0.074269995,-0.044791855,0.3212736,-0.058184467,0.1525131,0.11228425,0.08252718,0.58450705,-0.037745673,0.07438518,-0.14499448,-0.07618457,0.10795059,-0.030754205,0.017683398,0.24239013,0.025331771,0.035903204,0.5779575,0.4665084,-0.07901986,0.20021798,0.37364444,-0.08142511,0.14268577,0.016252737,-0.16457449,0.1905586,-0.33271912,-0.091871396,0.0699843,-0.039807994,0.44041044,-0.11971731,-0.082371674,-0.100657724,-0.06837409,0.25829923,-0.09297141,-0.035023924,0.29308754,-0.77661794,0.083177336,0.02454609,-0.06184423,0.067299366,-0.03698274,-1.063243,0.08397522,0.09219066,-0.0121833505,-0.008218765,0.65904444,-0.12375968,-0.4564753,-0.114639446,0.87550735,-0.18569967,-0.23980826,-0.18646953,0.6165577,-0.008732654,-0.3138224,-0.2371817,0.066380545,0.7771133,0.022484979,-1.0776997,-0.10657132,0.0013918648,-0.12720542,0.0034771299,-0.6075591,-0.06667432,0.1730143,-0.083136305,-0.21595345,0.18600686,-0.11651874,-0.05454646,-0.19045605,0.021358643,-0.23137201,-0.13730744,0.18559675,0.06441241,-0.067696996,0.021104855,-0.033342976,-0.2966282,0.047574475,-0.057052992,0.1568843,-0.13887982,-0.11410645,-0.057632055,-0.017455308,0.039397974,-0.01770214,0.109776,-0.06449058,0.13760808,0.091024816,-0.28392082,-0.013091059,-0.17107312,0.0083746025,0.020154055,0.098291546,-0.08812896,0.08807129,-0.07186099,-0.012473317,0.22528209,-0.19179857,0.14364392,0.021553496,-0.1538904,-0.024681589,0.196708,-0.09756628,-0.26622254,-0.36632416,-0.10138323,0.022083228,-0.35266453,-0.109876,0.06467878,-0.12946738,0.04155402,0.065280415,0.09494868,0.0040413216,-0.23830238,0.15042622,0.10956479,-0.32947302,-0.05053812,0.1243309,0.092475675,0.06897361,0.18816441,-0.073973216,0.092791304,0.1812426,0.069227435,-0.083331354,-0.3476429,0.15864901,-0.20206869,-0.1858637,0.0058347466,0.15496328,0.07903111,-0.023576157,0.11941144,0.0777402,0.08173569,0.1909502,-0.20672004,0.13536918,-0.17037843,-0.09593438,0.10520328,-0.01586623,0.04040586,-0.10510652,-0.017270414,0.1160565,0.1895347,0.0055569676,0.19605681,0.158009,-0.08625226,0.06315982,-0.03131036,0.10395054,-0.064403795,0.09980628,0.26697528,0.12570965,-0.14930685,-0.011314444,-0.09856061,0.055448305,-0.19731268,-3.7840182e-05,0.07817472,-0.032126486,-0.36271566,0.2511132,-7.626961e-05,0.22833212,-0.1721645,-0.023027258,-0.19536486,0.21233453,0.14487633,-0.34277588,0.07697182,0.24344766,0.09122589,-0.12373286,-0.04230123,0.10232884,0.02234641,-0.13227956,0.08306882,0.07724755,-0.21723473,0.024376625,-0.31310257,-0.32044768,-0.030204711,0.3256981,0.04909583,0.36668092,-0.00806507,0.24663492,0.08130892,-0.004216067,-0.019392975,-0.1804156,0.02019653,0.19573222,0.20053032,-0.50508165,0.10895052,0.042151086,-0.47224787,-0.1710559,-0.37171304,-0.13788617,0.15132207,0.048407666,-0.18313745,0.081043705,-0.12661585,0.23804694,-0.30058795,-0.29214534,-0.55499375,-0.15838385,-0.3933568,0.022967653,0.043470863,-0.06276541,-0.119568616,-0.10557705,-0.21841414,-0.19192652,0.28429815,-0.26831886,-0.5542811,-0.1931164,0.091312446,0.05937142,0.07754702,-0.30096647,-0.41355443,-0.4279736,-0.09150975,0.021086195,-0.31581223,0.014246276,0.295286,0.15634985,-0.19850937,-0.21172185,-0.43218628,0.048088524,-0.117256254,0.06508144,0.39141932,-0.13157502,-0.039167766,-0.27123216,-0.3618537,0.17053382,-0.47504908,0.01457623,0.15876798,-0.26209274,0.015695203,-0.08405162,0.08078253,0.019037107,-0.51497525,-0.24813525,0.14846578,0.27410096,-0.13187608,0.020342873,0.3234072,0.3628086,0.3036471,-0.06451269,-2.0445945,-0.5135937,0.29023463,0.16303186,-0.18153359,-0.8669554,-0.09418141,-0.21154572,-0.0958481,-0.22747684,-0.32863596,-0.007721411,0.03779804,-0.15433632,-0.02624554,-0.37576285,0.30586118,-0.46060154,-8.070504e-05,-0.23232834,0.08163555,-0.29903203,0.15418264,0.32268053,-0.28068873,0.23838493,-0.20025502,-0.4272273,0.31293553,-1.5675982,-0.09189142,-0.03180988,-0.19791777,-0.6926924,-0.115370646,-0.033745233,-0.022886118,-0.034698926,0.19923867,-0.36151338,-0.01858712,-0.34805086,-0.6912612,-0.75339186,-0.20261928,0.19994393,0.18376641,0.01138644,-0.05173926,0.13036089,0.08987448,-0.013085625,0.12915315,0.011908726,-0.11894378,-0.52510685,-0.094828315,-0.24542947,-0.01993335,0.43000877,-0.04413864,-0.12759662,-0.05555067,-0.31458783,0.14032853,-0.13731739,-0.126984,-0.31880856,0.29684156,0.07624309,-0.15411527,0.12926027,0.2933906,-0.2102157,-0.10277878,0.17057866,-0.03867639,0.12236058,0.4336258,0.061900593,-0.47651964,-1.1061586,0.19394803,0.12733515,-0.1472925,-0.08244742,-0.16621308,0.0139915915,0.120723374,0.29695404,-0.13159107,0.16660483,0.06720786,-0.076535605,0.018925112,0.05797041,-0.032994006,0.12465004,-0.19914654,-0.5318928,-0.33237103,-0.173655,-0.022315122,0.34170768,-0.19383907,0.07853823,-0.06738968,-0.14251706,-0.6466163,-0.53149945,0.04000861,-0.05966626,0.052455414,0.022301752,-0.6023049,-0.030657582,0.03914681,-0.060032517,-0.06480633,0.05651354,0.17817847,-0.04250605,-0.22141337,0.08970943,0.19513305,0.12251304,-0.41153523,-0.3724424,-0.18142472,0.069608524,0.23108688,-0.05165531,0.037123132,-0.011218784,0.039498575,-0.030609408,0.046441503,0.013678789,-0.09010348,0.055856846,0.11170675,0.016205749,-0.08950074,0.028561918,-0.101156846,-0.14210922,-0.07231746,0.079609506,-0.44178882,-0.13670196,0.23530799,-0.023248602,0.29835743,0.10888495,0.118145265,-0.4215158,0.10806769,-0.08092335,0.0905501,0.063278854,0.0042356234,0.3326604,-0.0879454,-0.054058798,-0.032632455,-0.3787269,0.08292573,-0.1983585,-0.047744323,-0.11725724,-0.014195326,-0.4124327,0.036925286,0.05760627,0.18034704,0.1062676,0.06404976,-0.0011281013,0.23021269,-0.036794294,-0.22031328,0.006067749,0.06802496,0.090496734,0.10794754,-0.0005304241,-0.16039686,-0.12409956,0.270418,-0.22915445,-0.21296036,-0.14392602,-0.13745433,0.13538744,-0.48599365,-0.18766984,-0.013794284,0.18786053,-0.053107716,0.5110149,-0.33596915,-0.035768736,-0.019645846,0.05460134,0.5232993,0.17334706,0.16960216,0.031224646,0.0018782879,-0.043571867,0.0855632,-0.124208964,-0.09656296,-0.17039408,0.21832328,-0.12842959,0.20322235,-0.6746728,-0.21500555,-0.19079122,-0.081048176,0.118610166,-0.065510444,0.29529935,0.011399777,-0.124716945,-0.099310346,-0.010777308,0.10496555,0.21927452,-0.1709079,-0.08254443,0.116235085,-0.04673802,-0.24898513,-0.014426759,-0.044935405,-0.10356938,0.007859054,-0.6624298,-0.014101971,0.0351612,-0.18093279,0.029393617,0.023893649,-0.28913644,-0.026231907,-0.40477908,-0.16524099,0.15847257,-0.19837943,0.116988905,0.00026420434,0.0640961,-0.04877805,-0.53030115,0.37204316,0.13928469,0.043134507,0.15895545,0.051469777,0.0655899,-0.11664985,-0.044652805,0.1406205,-0.10114695,-0.39386165,0.013343901,0.22007926,-0.011618228,-0.05806961,0.04714835,0.1642175,0.017384142,0.112381205,-0.3962621,-0.036814425,0.29823068,0.27203244,0.043599542,-0.17304716,0.17326324,-0.36035267,0.37652093,0.18451542,-0.15869096,-0.3224547,0.15640572,0.06850609,-0.25665426,-0.070728235,0.09566045,0.06972486,-0.11293971,0.1402467,-0.33211988,0.08260476,0.086835675,0.09458618,0.023795214,0.085171305,-0.01181163,0.20397955,-0.17736796,-0.020579956,0.026416712,-0.21201073,-0.080994084,-0.43137175,-0.22935908,0.030153535,-0.219696,-0.00077481597,0.08349744,-0.0021591713,-0.103875235,0.124700904,-0.0105551835,-0.16574961,0.012213786,0.015398669,0.0910342,-0.10361617,-0.05467019,0.058464434,0.072557695,-0.009727892,-0.6847841,-1.1577424,0.19406846,0.08334256,-0.18455353,0.011473574,-0.112261154,0.069571204,0.13474162,-0.006316949,0.19325037,0.4874986,0.13034259,0.05812162,0.0060098656,0.17981921,0.07649714,-0.022569701,-0.0953796,-0.11408178,-0.13966988,0.1980971,-0.12228243,0.2632071,-0.20029603,0.25693312,-0.05842,0.049574263,0.024104523,0.3121363,0.2073658,0.15921421,-0.022046637,0.19972365,0.19247003,-0.0044475817,0.014833728,-0.114146024,0.10650124,0.14125901,0.21229495,0.055279125,-0.121307306,-0.059343204,0.060718417,0.03349767,-0.044953153,-0.024100294,-0.18898213,-0.07965522,0.11580395,0.007943215,0.05277588,0.026513234,0.16002978,-0.16122611,-0.16464143,-0.078012705,0.00552913,0.13036512,0.14655675,-0.17681393,-0.15343429,-0.5533427,0.17893441,0.074321926,0.07007312,0.29242432,-0.023918582,0.23404194,0.054915827,-0.034040313,-0.041329842,0.4197784,0.030418718,-0.04370235,0.009659349,-0.011264202,0.6698387,0.16787584,-0.06729355,0.27586594,-0.00068289763,0.26737458,0.11898077,-0.13440284,0.18861146,0.027691593,0.27313107,0.034722976,0.08867178,-0.1039098,-0.13894174,-0.013011189,-0.15665466,0.024309479,0.04839954,0.043871544,0.07293773,0.11833491,-0.06573326,-0.11800935,-0.054888118,0.0046761166,0.057462435,-0.05576545,0.03651507,-0.004955931,0.10179561,0.044432014,0.028333204,0.07367486,-0.010878326,-0.310164,-0.03292906,-0.07430781,-0.12402741,-0.07963755,-0.0035821314,0.14616708,-0.34434235,0.0043141856,0.107879974,-0.10384913,-0.47924992,0.041596614,0.07853918,0.15647836,-0.03968315,0.043250192,-0.16868886,0.003961976,-0.079968505,-0.04962033,0.053771358,0.0067440807,0.1182253,-0.45111865,0.34709585,0.30509385,-0.23938991,0.12605634,-0.24023989,0.1492186,-0.07890849,0.20144977,-0.14688578,0.121399626,-0.15997852,-0.008883485,-0.23506187,0.18744962,-0.039521962,0.062211506,0.02472183,-0.007049606,-0.02120459,-0.07853476,0.0101154465,0.16970749,-0.16329068,0.12679438,0.19032824,0.13555427,-0.005805376,-0.17735204,-0.1649824,0.24667075,-0.063325286,0.25622568,0.05710331,-0.033375524,-0.22786225,0.190017,0.22565812,0.039604716,-0.034696814,-0.5069078,0.047169693,-0.007067648,0.18866326,0.05956566,-0.010066151,-0.14092925,-0.14488068,-0.062720664,-0.0744418,-0.037247762,0.017675051,0.2099646,0.31366616,-0.0017099351,-0.04172416,-0.07176854,-0.10894779,0.105761945,0.14227957,0.16857365,-0.01848419,-0.06796085,0.15495113,0.18274608,-0.122686535,-0.0776801,0.02437248,0.07647406,-0.059513822,-0.05449479,0.33451772,0.025554445,0.21700096,-0.16358379,0.2518358,0.015568124,0.022786044,-0.0025666931,-0.18019198,-0.13724753,0.091259815,-0.037539974,-0.10763947,-0.27854905,0.30779785,0.008953845,0.02730967,-0.12233903,0.12089961,-0.3352889,-0.64189553,-0.17993166,-0.14214824,0.071616456,0.043454323,-0.24935807,0.02314636,0.07129818,-0.085160434,-0.15217628,0.0783394,-0.092727445,0.09643226,-0.12493932,-0.20238963,-0.0854605,0.09918713,-0.60265076,-0.06816894,-0.62066334,0.054946676,0.07703922,0.039264526,-0.056079123,-0.25354505,-0.033331756,-0.0075752293,-0.12890328,-0.24703284,-0.053115338,0.3441875,0.02718876,-0.085448064,0.021104092,-0.17519946,-0.31984213,-0.055598773,-0.29150727,-0.23315997,0.060162514,-0.07725411,-0.10287974,0.18235968,0.10719589,0.03838041,0.095028974,-0.19156514,-0.034295175,-0.071518734,-0.26449984,-0.13888459,-0.24078238,0.024208011,0.14782023,0.06696463,-0.14875084,-0.36457255,0.005733823,-0.10484322,0.023370543,0.011003353,0.06391007,0.13490371,-0.014745272,0.041881274,0.098520756,-0.2039706,0.029912135,0.18242948,0.08344471,0.029271716,-0.10671506,0.04236507,-0.048750203,-0.0704904,-0.20123264,-0.043949924,-0.17033313,0.050027635,-0.040973328,-0.049807034,0.040692,0.03695776,0.5468213,-0.17405708,-0.20003855,0.039275583,0.025971789,0.06776788,0.544835,0.05295525,-0.254883,0.08834278,0.00030696526,-0.038093228,-0.08198832,0.095515855,0.06012305,-0.25153497,-0.21997502,-0.14213811,0.015104804,-0.0773147,-0.1364115,-0.079813376,0.01441754,-0.25708443,0.064202175,0.06593757,-0.04213109,-0.07741339,0.2370611,-0.4241298,0.034094103,0.21548294,0.03374747,0.18594545,0.011322622,-0.13827285,-0.06919224,-0.059384532,-0.43171868,-0.33693123,-0.01352472,-0.02254525,0.009120194,0.1483195,0.029014483,0.3710608,0.11372452,-0.016947795,0.082880825,0.0043730214,-0.10439357,0.049454883,-0.4949878,-0.048988137,-0.45046398,-0.16709934,-0.03544705,-0.2755136,-0.045472883,0.07889146,0.011015591,0.007915642,0.07864569,0.08035843,0.14339356,-0.039666113,-0.12192127,-0.06272974,-0.0038310706,-0.040933516,-0.006752364,0.3179842,0.04067651,-0.20030244,-1.3418934,0.024130685,-0.06515499,-0.15797666,0.07951817,0.007775046,0.062146,0.022032049,-0.038702264,-0.11744191,0.027418563,0.025472065,0.22236243,0.015638279,0.014871641,-0.20268711,0.04640056,-0.13824888,-0.093871444,0.001313259,-0.1587264,-0.001018577,-0.1456237,-0.34757853,0.06626938,0.06174703,0.080972865,0.08725694,-0.0037832083,0.07955451,0.3317518,0.062035896,-0.042459115,0.053276204,-0.059419326,-0.0002657985,0.035058677,-0.07531647,0.115031786,0.32780182,0.021005187,-0.019476406,0.04604817,0.44256467,0.05349596,-0.11287344,0.066458784,-0.097322136,0.09504782,0.032319665,0.0124824,-0.0016270373,-0.12917674,0.024194878,-0.09628259,0.015610686,0.14256363,-0.07527818,0.22190729,-0.05702584,0.639256,0.10341925,-0.23462212,-0.034600347,0.021027753,0.12802643,-0.07322703,-0.0023465152,-0.033455525,-0.011294409,-0.12708403,0.034301538,0.08760722,-0.0059710583,-0.03423906,-0.14965414,0.14264598,0.9106736,0.035079516,0.019783517,0.008365013,0.06682425,-0.04144042,0.07341255,0.04770891,0.0019083408,0.1293528,-0.21944031,0.041611895,0.017864697,-0.03492134,0.036314905,0.031241082,0.103775576,-0.00498434,0.0717697,-0.017017627,0.07815801,-0.10704822,0.24393444,-0.04717172,-0.3041776,-0.011510417,-0.015044671,-0.018376984,-0.11494775,-0.79172456,-0.1631946,-0.039720934,0.040624987,0.06560821,0.13145173,0.22176436,-0.029520188,0.20760617,-0.04323683,-0.14084086,0.0021177584,-0.23955691,-0.16072778,-0.0024888918,0.0574802,0.062347014,0.0034698138,-0.07685201,-0.111481056,0.078369774,-0.08973696,0.06868379,-0.07728385,0.032190364,0.07441644,0.030073043,-0.22287925,-0.09058311,0.09043693,0.07237394,-0.60336894,0.07343739,0.12643081,0.060611013,-0.003721503,-0.03645046,0.22223988,-0.10219604,0.11799038,-0.21610819,0.031191684,0.044200636,0.16754529,0.00016077585,-0.48693243,-0.05027567,0.01659294,0.06239713,0.032382328,0.114212744,-0.00048009044,0.026669139,-0.08937906,-0.004486557,-0.019879447,-0.14695595,0.020534528,-0.1517646,-0.20119108,-0.16817497,-0.022148188,-0.22222947,-0.053125937,-0.123610996,0.3422402,-0.12267822,-0.02970559,0.0038514908,-0.08318917,-0.01253696,0.024946516,-0.034138512,-0.0618329,0.11340501,-0.02117086,-0.030208332,0.027214292,0.17453806,0.13263588,0.12724808,0.01761632,0.19800913,-0.12741674,-0.26785725,-0.01628204,0.13832152,0.11734121,0.07816394,-0.10741411,-0.10796532,-0.14833242,-0.036441226,-0.10343907,0.109528534,0.18496263,0.274874,0.031264942,-0.15102214,0.6549836,-0.16068101,0.043744687,0.09945884,-0.022819303,-0.019152893,0.07683159,-0.05659575,-0.25040224,0.028820833,-0.2410284,0.18656723,-0.16384166,0.16722931,-0.16784038,0.021655818,-0.14106625,-0.062002297,0.060251802,-0.045079812,-0.013032871,0.15148088,-0.0002821971,0.1119633,-0.055582743,0.51112103,0.06483338,-0.16997002,0.105116665,0.14611149,-0.1559746,-0.17445718,0.0038238585,-0.045887616,-0.08764519,-0.06401907,0.29024765,0.018160967,0.29877886,-0.26781702,-0.23902528,0.047188185,-0.1077643,-0.13003762,-0.13637868,-0.07052235,0.30585423,0.31658104,0.03146517,-0.08566193,0.02071568,-0.13946469,-0.3407687,0.045884456,0.30915827,-0.35688782,-0.29434827,-0.33225024,-0.018509582,0.050276615,0.08208317,0.09357559,0.027190518,0.085856386,0.064458415,0.05776753,-0.0635517,0.17163782,0.008361964,0.00040349772,-0.0050590835,0.08422411,-0.07356506,0.0079842545,0.12583876,-0.01693459,0.014256227,-0.12472943,-0.30481443,0.18696007,0.22473338,-0.12376394,-0.11140046,0.2791348,-0.087481506,-0.124957405,-0.09341242,-0.13704127,-0.41229537,0.056804903,-0.16598533,0.13646628,-0.10534383,-0.29488283,0.1158341,-0.13345326,0.05173444,0.0027433874,-0.08289707,0.21541639,-0.05686834,-0.0058787214,0.09309139,0.01899097,-0.040704355,-0.20529364,-0.050763298,0.434765,-0.12282368,0.17928648,0.22016262,0.3444504,0.2519974,-0.34633586,-0.111937046,-0.12679134,-0.0032361124,0.022692107,-0.17527619,0.17716773,0.015699117,-0.034163307,0.11684006,0.15149261,-0.13108924,-0.07581596,-0.3995435,0.09087395,-0.058867455,0.22869405,0.026665373,-0.14421289,0.01633816,0.058396846,-0.45857158,0.05805056,-0.16331767,-0.053918045,0.19801366,0.15950492,-0.34373304,-0.020844745,-0.020455563,0.176475,0.074459344,0.03758875,0.16243859,-0.2738448,0.14262497,0.23403272,-0.26477888,-0.032392684,-0.03665017,0.2972222,-0.13107713,0.07150645,0.197727,0.16195613,-0.21503516,-0.2570371,-0.016271872,-0.037820294,0.06728311,0.16051511,-0.07020829,-0.006071782,0.27796885,-0.5140506,-0.07789757,0.13957134,0.13654895,0.1268898,0.073656686,-0.29163617,0.083051,0.20257717,-0.14256097,-0.09936595,-0.12784387,0.24206999,0.11032136,-0.48542595,-0.16933563,0.0036367541,-0.0924766,0.013709545,-0.0149571635,0.18042296,0.18268245,0.0131625,-0.10338082,-0.1419819,0.122565016,-0.21686287,-0.253854,-0.07478296,0.051588435,-0.13935235,-0.17279446,0.089337595,0.027271364,-0.07160308,0.0146419415,-0.22519454,-0.13774833,-0.09108274,0.014009924,0.11194551,0.12136395,-0.11273737,0.22049883,-0.006255016,-0.1243341,0.10315375,0.013525476,-0.23136114,0.41935965,-0.16305777,-0.08371268,0.10750594,-0.12988609,-0.17332387,0.02760295,0.12933578,-0.15535824,-0.096727245,-0.09018084,-0.048844192,0.14388084,-0.10804317,-0.31896162,-0.48684698,-0.010228476,-0.41846257,0.066830285,-0.2022328,-0.3106158,-0.02762283,0.17730348,0.037401777,0.16682063,-0.12396769,0.10731674,-0.2006359,-0.21693285,-0.05878771,-0.18626963,0.12138311,0.32810655,0.020174423,0.003900093,-0.28979132,-0.28506905,-0.040306766,-0.107998885,0.20702071,-0.3388109,0.16373429,-0.25103527,0.013437422,-0.13910963,-0.1990078,0.036685154,0.07504043,0.007880262,0.00047061336,0.0724988,-0.05498536,-0.09665395,-0.18096258,0.11375214,-0.0024472573,0.06526461,-0.0905548,0.27719194,-0.06558902,-0.03313666,0.018738195,0.022976637,-0.10563081,-0.01812623,-0.1675736,-0.049514007,-0.2278484,0.15904261,-0.43244654,-0.051906653,-0.5713911,-0.5394702,-0.035238653,0.11343987,-0.09093521,-0.96854335,0.06996899,0.31200892,0.1133977,0.20354968,-0.027857354,-0.06157274,0.09075079,-0.29108426,-0.01329203,-0.179406,-0.08928051,0.10565073,-0.23135632,-0.029848123,0.09644756,0.12383304,-0.46357307,-0.44392276,-0.12069412,-0.14629038,-0.027891112,0.028024418,0.075407185,-0.32188815,0.054203052,-0.5384049,-0.29539356,0.1313415,-0.10189208,0.176529,0.09009583,0.063651465,-0.71438676,0.03281215,0.094234355,0.3899095,-0.04107803,-0.3498808,0.068544,0.07433102,-0.22154126,0.40730888,0.15337706,0.09706745,0.27844858,0.03685749,-0.0976546,0.06496597,-0.054484017,-0.10887453,0.20981635,0.11323737,-0.09181192,0.19695503,-0.038939454,-0.6508942,-0.01701357,0.5548072,-0.022060715,0.031095775,-0.3335032,0.15040514,0.0010215576,-0.5485777,-0.07308067,-0.27782956,0.08546645,0.056710973,-0.34345126,0.102235034,-0.018109543,-0.02276187,0.2012822,0.062380232,-0.37811887,-0.41746137,-0.3338752,0.64183384,-0.28787372,0.041303553,-0.09883372,0.04995881,0.057297383,-0.3414073,0.030973295,-0.2185007,-0.06504839,-0.17317164,-0.09189452,0.16858155,-0.09800139,1.1013632,0.108721286,-0.08923304,-0.18010515,0.11861268,-0.02011852,0.17583376,0.0519948,-0.86739177,0.274959,-0.03953153,0.034286663,-0.043968286,-0.070859134,-0.161924,-0.04122664,0.07917133,0.060940523,0.06623361,-0.18640426,-0.10328149,-0.022286203,0.2189934,-0.0069076633,-0.026825929,-0.23396072,0.017323129,-0.24990492,0.08439137,-0.12712751,-0.08919621,0.05635358,-0.058893517,-0.10899868,-0.06928275,-0.069208264,-0.30613858,0.016352717,-0.2505941,-0.31634077,-0.2625913,0.060531568,0.025132561,0.12928222,0.028854668,0.10634358,-0.06803137,-0.10634749,0.10014924,-0.01977776,0.15396036,0.045635827,-0.23926814,0.05392368,0.15153839,-0.08524969,-0.1257465,-0.004594445,0.10463211,0.07628949,-0.22016506,0.10374446,0.11309927,0.09699464,-0.026518034,0.25757948,-0.096065156,-0.13784824,0.20055388,-0.036707573,0.041413765,0.043594617,0.037558507,-0.025197688,-0.05713487,0.027182749,-0.08000368,-0.06631422,-0.07814062,-0.08242882,0.0026192444,-0.10435757,-0.2006956,0.090347975,-0.030076515,-0.14093773,-0.23164728,-0.07203732,-0.10237874,-0.13616368,0.0018545719,0.01149862,-0.0154317655,-0.09730486,-0.05911217,-0.099722914,-0.036050007,-0.1306622,0.24961211,0.00770903,-0.091027,0.05536728,-0.058217317,-0.29028758,0.24036941,-0.13496087,0.23786014,-0.10203459,-0.0717455,0.03243822,-0.018073153,-0.25263107,-0.063482106,-0.13778527,-0.3583081,-0.012734365,-0.18979318,0.090780765,0.026705123,-0.015262391,0.04073811,-0.19727503,0.061854236,0.029141156,-0.05636853,0.06938741,0.11052157,-0.19614588,-0.2515686,0.071174,-0.09286294,-0.045955807,-0.06627778,0.04992806,0.077156015,0.1205115,-0.0049368134,0.016942121,0.2595726,-0.123002484,-0.054797925,0.05630417,-0.36473358,0.116214745,-0.20887375,-0.0260198,-0.057051804,-0.011876561,-0.07436689,0.14346015,-0.026089644,0.027998548,-0.016715113,0.24111138,-0.07961702,-0.07511543,0.015822083,0.09678646,-0.12304433,-0.052313425,0.014510932,0.082659796,0.026676951,0.16385548,0.048288018,-0.06678953,-0.11030889,0.024601804,0.028545106,-0.5053117,-0.01841953,0.06269879,0.015993197,-0.0005619375,0.15803678,-0.03054277,0.04479244,0.05120393,-0.04460141,-0.082401566,0.016557302,-0.050065245,-0.13282818,-0.025539715,-0.038188927,0.6433667,0.0081895515,0.0016657419,-0.011158538,0.18695799,0.021125752,-0.2594825,0.013084969,0.1678826,-0.049581736,0.08696831,-0.16612086,0.063501224,0.18818815,-0.00986512,0.015675597,0.031818252,0.027589008,-0.2348585,-0.059846964,0.038184967,-0.029235218,0.15918356,0.08789487,-0.013769112,0.7469483,0.20026422,0.042368334,-0.074613795,-0.041595116,-0.20823097,0.038153652,0.10997429,0.11565034,0.13390687,-0.044048797,0.021974022,0.0834022,-0.017135061,0.08617716,0.07713096,-0.18976761,-0.35926694,0.083096996,0.1828443,-0.05416684,0.08796923,0.047705833,0.43641964,-0.059642877,-0.058824945,-0.2101794,0.18777923,0.048360284,0.0051867794,0.045830373,-0.07636064,0.8111186,0.091480106,-0.0992014,0.07201743,0.023614898,0.07141914,0.012612035,-0.2427863,-0.0024966071,0.119708434,-0.1713171,0.03359353,-0.21346724,0.13892241,0.022521852,0.24097636,-0.28003615,0.04432726,0.051110752,0.0030091049,0.62370896,-0.17300357,0.07959749,0.0052388627,-0.041289512,0.045655817,-0.039238412,-0.029073846,-0.0028411327,-0.028206108,0.028241519,0.09498065,0.08791229,-0.07811627,0.09324917,-0.03924805,-0.047993045,-0.35964984,-0.22084463,0.14845966,-0.2594435,-0.1215823,-0.18314332,0.06330925,-0.1318307,-0.29274067,0.0662211,0.027281245,-0.14651504,-0.36778998,-0.09377333,0.29447818,0.20192386,0.17544217,0.077825665,0.018391812,-0.21202606,-0.024754133,0.023330767,0.057094,0.111844026,-0.0086523965,-0.14802931,-0.3132455,-0.21422242,-0.04572213,-0.171074,0.05290345,0.013287723,0.047260273,-0.00980797,0.38600308,0.005587142,0.029132474,-0.07649621,-0.12177287,0.05710909,-0.087376,-0.1090627,-0.047378078,0.0067639747,-0.22405885,0.026612878,0.01064662,-0.6939533,0.09448071,-0.043276947,-0.051992625,0.06770874,-0.35454246,-0.10614078,0.055364,-0.08938568,-0.015010403,-0.06671445,0.079209,0.32417846,-0.33061025,0.065494485,0.084996976,-0.20505619,-0.29470363,-0.13049632,0.0057741543,-0.023117159,-0.13030913,0.10988457,0.088096805,-0.051682513,-0.28360364,0.020119736,0.052726194,-0.023113007,-0.39480588,-0.07041334,0.04062536,-0.07062709,-0.37555388,-0.10705237,0.24822336,-0.031015866,-0.13753788,-0.03400786,-0.26301232,-0.16311996,-0.042229313,0.09031898,0.03148435,0.30422536,0.059133664,-0.09603668,0.12604229,0.07092663,-0.077783495,-0.009674282,-0.024270466,0.14980702,-0.06677575,0.09200565,-0.037449904,-0.09270324,-0.16509186,-0.41339377,-0.4920756,0.095941365,0.13395917,-0.049692586,0.09128184,0.15488262,-0.4068188,-0.11908361,-0.06483767,0.047134377,0.13289094,-0.0709876,-0.016293418,-0.23583134,-0.070919,0.085523084,-0.082543395,-0.010008766,0.051498573,-0.043460604,-0.1790894,0.10769731,-0.10830601,0.23599632,0.07450671,0.24583073,-0.1531922,0.28821096,0.089785084,-0.17349458,0.05910681,0.0005687122,-0.10343335,0.05472115,-0.00411463,-0.10692694,-0.06462494,-0.08591324,0.088733844,-0.00643941,-0.070262566,-0.10599247,0.28493416,-0.036454525,-0.15359221,-0.056659225,0.13896586,0.25961468,-0.11811275,-0.2607164,-0.12075852,-0.19084987,0.04765244,-0.1535438,0.10430672,-0.05411271,-0.055031225,-0.26787165,-0.21836127,-0.58550745,0.201975,0.12176648,-0.1364802,-0.24681415,-0.040015772,0.008715503,0.11938581,0.13160098,0.10737778,-0.092346676,0.06661365,0.007380043,0.1217117,0.012864191,0.13108069,-0.16189846,-0.13404593,-0.018658513,-0.057845328,0.19701071,-0.051533416,-0.12829131,0.37975916,-0.06869339,0.109929964,-0.05558466,0.0040174494,0.106917486,0.137117,0.09086896,0.18189211,0.28338617,0.10905422,-0.1169906,0.021984778,0.14042921,0.34008652,-0.1365636,-0.101987526,-0.06839654,0.22983332,0.2082679,0.13138886,0.22760211,-0.21878204,-0.022914682,-0.12997374,-0.95979595,0.22108388,0.119324245,0.019467663,-0.05977482,-0.24858147,0.005676479,-0.08417552,-0.1404931,-0.12930854,-0.068224765,0.2296235,0.106808916,-0.010282272,0.02670579,0.14951901,-0.15140203,-0.012257448,-0.36835998,0.10120498,-0.3304706,0.21656814,0.08413709,-0.18799008,0.11740362,-0.23927037,-0.11459727,0.0882296,0.11028221,-0.26867783,0.15882118,0.025168817,0.4165361,-0.16802342,-0.10861314,-0.45357212,0.11011051,0.09616369,-0.08489288,0.01925361,0.06457123,0.06771146,0.037797336,-0.056879386,-0.052527536,0.18466987,-0.18376224,0.031385545,0.06663461,0.22695279,-0.1887656,0.04942908,-0.073126405,-0.074331515,0.00061726535,0.03065691,-0.2015981,-0.0093007805,0.0050589885,-0.03723221,-0.35127786,-0.41155645,0.12015194,0.3812754,-0.02960515,-0.3961735,-0.6215658,0.2165621,0.018953761,0.03284865,0.0073077083,-0.34952846,0.037413426,-0.014173477,-0.2602154,0.17634146,0.1355029,-0.1509739,-0.04403426,-0.026992595,0.14805108,-0.38164848,-0.26486528,-0.7102897,0.22857425,-0.07910013,-0.10818119,0.08520836,-0.09971402,0.27278695,0.098331116,0.2609436,-0.30817974,0.11530859,0.22731398,-0.015910847,0.01026189,-0.07353803,0.030460076,-0.27706403,-0.015166162,0.02419757,-0.31154987,-0.06818964,-0.19139446,0.2657405,-0.04644839,-0.023815423,0.09720953,0.018027972,-0.058701456,0.23801193,0.037874393,-0.27851483,0.24175514,-0.082962535,-0.39315563,0.0019123026,-0.15881865,0.11880914,0.12191746,0.11633718,-0.061020344,0.030848078,0.012381326,-0.115632914,-0.11471424,-0.11378103,-0.063964956,-0.16718014,0.032391112,-0.07351701,0.10451537,-0.25702733,-0.1771131,0.010344344,-0.17379577,-0.19757591,-0.14205572,0.22931176,0.21224034,0.11328351,-0.38352332,0.056600574,0.09063898,0.10581372,0.16919744,0.11307883,-1.1995047,-0.03645721,0.041078832,-0.12482689,0.059598945,0.39878154,-0.22630106,0.15250905,-0.049248055,0.35691556,-0.18984711,0.038075786,0.08754625,-0.08908344,-0.1800322,-0.009810557,0.16497175,-0.07725341,0.010579411,-0.080083236,-0.08773088,-0.08235998,0.1568998,-0.17160003,0.026143208,0.04451372,0.18710905,-0.21530499,-0.0994617,-0.05683525,0.113861375,-0.29348713,-0.9069342,0.12185848,-0.3099021,-0.23701784,-0.004599327,-0.09742434,-0.033560794,0.012986336,-0.14829414,-0.04469923,-0.070071705,-0.06365024,0.040986247,0.04991626,-0.008270456,-0.016871242,-0.1885544,0.03197716,-0.11553237,-0.40891746,-0.072239794,0.1667191,0.35374758,0.0029930684,0.05241218,-0.065207206,0.023125231,0.11109747,-0.0920335,0.040374726,-0.10701656,-0.35802716,0.044616368,0.008870459,0.092832446,0.041673195,-0.030330172,-0.2536754,-0.011436135,-0.14856637,0.023118097,-0.61522895,0.021506164,-0.072044946,-0.05190662,0.024188077,0.060860563,-0.14754775,-0.022349706,0.12356503,-0.0038343933,0.02114023,-0.12128263,-0.55067414,0.033173915,0.12428431,0.117757685,-0.12751155,-0.06880518,-0.09027483,-0.06575375,-0.03593596,0.047858566,0.04967774,0.041350238,-0.066361606,0.08298957,0.1465011,-0.1711473,-0.07024463,0.029083282,0.34109873,-0.09755864,0.08441302,-0.05401748,0.046035636,0.03727579,-0.15070778,-0.06724976,-0.29420054,-0.12341231,-0.4362976,0.14407845,0.002423871,-0.13488916,0.065388426,-0.13748428,0.052389793,-0.031604227,-0.0008571555,-0.14428246,0.005451291,0.06929262,-0.155129,0.18807691,0.1928965,-0.17807905,0.07910416,-0.07324569,-0.049285386,-0.14321491,-0.15685464,0.078659035,-0.12559423,0.11444507,0.10195804,0.21524446,0.014583512,-0.13269609,-0.071705855,-0.14505897,-0.01886376,-0.2727106,-0.188539,0.11560158,-0.25872207,-0.05385485,0.0006675729,0.06227055,-0.15985048,-0.175467,-0.13478051,-0.21473883,0.0732519,-0.2966408,0.60939157,-0.0029947935,-0.026757637,0.09116945,-0.07058816,0.06845279,0.36950168,-0.07983712,0.2278829,-0.21624996,-0.01851205,-0.032115143,-0.07514309,-0.32017702,0.018070936,0.015690211,0.11239408,-0.12344894,-0.17378189,-0.2669537,0.010800049,0.13015574,-0.63059884,-0.08848953,0.038824927,-0.0064741555,0.0570681,-0.24718381,-0.04761067,-0.094600365,0.09054111,-0.3893578,-0.029965632,0.11814189,-0.07432992,-0.062764786,-0.24001119,-0.0065483637,-0.4178595,0.106992126,0.0072953682,-0.043857265,-0.16087846,0.07612152,-0.011839925,0.60876864,-0.032275107,-0.14251931,0.23018634,0.10521367,0.17898121,0.029797744,-0.29341942,-0.09041362,0.084046125,0.10882572,-0.1570497,0.11427528,-0.1688491,-0.06753758,-0.1861849,0.22594868,-0.16909161,0.14228056,-0.12905769,0.21576351,-0.041534934,-0.6681894,0.07783902,0.20024383,-0.1290366,-0.18893422,0.026868213,-0.07542339,-0.3772185,0.0041318918,-0.20213747,0.14189865,0.17964774,-0.09183992,-0.068545505,-0.08213384,0.2621811,-0.004304974,0.020216761,-0.07054386,0.03041502,0.14064468,-0.042009644,-0.028175432,-0.12015993,0.042443253,-0.385583,0.12588416,-0.20318562,0.14457162,-0.022474185,0.059332546,0.06585058,0.29693457,-0.2301959,-0.3302749,-0.13347466,-0.1843061,0.045854542,-0.042223375,0.038585655,-0.274687,0.030859942,-0.014591945,0.3380145,0.07243932,0.15658703,-0.18064664,-0.014583248,-0.15622202,-0.19097902,-0.117053784,0.061694346,-0.1492399,-0.04197587,-0.18191768,-0.012332661,0.039956037,0.30195427,-0.06606867,0.09643346,0.08882627,-0.033031814,0.0021986968,0.024019515,0.09145022,-0.12510358,-0.14158745,0.16474396,0.06383009,0.08350202,-0.029270131,-0.0019452333,0.15395877,-0.18952595,-0.034288034,-0.10620899,-0.8761843,0.019037012,0.2265247,-0.06171455,0.06922882,0.047444474,0.19521254,-0.008870976,-0.0788466,-0.074765526,-0.1298862,0.0924699,-0.0890995,0.0222079,-0.022258893,-0.15404828,0.051922064,0.03037872,0.0017567629,-0.16786648,-0.206383,0.12446272,-0.003682192,0.037303317,-0.18912794,-0.12782007,0.017212851,-0.115138665,-0.12301536,-0.016521113,-0.042146288,-0.09263357,0.115327306,0.07262057,-0.030505791,0.052789215,-0.14791337,-0.10270197,0.16066194,-0.08685117,-0.069209754,0.1636907,0.049722303,-0.26643732,-0.21510659,0.17449097,0.18564434,0.05795107,-0.0839926,0.12777287,0.15745974,-0.036846202,-0.15346205,0.28126857,-0.08162423,0.24225383,0.00792699,0.23175585,-0.09507564,0.010626395,-0.018679809,-0.018340573,-0.111726746,0.21911001,0.04433326,0.092473276,0.20760195,-0.054272704,0.12428575,-0.17220362,0.21650481,-0.031977955,-0.06026214,0.11448392,-0.007489221,0.021419445,-0.1259535,-0.3392798,-0.05469972,-0.11972403,0.027952343,0.015637834,-0.14542726,-0.007752169,0.22372366,0.055496965,0.14086245,0.083867826,0.1265443,0.0044051227,0.18140122,0.069322735,0.054276824,-0.26825038,-0.031793628,0.027846,-0.076751605,-0.09765642,-0.013290091,1.0746036,0.0541116,-0.06751197,0.05097818,-0.06639577,0.103937864,0.025251161,0.16131443,0.11821735,-0.19063921,0.0015085547,-0.026256032,0.14936772,0.015034313,0.054302502,0.12826644,-0.39729336,-0.13570058,0.14380044,-0.05677038,-0.038061433,0.09474369,0.2343522,0.1065385,0.11978841,0.099198535,-0.122741655,0.23262608,-0.13837536,0.1840821,0.11751582,-0.06372905,-0.09778555,0.089464225,-0.05752103,0.014894911,0.10401888,0.107790895,0.10358113,-0.14373577,0.106151156,0.11631769,-0.01672234,0.0040013064,0.13448173,-0.34243187,0.041528348,-0.056125294,-0.12180222,0.10633917,0.11722329,-0.08724268,0.008828469,-0.04829785,-0.09208437,0.06120484,0.04580644,0.22073835,0.14362939,0.06519994,0.011448412,-0.17064625,0.06649455,0.06274722,-0.040910386,0.020516906,-0.059990697,0.033262484,0.057622228,0.04557729,-0.37281838,0.09246081,0.07743261,-0.06276937,-0.05354104,0.08426085,0.046205156,-0.039082542,0.14593798,0.03445564,0.15939896,-0.14772831,0.028212933,-0.0635385,0.10669244,0.039732855,-0.21246703,0.056708366,-0.24232669,0.11579416,-0.007222132,0.029820776,-0.030696059,0.08615601,-0.050844233,0.14542586,0.22810507,-0.061582286,-0.02627058,0.03176728,0.09691537,0.10371823,-0.22003083,0.016280148,0.09116185,-0.049711995,-0.08515135,-0.03574756,0.116517946,0.046748463,-0.17265885,-0.014083431,0.067857,0.105052486,0.0031601929,-0.03082421,0.087525435,0.10998727,0.14312088,-0.012406191,-0.0027661182,-0.28987604,0.13950731,0.036134344,0.1943099,-0.08540207,-0.10038534,-0.030866886,0.031240705,0.07205492,0.13931586,-0.0103952605,0.0035826487,-0.014959395,-0.09253514,-0.22862951,-0.12859981,0.060412228,-0.12872006,0.038359474,-0.06504786,-0.039976288,-0.06404296,0.032007243,0.33582196,-0.02430729,-0.24044213,-0.03305158,0.23308076,-0.67941076,-0.16397256,0.05360743,0.058253948,-0.15309042,0.017339224,-0.055740565,-0.084816694,-0.08303878,-0.31377006,0.2057555,-0.13609543,0.2702678,0.25633818,-0.052892826,-0.40832782,0.07318045,-0.17969084,-0.61299735,0.17260048,-0.22684965,-0.06825229,-0.05882396,-0.06089102,-0.45067638,0.01402142,-0.3150355,0.11315992,-0.17110448,-0.106244974,-0.03548056,0.1337484,-0.1154573,-0.8381479,-0.18845901,-0.2851064,0.26853377,0.13857308,-0.12242835,-0.06443669,-0.061570674,-0.05891275,0.23209982,0.10654367,0.05703037,0.13682881,-0.0073955953,0.08736684,0.06038046,-0.37375057,0.13046052,-0.059166666,-0.19520146,0.06687083,0.08010044,0.17039648,-0.2416108,0.01586253,0.036087766,0.1393208,0.05127847,-0.31600976,-0.07817672,-0.06803349,-0.12009365,-0.1623504,-0.000105596206,0.14681382,0.26754233,-0.19768247,0.075150125,-3.6718194,0.05569626,0.14054753,0.1202261,0.11098151,-0.055147685,0.031644482,0.0022348112,-0.07132024,0.025885364,-0.25020167,0.11703424,0.06875093,-0.5874824,-0.09900978,-0.19404249,0.19903146,-0.39450255,0.11294755,0.10478341,-0.02806978,0.294762,0.1675549,0.10948297,-0.35556662,0.23635848,0.18323788,-0.15533413,0.1886417,-1.7357626,0.296463,-0.012226208,-0.12378799,-0.09640823,0.010387344,0.05054697,0.040087733,-0.28745073,0.18551217,-0.29810917,0.15366691,0.045062594,0.079368256,0.11130899,-0.17621371,0.047899336,-0.08307059,-0.01373374,0.051538594,0.06306411,0.34362435,-0.20245147,0.08505341,0.052087016,-0.060935937,-0.7468617,0.112638466,-0.14018103,0.15977076,-0.0274872,-0.16832414,0.03293625,0.07530594,0.10742747,0.089974225,-0.19297285,0.028004317,0.10462976,0.14225061,-0.33478573,-0.2676011,-0.14948288,-0.028958088,-0.0032070237,-0.012062662,0.082224436,0.031002037,0.042076953,-0.04359977,-0.24239087,-0.13008793,-0.051588394,-0.30542588,-0.0100674275,-0.049573492,0.049775008,-0.52123666,-0.2579877,-0.20430252,0.13692015,0.011644801,0.10475514,0.23562042,-0.13378699,0.016973354,0.25783893,-0.18980221,0.06314814,-0.081346445,-0.13200085,-0.10429433,-0.24751541,-0.08534258,0.0011194932,-0.24449247,0.10122276,0.01527275,0.046152145,0.025706127,0.039960753,-0.23456623,-0.2987352,-0.20180432,0.093199655,-0.21882659,-0.23285715,-0.17386435,0.12930918,-0.15907006,0.195687,0.031487983,-0.19511798,0.016604954,-0.24148181,0.122128755,-0.19365965,0.088656634,-0.00259881,-0.020986414,-0.1268537,-0.27591547,-0.40435532,-0.19414431,-0.12707329,-0.02830838,-0.17896886,0.05877406,-0.072316974,0.03542434,0.008617113,-0.050114814,0.04532025,-0.08611779,0.04386448,0.26460972,0.019331582,0.054181308,0.058860477,-0.12941755,-0.7528229,-1.0116051,-0.27457085,-0.020748697,-0.23693007,0.11068837,-0.12970561,-0.30737603,0.10197786,-0.19628379,0.16051057,0.07933103,-0.038246356,0.106250405,0.0487232,0.04343777,-0.2317716,-0.17262493,-0.07127218,0.11679883,-0.2770554,-0.06146004,-0.62734586,-0.15137734,0.0923837,0.09802697,0.07466413,-0.2930389,-0.09458308,-0.28363764,0.05331098,-0.25375783,0.28533775,-0.03571636,0.095468506,0.22133811,-0.030968053,-0.010880943,0.045272045,-0.10909195,-0.0056850873,0.18869472,0.011340689,-0.29225245,-0.098136194,-0.016553609,0.30164474,0.052188035,0.25157088,-0.036803015,0.073950835,-1.1960531,-0.0935234,0.17296343,-0.12985252,0.11509843,0.2281613,-0.0065016476,0.043631155,-0.106171444,0.056506768,-0.22842784,-0.008641621,-0.18155491,-0.15179634,-0.24582145,-0.19798128,0.038174566,-0.06415647,-0.10247287,0.056192487,-0.31286162,0.26233083,0.03795434,-0.5195493,-0.18761258,0.05027071,0.14535843,0.15424323,-0.007895279,0.19817393,0.20618376,0.000973291,0.12377338,0.043590616,0.088930786,0.02938905,-0.024764657,-0.12456446,0.10829913,0.045739803,0.039353583,-0.053787958,-0.014256021,0.7874303,0.014946988,-0.26076126,0.011564423,-0.062043626,-0.07173406,-0.117615126,0.021618193,0.0015603475,0.030624893,-0.10917169,0.00022682866,-0.09350064,0.66562307,-0.032566793,0.29598325,0.08560682,-0.26091388,0.10596299,-0.14098306,-0.028990055,-0.012349707,-0.01808235,-0.06458139,-0.055251077,-0.06796535,-0.06372328,-0.3018735,0.059126157,0.2178169,0.09318648,0.03188506,-0.33883289,-0.02003815,1.1741163,0.019034363,-0.03690184,0.10071158,0.06323475,-0.23416752,0.06280932,-0.012783132,-0.11475074,0.20254749,0.2905002,-0.018778516,-0.23152457,-0.04977426,-0.064139016,-0.6039966,0.08347819,0.051590934,0.12541771,0.1601567,0.13853666,-0.19786176,0.07036547,0.045962516,0.19784987,-0.033650525,0.1828541,-0.20035785,0.18846391,0.057841983,0.042552568,0.039553907,-0.07256947,-0.031954676,0.033630226,0.075832725,0.07797588,-0.12047715,0.008327231,0.07748105,0.105454795,-0.16061364,-0.10709171,0.040538304,0.14647506,0.050879985,0.34135956,0.15805195,0.09504634,0.029727506,-0.07819393,-0.106295586,0.098890826,0.414694,0.40162292,0.20371813,-0.14923914,-0.038666,-0.013685404,-0.034053583,0.14047682,0.08536579,0.21768464,-0.0034469955,-0.14241281,-0.008114742,-0.50334084,0.18652576,0.13391586,-0.43833968,0.028549148,-0.25131065,-0.30476728,0.20670444,0.06559327,0.1485857,0.03663995,-0.06890619,0.67701584,-0.4562786,0.19840115,-0.059456177,0.0954205,0.019972667,0.12679313,0.06540815,-0.08707061,-0.1328749,-0.08583223,-0.1893185,0.19646308,0.26938364,0.23139621,0.083415695,0.055134263,0.12308953,0.006246789,-0.81288916,-0.16287892,-0.015961716,0.14694002,-0.002835638,-0.059510887,-0.09443248,0.0257804,-0.017519547,-0.11151054,-0.15703811,0.14707679,0.021408327,0.069120295,0.4505788,0.03679459,-0.032716654,0.13969819,-0.4594773,0.09434107,-0.45347586,-0.1109208,0.014266012,-0.22189903,-0.102551445,-0.15413682,0.1663995,-0.28828743,-0.32959667,0.023851313,0.07246553,-0.0070368634,0.061055377,0.09441405,-0.010337336,0.2068261,-0.2943543,0.13423537,0.14623603,0.06655552,0.08114934,-0.9339324,0.08656406,0.43302777,0.013783538,-0.056130197,-0.31572688,0.035700977,-0.10819107,0.17202629,-0.037879582,0.11784589,-0.013391046,0.09502621,-0.23260914,0.16562484,0.062507086,0.22028683,-0.12247895,0.09623075,0.06220261,-0.120913066,0.05522837,0.075443156,-0.18126968,0.32698962,0.24067336,-0.30414194,-0.066372916,0.08786197,0.0016862848,0.017264236,-0.40456825,-0.004317215,-0.22521643,-0.10114004,0.098398514,0.25577027,0.24964184,0.2118804,-0.04491149,0.14866377,0.059273135,0.07434718,-0.080932565,-0.10143064,0.096657656,0.053590506,-0.08698298,0.03230995,0.056315854,-0.520278,-0.09670356,-0.013125194,-0.04698739,-0.34978402,-0.15260276,-0.08750215,0.10490132,-0.18892454,-0.041488077,-0.004449828,0.10235059,0.15442084,-0.10932766,-0.21395697,-0.08951867,0.08979769,-0.085895024,-0.19576454,0.013916897,0.007900023,0.08283674,-0.01856367,0.08175169,-0.01843678,0.03357852,-0.070880845,0.19322477,0.16860482,0.13896522,0.053923126,0.13390043,0.026773077,-0.2674547,0.35995534,-0.1750954,-0.4676756,-0.14774212,0.13093363,-0.2771541,-0.03616903,-0.07058118,-0.18300635,0.17964423,0.06927465,0.058967706,-0.36636454,0.025095852,-0.25964186,0.16655146,0.078161694,-0.1142166,-0.17067313,-0.174503,-0.4063126,-0.052120313,0.021485716,0.013773712,0.05701861,0.03438529,-0.07025583,-0.11217059,0.286143,0.022479974,-0.116401464,-0.02327793,-0.5696443,0.049351834,0.36807144,-0.117396906,-0.049586765,0.12274039,0.2403276,-0.24572411,0.02520391,0.04630611,-0.027264021,0.1371712,-0.0294514,-0.060521822,0.053751443,-0.020874744,0.0060598417,-0.43394426,-0.09209028,-0.10379001,0.118527494,-0.055606864,0.037876032,0.040668372,-0.5966189,0.053444687,-0.16954586,0.010666441,-0.025156451,-0.002292453,0.07875986,0.48176754,-0.076170444,-0.5615695,-0.12226475,-0.12789714,-0.034603275,-0.20967129,0.04349981,-0.028661272,-0.08456441,0.045393784,-0.33511207,-0.011228178,-0.058755945,-0.11189877,-0.05867804,0.081785,-0.14557368,0.06371491,-0.046298444,-0.4575249,-0.023205826,0.2733681,-0.014823593,-0.52315944,-0.2720713,-0.16601431,-0.107084505,-0.054182597,-0.048722446,-0.07046593,-0.12547716,0.03539383,-0.15775304,0.029808644,0.15782848,0.21701269,-0.34496972,-0.05739301,0.5656814,-0.20690197,0.036794882,-0.15463744,-0.27907112,0.031167679,0.4132683,-0.07605018,-0.12675175,-0.06444641,-0.4007346,0.17700598,-0.072086774,-0.62080145,-0.09523547,-0.014021508,0.038330026,-0.06631355,-0.02749128,0.011682551,-0.06997424,0.00032971322,0.009726915,0.012582489,0.028639847,-0.042638242,-0.15836863,0.016807968,-0.0010482131,-0.20485444,-2.2684164,0.055298712,-0.18522342,-0.1565122,-0.10456758,-0.13469581,0.10115598,-0.1130941,-1.1904656,-0.48179996,0.043614257,-0.09928019,0.08160544,0.12752263,0.10460314,-0.14977752,-0.075096056,0.06864399,-0.046921447,0.053066142,-0.058777705,-0.04819537,-0.18618573,-0.01342088,0.07410507,0.058474477,-0.097681604,0.13415267,0.35051444,-0.016145745,-0.844777,0.002252246,0.07589714,-0.29330316,0.16141582,0.077321246,-0.12140123,0.052536175,-0.109557256,-0.09797068,0.08111558,0.036246397,-0.17904235,0.06582259,0.15857664,-0.552511,0.050623562,0.022554617,-0.026530122,-0.044644024,-0.014602066,0.076694995,0.15483436,0.09244339,0.029179286,-0.037957113,0.05331943,0.10148008,0.24176817,-0.3192016,0.014032288,0.1434235,0.013243709,0.067222856,-0.039718147,-0.18872117,0.20798638,-0.05957536,0.17142944,0.09772492,-0.09063396,0.17177731,0.1367045,0.07014228,-0.06336013,0.0058444976,-0.09688885,0.11994136,0.1684045,0.02678999,-0.086191975,0.27329764,-0.10638988,-0.068013385,-0.13444087,0.08899912,0.14959335,0.060091134,-0.0447881,0.0459812,-0.114993125,0.0001425599,0.037167292,-0.15191089,0.10624288,0.12890354,0.17728513,0.20606154,-0.13954632,-0.10630018,0.020650588,0.048385706,-0.03489783,-0.08451262,-0.29872847,-0.020437704,-0.14094515,-0.15943402,0.18779808,-0.02506585,0.06316288,0.1369733,0.000585837,-0.008907671,-0.11684041,-0.047352437,-0.050919477,0.06649107,0.09987116,-0.01098522,-0.24253856,0.26555175,-0.37555295,0.12916708,-0.08229683,0.047674417,0.62734467,-0.56858283,-0.06806885,0.123504505,-0.13120234,-0.13411349,0.020043708,0.058328904,-0.0065355874,0.04106,-0.31776688,0.022281773,0.06663803,0.017648365,0.2634484,-0.37462762,-0.039981782,0.17979503,-0.29460612,-0.14954153,-0.15851332,-0.04508655,0.0730245,0.0882894,0.017265202,-0.01806719,-0.08723392,-0.14446801,-1.2358866,-0.14822741,0.05006568,-0.06487812,-0.17621428,0.19948174,0.11606534,-0.11081021,0.1793403,-0.2647796,0.06707306,0.0031486033,0.020659918,-0.06858333,0.055372566,-0.0019594938,-0.1163032,0.024516586,0.16208363,0.013625021,0.06638428,0.15590721,0.09521362,-0.107310325,0.022505773,0.17200823,-0.047820248,-0.25003174,-0.6295993,0.14656854,-0.13015266,-0.10446699,-0.08084363,0.016029371,-0.9041053,-0.15619065,-0.14775555,0.06986701,-0.057189576,-0.09650134,0.067335665,0.05785922,0.35970655,-0.4427598,0.015046439,-0.01716047,0.005071314,0.09221647,-0.03209886,-0.12559962,-0.60834295,0.2317051,0.0058881417,-0.052331384,0.07307401,-0.02467578,0.21964335,-0.051081758,-0.046569247,-0.09279204,-0.07046847,0.020138504,-0.005950922,0.13527039,0.042893026,-0.08380815,-0.14141949,-0.26670158,0.10126505,-0.09525637,0.0137371775,-0.1350684,-0.09038331,0.08924243,-0.16181763,-0.15786573,0.08809825,-0.1655259,0.070005536,-0.16248436,-0.0443016,-0.14062084,0.022829527,-0.56133276,0.0035901244,-0.20317362,0.20156623,-0.28864726,-0.08927554,-0.13011868,-0.08136287,-0.02849501,0.16278966,-0.21909358,-0.10610168,-0.09894118,-0.12090961,-0.09630976,0.096071064,-0.38317707,-0.14834614,0.11605854,-0.019550137,0.23019256,-0.033430617,-0.060778584,-1.0266186,0.23244242,-0.070299,0.056910627,-0.09892744,0.023861628,-0.3383017,-0.2258711,0.36508045,0.07873022,-0.023044597,-0.10251554,0.20182763,-0.032864343,-0.035883706,0.012461515,0.021970516,0.31939256,0.07893764,0.06758332,-0.18843523,-0.17780992,-0.11887364,-0.0182007,-0.11707069,0.19502804,0.33132252,-0.21425752,-0.07231965,-0.11296761,-0.14998123,-0.21851224,0.077032484,-0.35187247,-0.010811739,0.049037118,-0.025868831,-0.05946805,0.19180286,-0.0812581,0.26010615,0.04186049,0.37201566,0.041846868,-0.024570739,0.042432625,-0.080101624,0.09061457,-0.41756088,-0.27700907,-0.22536322,0.0955805,-0.05122798,-0.24155457,0.20029654,0.011543784,0.14559269,-0.07897948,-0.4988047,0.29196623,0.04584238,0.14121552,-0.066958606,-0.10258225,-0.15610722,-0.20467253,-0.09818805,0.06148936,0.061109144,0.12822016,0.041977063,-0.22576368,0.19614492,0.14594159,-0.23122413,-0.023186589,